GIS
1
0.0
4
O
B-NP
I-NP

11
3532 0
467 0 1
2325 0 1 2
40 0 1 2 3
2 0 1 3
1638 0 2
1 0 3
2013 1
7768 1 2
6108 2
2 3
23896
cancel
undermining
nicely
unavailable
costing
Died
spreading
dismayed
=
?
evaporate
e
laden
entering
reeled
Add
straining
powered
Probing
undulate
amounted
suffered
besides
delivering
gone
walked
enjoined
disturbed
raging
embody
depriving
plotting
perilously
well-versed
reminds
protecting
adjusts
crunchier
Nonetheless
wishing
resurrect
hindering
quack
Faced
timed
became
ceded
specializes
jolted
Getting
fatten
splits
defines
unimportant
worked
reassert
accuses
defined
swells
clouded
creating
directs
infringe
reckons
distribute
prevented
accused
shove
torture
reassess
slapped
initiate
shook
punishing
adorned
assume
angering
construed
attends
jacked
widens
balking
pumping
budged
replete
reducing
countered
funnel
overhauled
regulate
specifically
enter
Finding
Given
overstated
assure
performed
fetch
prevalent
outlines
enlightening
outlined
shown
pointing
concentrating
envision
guarded
possessing
blind-sided
exonerated
underline
paled
touted
reassured
compare
undemocratic
unlike
reinvesting
withdrawing
astride
constrained
taught
grumble
borrow
did
die
retrieved
dangerously
forgotten
inconceivable
renewing
finally
remained
laced
repatriate
pumped
resisting
pales
Translated
relax
construct
Despite
injected
dearly
exceeded
'm
recalculating
yielded
curry
hoping
debunk
aggravated
spawned
dot
pours
overhanging
knows
characterized
lacks
Altogether
underlined
recanted
Walk
jeopardizes
presage
balk
suppressed
waving
eloquently
freeing
dug
conspired
commit
Equally
breached
regained
participated
wiping
remember
examined
mulling
inspire
legitimize
seeks
devote
expressing
adroitly
nominate
swiftly
Whether
admit
apply
foresees
separated
foreseen
eagerly
disagree
contends
relate
convince
hovering
across
eat
stir
rebounded
thinned
exaggerate
streamline
curPos=LS
squeezed
six-cent
seems
unwind
spend
Since
fabricate
awaiting
inviting
Meet
hamstrung
Be
stung
characterize
extorting
Meanwhile
By
skyrocketed
tearing
evaporated
Ca
generates
generated
excluding
complements
reassigned
kindly
Looking
packed
entombed
fails
occurs
gradually
IF
educating
IS
forth
keyed
If
Is
Feeling
thoroughly
dispel
weighing
boasted
flies
undertake
updating
articulate
graciously
Formally
supportive
prePos=LS
single-A
OF
chose
reinforces
ON
Of
Oh
Or
represented
remain
argues
specifying
argued
describe
presently
arriving
openly
To
UP
reconstruct
materializes
sued
submit
occupy
materialized
penalized
voiced
Alternatively
effectively
Suddenly
grew
Within
attractively
Behind
fought
underwrite
lowers
taxed
rained
comprising
comfortably
beefed
intensify
totaling
bombed
burned
criticize
proceeded
pleased
indebted
wondered
originated
provoke
backfired
presented
quoting
exercisable
sunk
sung
personally
produces
unveil
died
looms
dies
Until
From
geared
greeting
voted
grow
shrink
ai
extend
fold
blowing
unanimously
impervious
implying
be
ca
develops
Did
enabling
Depending
do
painfully
toured
intervened
inexplicably
relinquished
Unable
contend
covers
thwart
recalled
conserve
renew
triggered
flourish
appeared
violently
is
talked
writhing
fluctuated
stabilize
Frankly
plying
suggests
locked
profited
na
rushing
Except
oh
somehow
readily
outlawing
slashing
rocked
choke
adopt
oppose
obtained
executed
derided
insulating
Additionally
exported
maintains
analyzed
liberalized
uh
69-26
forgo
Please
forge
protesting
bolster
suggesting
frightened
perpetuate
approving
summoned
catapult
wo
disposed
emphasize
teach
auctioned
belie
subsidize
restricts
Noting
demoted
mistakenly
praying
surrounded
get
continues
snaps
marketed
bucking
rocketed
Primarily
succeeds
create
welcoming
stranded
salvaged
pioneered
renews
challenged
stating
follow
intend
Think
resemble
Adds
fluctuate
squeamish
devise
Having
recognizes
rejecting
languished
alienating
posing
gon
got
dragging
enlarge
avert
tracing
FOR
remarked
simmering
instituting
Naturally
wrestle
departed
regroup
purposely
inject
debating
delivered
hamper
lags
flashed
heaved
understand
vigorously
retrofit
analyze
favorably
categorized
accordingly
laid
contending
discussed
inconsistent
Valued
irked
renovating
whipping
lagged
dispense
However
Seeing
reconcile
replied
restoring
appalled
sorely
convey
imposing
cramming
extending
refusing
witnessing
lessen
discussing
earns
want
uncover
induce
wane
Running
reminiscent
huddled
Should
convict
disclose
entrust
reverts
Once
had
reappraised
anymore
guided
has
trapped
weighs
warn
repurchased
citing
rattle
overhauling
denying
lowering
Regardless
alike
beefing
unload
deprive
okay
having
stationed
doubles
doubled
confirmed
vowed
Being
Quack
panned
lays
repeatedly
tapping
manually
straighten
stimulate
Subsequently
diverted
deserve
restore
solicited
interviewed
chew
persisted
been
appreciate
delighted
distort
disregarded
dealt
Pressed
cited
cites
defrauding
dragged
lurched
repel
meet
underscore
drastically
bested
putting
listened
vanish
spurned
For
Occasionally
liberalize
reckon
fudge
swallowed
averaged
Generally
Elsewhere
self-sufficient
although
subsidizing
hum
Contrary
dropped
melt
surpassed
chop
reached
boomed
degenerated
stymied
curtailed
shielded
generalize
smack
Obviously
Were
regardless
relaxing
Going
reimpose
regulating
shocked
outpaced
reflect
Unknown
necessitated
Starting
reacting
fret
plows
faked
intervening
Speaking
afraid
invite
HAS
crumble
circumvent
ruin
streamed
replacing
impassively
extends
inspect
Does
judging
expires
jumped
detect
hurting
fretting
envisioned
calculating
professed
spins
portrays
reconsidered
confronting
erupted
enable
besieged
dressed
Get
seize
discontinue
dined
boldly
undergo
Known
stressing
smells
49%-owned
tossed
mishandled
enforced
repay
underscores
subtitled
fleeing
underscored
properly
invented
valuing
adapted
recalling
shortly
providing
unleash
Got
communicate
pushes
accede
pose
Predictably
nullify
hesitate
applauded
joining
raged
searching
identify
pour
shunning
pushed
mobilized
experiencing
shorten
repaired
urged
patronizing
urges
saddled
drained
filled
cite
Including
bumble
smashed
absorbed
qualify
constructing
coupled
facilitate
looked
compiling
erect
sacrificing
testify
using
slammed
investigating
gently
frequently
outweigh
lacking
Had
soared
supervise
shifted
defraud
leaking
lifted
pondering
prosecuted
screaming
marrying
planted
Baa-2
renounce
situated
vanished
spraying
suddenly
lobbied
poured
waits
speculated
Hit
waive
persists
transforms
forgiven
fielded
eaten
unfazed
omit
miscalculated
adds
comply
differ
rebounds
wrongly
semi-annually
isolate
indicate
contain
founded
entered
performs
flocked
pulls
searched
adjust
helps
vaguely
booked
Instead
liquidated
depress
disruptive
Alongside
outperform
bailed
fulfill
Capitalizing
reappointed
narrowed
recommending
brought
alive
composed
embarked
gripped
Together
rescinding
expressly
indirectly
skewed
sponsoring
expresses
restructures
falls
expressed
pre-empt
awaits
unnerved
preserve
shuts
jeopardize
Largely
afloat
loses
sells
relying
demanding
overthrow
inflict
vary
improperly
unduly
hinder
strengthen
faltering
appreciates
subtract
accept
Hoping
appreciated
redeemed
crippled
surprised
addicted
quell
understate
courted
laughing
declare
claiming
unloading
banning
leapfrog
insists
oversees
figured
collects
reforming
expedite
broadened
hesitant
tighten
simulate
provoked
ballooned
announcing
When
resembles
Keep
eased
knocking
describing
crashed
comparing
condemning
guarding
overemphasize
inundated
studied
'll
standardize
eases
Welcome
derail
entwined
spoke
shrugged
asserts
would
successfully
hosting
spanning
approves
throw
defecting
pummeled
confront
're
implement
beset
onto
misrepresented
lent
unfulfilled
flown
ensuring
lend
purged
worsen
enhancing
expose
spooked
realizes
fearing
loved
've
went
steered
sparking
respectively
overbid
discourages
hugely
reinvest
loves
discouraged
walks
reminded
wreaked
pitted
yelling
lets
translated
employed
lay
lest
redraw
were
improve
coolly
inflate
led
absorb
merge
liable
n't
let
rendered
enroll
promote
does
rewritten
Against
consolidate
admitting
outweighed
quit
demanded
surely
acquires
circulated
re-evaluate
Unlike
develop
nursed
resistant
cooled
licking
flaunt
manage
Partly
spared
conducts
imitated
incur
WHEN
remembered
unlawfully
threw
piled
provide
Smiling
Taking
aided
prop
prod
dole
abandoning
recognizing
launched
Like
sparks
done
proclaims
relied
banished
reschedule
expediting
relies
affirmed
amply
washed
cooperated
tacitly
attaching
allay
surged
principally
McCain
preventing
Compared
Note
touched
Called
existed
Typically
annoyed
involve
regulates
Shortly
displaced
cheated
seated
inching
vehemently
With
miss
busily
blessed
Expect
interpret
recommends
recoup
convert
proudly
Ever
opens
evaluate
inserted
advocated
may
vividly
unseen
presumably
technologically
convene
spurred
interrupted
becomes
busier
nationalized
contrasts
met
surges
depicted
stacking
messing
interpreting
eluded
comprise
beaten
invent
gunned
receives
invested
eliminate
believe
augment
toppled
swamp
holds
invest
associating
studying
cooked
injuring
pointedly
Complying
allow
defer
knocks
propel
ranged
disclosing
flatly
muddied
endanger
reliably
mop
eyeing
relating
linking
worsened
toward
among
galvanize
churn
defended
believes
believed
include
alongside
aged
sends
altogether
bombarded
dulled
Echoing
expecting
offset
shipped
invaded
balked
prepares
WILL
educate
risk-free
pegged
contains
raping
waned
aboard
contaminated
fared
reversing
highlighted
pushing
Putting
emerge
Take
incorporates
steeply
misrepresenting
Using
incorporated
antithetical
poised
forbidding
modeled
Worse
discriminating
bored
soaking
dumped
drifting
chiefly
visited
detected
arisen
attacked
aloft
swear
referred
manipulate
responsibly
driven
crossed
against
manufactures
withstand
encourage
punished
honestly
clustered
Meantime
cashed
urgently
deferring
materialize
telegraphed
reselling
portends
languishing
maximizing
bestowed
influenced
dispelled
reaching
dictate
stepped
pinning
manifest
decides
Led
overreacting
Let
angrily
decided
builds
eliminated
merging
hampering
eliminates
automatically
rallied
recommend
patterned
sneaked
persuade
stayed
understood
supported
resulted
solved
housed
forgetting
imagine
whack
reopen
involving
discontinuing
conquer
locking
battled
furthermore
delivers
excludes
when
excluded
endured
depends
Hopefully
survived
limiting
concealing
Hence
prevail
enabled
confuse
Without
survives
enables
hampered
infringing
Keeping
stressed
threaten
sweeten
stresses
borne
keep
acute
dissented
determines
deserves
invests
along
diminishing
Fortunately
investigates
investigated
promoting
insures
relinquish
topping
drifted
fraudulently
assuage
fueled
clarify
Hello
accounted
celebrating
deduct
Talking
portray
condone
commenting
troughed
overturn
confirms
Although
kept
exclaims
wedged
assign
renegotiate
Throughout
dispatched
acted
turned
widen
indefinitely
eventually
roamed
contended
exploring
greeted
Probably
rationally
Encouraged
retrieve
termed
Playing
concurred
Includes
positioned
faltered
Included
voluntarily
confer
drew
bracing
periodically
Judging
Remember
grabbed
nods
blew
assist
threatens
regularly
treated
praised
ensure
exploded
unencumbered
opt
solve
expects
scoffs
pre-registered
lied
succeed
profitably
Saying
Insisting
arranging
dilute
reasserting
come
instrumental
conceived
cope
infuse
Born
owe
connecting
reveal
drum
ambushed
Usually
downgraded
bitterly
asserted
proposes
clutching
researched
lengthened
considers
allowing
Also
underwrites
plagued
slowed
govern
begins
framed
calculate
Consider
seizing
costumed
arrives
acquitted
achieve
wields
arrived
plentiful
wipe
overwhelm
speaks
echoed
discuss
exceed
Unless
recycles
inquired
Compiled
revise
preserving
permitting
Above
detaining
remove
Over
compiled
realign
responded
perform
portrayed
revive
slowly
singling
Counting
engaged
stemmed
integrating
indicating
restricting
Among
attributed
imagining
burying
reaffirming
suspend
disagreed
Trying
commercializing
disagrees
initiated
locate
unclear
represents
Through
forfeit
pinpointed
fantastic
credited
Undeterred
demolishing
recognize
piped
figuring
echoing
safeguard
ill-suited
Would
giving
routing
frees
quacks
receive
equate
Amid
Supposedly
attracts
realize
Figuring
Nor
retires
predates
repurchasing
notwithstanding
pushy
striving
continually
identifies
pedal
apparently
stifling
refurbished
lately
sliding
extradited
listen
wondering
flatten
employs
consider
disarm
unharmed
induces
71%-owned
substituting
resurfaced
marking
brushed
transmitting
happen
devised
sparked
evaluating
comes
unwilling
solidify
blocking
consisted
committing
tells
prevails
insulated
Nevertheless
injecting
dedicated
ashore
blithely
accompany
jealously
transferring
Discussing
affects
strictly
tame
relocate
likened
proclaiming
appease
dived
Off
anticipates
allege
Aided
specialize
eliminating
convoluted
serve
importing
occur
drove
Have
seriously
convenient
uninspired
phoned
racked
populous
plowed
luring
appears
ranked
pre-register
grinds
overturned
complicate
helplessly
simplify
funneling
Previously
provocatively
numbered
dissatisfied
Says
undertaken
loathed
entitle
invade
subtracted
mastered
outfly
bribed
announces
girding
budge
beforehand
celebrate
owning
slept
guessed
swept
declaring
wants
akin
surfaced
answered
ratified
eschewed
employ
masked
yelled
welcomes
briefly
resilient
risked
welcomed
prolong
disproportionately
embodied
hoped
establishes
sympathize
caused
Following
hovered
afflicts
solicit
fostered
Furthermore
praising
solving
accommodated
forcefully
conferring
trumpeting
double-A-3
westward
Tell
gingerly
Testifying
warns
scorn
stabbed
ran
internally
topple
oversold
posted
blamed
breathed
mitigate
awarded
spearheaded
steadied
scour
moved
1,012
recklessly
helped
liquidate
escaped
therefore
irresponsibly
contiguous
groans
scrambling
prevent
appended
incapable
perked
modify
albeit
rid
vacating
retain
tended
impressed
reigned
bode
informing
conducted
alas
slips
wrecked
jumping
interfering
lamented
wielding
disposing
perched
starring
mount
skidded
Certainly
where
noticed
bowed
swallowing
justified
enact
imprisoned
Look
overlooking
justifies
experimented
kicking
sniffed
legalizing
introduce
saturated
oust
reorganize
underpin
erasing
collected
discloses
matches
heighten
criticizes
protect
criticized
stubbornly
born
bore
reluctantly
spontaneously
negotiate
affecting
understands
reject
sat
treating
completing
extracted
suffer
clashed
switched
Paying
proves
smoothly
see
cleans
compared
reiterated
compares
courting
stroll
splendidly
confined
forgive
Succeeding
trudging
getting
clears
sit
undermined
bound
obviously
retained
supervising
convinced
beside
anti-competitive
reduce
satisfied
buffeted
spurted
finalized
edging
operate
refinance
reconsider
compromised
alluded
preferring
mimics
satisfies
hopefully
resisted
implementing
sidelined
trotted
waiving
toying
dismantled
sow
rewarded
enacted
well-stated
downplayed
unfortunate
illegally
so-so
forging
Along
wobbly
chided
reinstate
buried
ponder
attests
pinpoint
yanked
requested
chides
computerizing
regains
interpreted
reinstated
sue
grounded
serving
Oddly
manages
amid
sponsored
slipped
DESPITE
wooing
garner
stunned
instantly
waffled
notifying
re-examine
bending
doing
Inside
rebuffed
double-A-minus
applauds
idled
inched
tested
tripled
postmarked
aligned
mailed
arising
amok
benefiting
climbs
overstate
chanted
unofficially
confesses
suspending
tap
ugly
towards
wraps
flunk
topped
said
satisfy
tends
Eventually
conceal
require
magnified
unhinged
rounded
squared
hang
concede
rejects
connect
rescind
ordered
violating
regain
reopened
converting
sustains
predicted
owes
erode
abated
sang
fetchingly
owed
aside
projecting
sank
provided
Surely
muster
provides
dolce
motivate
definitively
ranging
Ultimately
illustrates
prohibits
gained
struck
propose
illustrated
save
shutting
frankly
reclaim
ascending
championed
owns
disapproved
including
introducing
quipped
constitutes
anew
indistinguishable
constituted
says
Than
adopts
grapple
respond
caught
exceeds
Then
contrasted
Comes
reacted
stave
weighed
tear
attach
participate
occurred
masquerading
replaces
donating
anxiously
replaced
filling
underperform
registering
reflecting
premiering
strengthens
undertook
enlisted
inspected
exposing
suited
Traditionally
stumbled
ostensibly
imagined
attain
destroy
deemed
recounted
requires
submitting
consume
consult
coughed
propped
survive
blown
cling
tell
squarely
prompting
slashed
keeps
accustomed
unethical
flattened
Making
erratically
creates
stacked
Say
tend
scoops
endowed
subscribe
burdened
entertained
build
tolerate
resent
shouted
Otherwise
Thus
examining
swelled
fined
scaring
mentions
waited
exempting
transported
stealing
concocted
proposing
Around
believing
adamant
thereafter
diversify
embraced
puzzled
forked
embraces
overwhelmed
ignore
applaud
expands
overboard
callable
pressuring
invincible
revealed
deflect
warned
operates
bowls
operated
accumulate
surround
devalued
bumped
liked
opposes
pledging
combine
alter
curbing
concentrates
includes
dispose
transformed
included
assisting
attempting
combing
opposed
penetrated
questioned
legitimately
conform
inform
woke
enacting
observes
reassure
execute
Prior
transporting
examine
invites
bother
yanking
exploiting
protects
lasts
sever
cautioned
invited
disrupt
achieving
commits
revoke
censored
starved
raped
profiting
routinely
emphasizing
worn
lose
siphoned
indict
terminate
wore
lingers
consolidating
portraying
mysteriously
rushed
verify
prevailed
insisting
exists
off-base
subdued
rushes
reassume
preparing
dismissing
revising
insure
piggybacking
sipped
decries
instead
underscoring
Allowing
anticipate
markedly
sufficiently
ignoring
via
agrees
Where
subsequently
good-natured
devastated
proffered
learn
representing
monopolize
exploit
addressing
bottomed
achieves
abandons
vetoed
obtaining
Separately
complained
During
cheering
accomplish
lined
pooled
supervises
barring
achieved
happens
wanting
explode
specify
hatched
spilled
administer
climbed
declares
tucked
Try
subjected
shall
substituted
individually
outnumbered
declared
refinanced
relieve
complying
rated
maintain
farther
establishing
ruminated
differently
waved
feels
hindered
discovering
recovered
incorporate
recapture
sounded
unattractive
impose
Theoretically
derived
postponed
ensures
was
derives
quickly
decide
logged
shuttled
instituted
feeds
relieved
explore
sided
happened
opting
commercialize
stemming
hangs
laughed
choked
embarrass
popping
contribute
why
denies
Periodically
unfairly
leans
diminish
denied
evaluates
leaped
analyzing
evaluated
simultaneously
prove
accusing
stripping
tumbled
heralded
withdrew
unfit
observe
furnish
woo
preceded
Though
expelled
tumbles
never
usurp
mightily
anti-white
waived
achievable
withdraw
contemplate
unaware
dismissed
announce
gave
become
accrue
sending
inflating
knew
irreparably
equals
impeded
reaped
rekindle
stipulated
possesses
postpone
hear
embark
stretching
inevitably
wander
expire
seek
seem
defying
compelled
started
abstained
heed
dismantle
flowed
Actually
joins
risking
biting
ruled
embracing
Oriental
sees
Specifically
know
changed
whipsawed
specializing
securing
argue
Bowing
envisaged
Compare
Officially
quashed
conclude
susceptible
nervously
Adding
forcing
prone
privatize
obliged
translate
entitling
depended
WHY
plummeting
judged
sent
addressed
send
contacted
rejected
organize
diverting
treats
Normally
edged
exceeding
introduces
Excluding
undergoing
Therefore
without
slows
abetting
authorize
Citing
possess
placate
entitled
omits
boosted
resolved
defends
ruined
returned
rationalize
amasses
dominate
equaled
gracefully
contributed
contributes
zeroing
cleared
suing
sampled
Unfortunately
complains
amassed
sagged
write
dismiss
harshly
install
Finally
braced
restrict
prematurely
buoy
remembers
heading
soliciting
impractical
prevents
rejoin
beneath
entitles
quantify
unite
matter-of-factly
pursue
burn
spewing
tied
wring
doubtful
backfire
bury
quietly
snorts
marry
unleashed
hinted
Married
botched
thinks
angered
unnecessarily
mute
deteriorate
must
resign
hitting
retreated
anyway
raking
inhibit
nearing
combining
entirely
Writing
antagonize
till
attend
needing
preserved
basically
tendering
adapt
preserves
evacuated
disrupted
Was
bogged
forbade
quieted
alternating
snowballed
initially
Gradually
aroused
leveled
panicked
evenly
co-founded
customarily
emphasizes
emphasized
entice
vows
waging
governed
deterring
viciously
awaited
logically
resist
Why
pleaded
inappropriately
belonged
reveals
hopelessly
carcinogenic
sprout
posting
approve
nominated
determining
rumbling
reflects
safely
lacked
advising
stems
lured
depict
sustainable
lures
predictably
outraged
single-B-plus
assemble
thrive
abused
dispatch
flat-footed
enjoying
leaned
ignores
simplifying
ignored
unloaded
soften
featuring
killed
erred
therein
fired
accompanies
undercut
accompanied
afford
asks
Secondly
dutifully
enforcing
trailed
deliver
headed
notify
MIG-1
repainted
could
segregate
looming
Built
selectively
British-owned
Departing
accelerate
inducing
sooner
accepts
floated
predicts
redoing
forget
eroded
raided
curtail
belong
transform
attracting
advise
mushroomed
Nowhere
calculates
Upon
convenes
understandably
extort
dissolved
thereby
nevertheless
reshaping
upheld
Under
wears
coordinates
propelled
evolve
showed
convened
coordinated
equaling
afforded
whenever
falsely
cheaply
please
fantasize
condemn
smarter
Aside
decreed
conditioned
volunteered
stamping
arise
chastises
underneath
fail
repaid
decisively
steer
explains
overshadowed
forgot
harmed
steal
according
denounced
hobbling
unobserved
staged
wracked
shakes
shaken
sprinkle
intelligently
Similarly
primed
retire
accelerates
bolted
crashing
asserting
theorized
castigating
coping
concluding
erupt
bottoming
blossomed
choose
behave
undo
unites
enjoyed
punish
rebut
handle
happily
distributes
preoccupied
torments
promptly
Indeed
removed
atop
objected
removes
shed
copied
shortsighted
stimulated
modifies
reap
maintained
amplified
prompted
mobilize
resigning
collect
disappoint
confiscated
predict
formally
containing
noting
completes
annually
accuse
handed
Often
releasing
taken
takes
strenuously
reinforcing
rescinded
centered
assailed
challenging
parked
boosting
winding
assassinate
shuttered
attract
Leave
disappear
arrive
infringed
learned
resolving
semiannually
infringes
Assuming
severely
embroiled
maneuvered
rely
settle
minimizing
consulted
leery
inversely
shut
detailing
shun
wrapped
interrupting
crafted
slated
subvert
cautions
gets
stripped
Elaborating
loath
gaining
afterwards
adequately
accurately
insulate
plummet
benefited
instructed
tending
piling
Regarding
leaping
shouts
renovate
whacked
however
opted
relates
Wanted
captured
directed
unacceptable
reviewing
clobbered
appealing
provoking
join
renegotiated
reconstructing
assembling
attracted
Besides
focuses
emerged
misses
dissolve
hide
emerges
sift
sailed
levied
directly
misstates
pokes
establish
deter
misstated
belongs
proclaim
attached
Before
consumed
enjoys
squinting
declined
acknowledge
scored
implicated
reclassified
squeezing
informally
scrambled
surrendered
wiped
referring
engulfed
laying
vacated
confirm
appoint
boasts
Afterward
intervene
weakens
dumping
sing
demonstrate
assessed
Recently
aired
preclude
rescheduled
bounced
buoyed
lightly
react
Give
positively
Moreover
justify
effortlessly
ironically
impress
seeing
firmed
assert
sits
restart
prominently
expect
Asked
assess
tenfold
divert
should
regards
enforce
enjoin
restructure
securely
acknowledges
routed
reads
While
played
divest
co-sponsored
prepare
discourage
nowadays
oversee
teamed
endorsed
stabilized
applies
spends
elect
Based
rebuild
oversaw
consisting
destroyed
thank
reimburse
inaccessible
Personally
impeached
arranges
capitalizing
anticipating
arranged
averting
versus
irrelevant
resentful
recession-resistant
enlisting
cooperating
prohibited
Ordinarily
resurrected
leaked
hates
cheat
confided
undoubtedly
swamped
unreasonable
Conversely
upon
plead
precluded
Consequently
teaches
realizing
chooses
tapped
spoken
traveled
gotten
unconcerned
circulate
advises
cares
shrank
complied
dominates
Elected
fraught
refused
refuses
emphatically
laboring
detained
importantly
unable
involves
labeled
employing
involved
dominated
moderating
cared
Describing
enhance
advised
separating
tentatively
contemplating
allocate
Could
phased
meant
13.35
drafting
hesitantly
disappeared
checked
single-A-plus
obtain
repairing
advocating
vertically
behaves
penetrate
signaled
blaming
persuaded
seeking
earn
behaved
interfere
bucked
evolved
accepting
Needless
smiled
eats
plummeted
pave
paired
shelled
brings
adding
reviving
exacerbated
regarding
Because
varies
tackle
requesting
awry
exacerbates
stirs
deadlocked
inherit
withstood
pays
exhausted
tantamount
triumphed
Already
testified
mimic
whereas
inspecting
removing
served
whereby
serves
skip
liquefy
supplied
assimilate
competes
gearing
bribing
Likewise
tacked
sprung
terribly
circulating
unprofessional
narrows
ushered
sniffs
depend
enters
granted
refuted
scratching
collaborating
avoided
consistently
blundered
outlining
into
resuming
acquit
crumbled
prosper
appear
definitely
fend
displaying
abound
felt
trimmed
resides
indicted
overlook
exempted
forever
nicknamed
constitute
Curiously
knowing
enjoy
swallow
revisit
buckle
evade
discover
imply
peruse
alerted
cleaned
deployed
billed
empathize
notified
irritates
saved
spotting
saves
because
marched
behaving
capitalize
Ironically
prohibiting
flocking
minimize
Taken
wrote
capping
gather
damping
insist
risen
casts
defied
Sitting
dating
selecting
toil
jettisoning
Hold
slid
rife
told
foiled
crossing
carved
pouring
indicates
congratulated
Soon
scaled
took
catching
repassed
stimulating
define
tore
engage
persuading
echo
amaze
chaired
Clearly
formulating
graduated
exchanged
supplying
crimping
Thereafter
time-consuming
ripe
protested
earmarked
arouse
tout
sacking
swung
stalked
cater
destroying
disappointingly
shied
tempered
lived
refer
underpinned
discard
denouncing
abruptly
hypnotized
loaned
give
touting
Regrettably
explicitly
hospitalized
abate
sentenced
acknowledging
reverberating
amass
reclaims
springing
constantly
muses
earned
letting
refers
indifferent
screamed
weigh
relocated
collaborated
relaxed
spurring
surpass
approached
dipped
bring
promoted
trailing
promotes
ordering
consequently
rescued
scarcely
mounted
lasted
obligated
deleted
haunt
murky
ceaselessly
exclude
arose
identifying
modestly
scrapped
attended
disbursed
publish
counted
intimidating
dictated
diagnosed
escaping
Reflecting
Callable
modernize
flirting
seemed
wandering
compensate
ferociously
buttressed
weaving
hobbled
follows
torched
confronted
expand
swayed
investigate
dreamed
embezzling
allows
recover
determine
betting
Currently
exercised
Settle
relayed
Fueling
accruing
bundled
refocus
liberalizing
disturb
aiding
persist
incurred
speculate
partially
trimming
scuttle
abolished
bluntly
suppose
incorrectly
extract
locating
shaped
settles
depresses
asleep
seized
exist
evidenced
matures
According
dare
relentlessly
confers
unravel
structuring
dashed
distributing
avoiding
climbing
stampeded
Assume
blunted
conveyed
intends
confronts
assured
wasted
racking
pores
rewrite
alleges
disband
shoving
sharpen
tardy
faced
concludes
undone
belonging
skipping
erased
unnerving
underwritten
occurring
pollinate
precipitated
ceased
proceed
Essentially
assumes
doubted
shaved
piecemeal
bought
requiring
retains
prohibit
appropriated
broadening
foresee
imposes
hurling
redeem
kicked
confiscating
renamed
accumulating
digesting
Thank
landed
displayed
began
roiling
steadfastly
fizzled
offend
enlist
gives
squaring
guaranteeing
shaping
mutters
hailed
implies
subsided
disappointed
continue
cautiously
accountable
disappears
hooked
complaining
documenting
gravely
endorse
forming
hammered
extracting
grows
Added
meets
unfolds
awhile
overseeing
mired
conditionally
formulate
fueling
riveted
damped
barred
uncharacteristically
suffers
scouting
unfortunately
encountered
summarize
defeated
intensified
replace
feasible
prescribe
eclipse
thwarted
hurts
soar
sustain
arbitrarily
thrusting
rocking
restarted
caved
applying
disinclined
fulfilling
glad
endorsing
trying
i.e.
wisely
populating
spark
represent
compete
inclined
correctly
granting
forbids
marching
explain
arguing
soon
adversely
impede
summed
sings
gathered
heats
efficiently
hops
find
progressed
illustrate
hears
progresses
leaning
hunky-dory
insuring
heard
sought
vowing
polled
spawn
evident
writes
puttable
fashioned
distinguish
kidnapped
inflicted
intolerably
knocked
teaming
unless
ought
designing
abandon
intolerable
afterward
Seeking
restrain
redeeming
thrashing
Referring
begging
re-establish
outstripped
during
consist
draining
implanted
agree
focusing
enjoyable
quadrupled
Buried
violate
reduces
buoying
demonstrated
wherever
unprepared
prefer
struggled
appealed
sped
arrange
struggles
assessing
demonstrates
Apparently
misled
publishes
bedevil
signaling
stifle
unheard
crept
insisted
unveiled
aiming
misinterpret
normally
Maybe
endure
robbed
pulled
dwindled
agreeing
Baa2
add
amend
single-handedly
outperformed
universally
duplicated
embrace
cleverly
collectively
overlooked
concedes
Made
pleading
connects
reinforce
conceded
sterile
presenting
depleted
Meeting
accommodate
speak
circumspect
Wrong
alleging
spun
spur
implemented
complement
maintaining
singled
responds
resold
negatively
commented
undermine
louder
reverses
tuned
earmark
consists
reversed
scrapping
severed
maximize
devotes
hired
manipulated
broke
Make
Basically
succeeded
mandating
came
stirred
broaden
describes
ask
becoming
sixfold
ate
donate
abolish
approaching
defend
unsuccessfully
blazing
'til
pledged
loosen
sticks
lends
fulfilled
flooded
seldom
aggravate
nears
broadly
speculating
alleviate
choking
described
unraveled
forgiving
traced
mentioned
prosecuting
scuttled
defrauded
reflected
drags
ruining
violated
submitted
violates
funneled
facing
poses
bolstering
joined
integrate
Yeah
transferred
persuasively
swapping
shunned
complain
unrealistically
resumed
explained
await
recruited
demolished
improves
invoke
depicts
punishable
exclusively
begin
viewed
prefers
B-3
recounts
blasted
likewise
summarily
reviewed
redder
thrown
alleviating
throws
comprises
permanently
installing
ripped
curbed
jacking
handles
stood
encouraged
draws
drawn
deny
miserable
ARE
plunged
enhances
overcome
cooperate
honoring
handled
wished
cheered
generate
coordinate
stole
encourages
slumped
weaken
advertise
immensely
interspersed
halved
underfunded
rightly
consummated
rode
snagged
inexorably
sparingly
suggest
cease
Sometimes
propping
begun
goes
constrain
posed
destined
flee
fled
aware
flew
carried
tailor-made
distracted
carries
re-elected
oblivious
independently
misinterpreted
pretend
;
after
b
c
d
f
x
rivets
skyrocketing
Aim
All
plenty
abducted
There
mellow
rewarding
listless
barely
Ba3
Bad
prejudiced
battling
curPos=EX
0.05
'S
lying
bail
undesirable
Buy
starving
sealed
Nikko
DAT
Caa
sporadic
B2
Ad
As
At
Do
precisely
NO
OK
Perhaps
PS
overpaid
nets
So
featured
Up
\*
malignant
victimized
opened
hurt
freely
en
unmistakable
proliferating
proficient
fattened
inexpensive
intelligent
easier
tightened
retreating
purchased
prePos=EX
bankrupt
collateralized
deep-pocketed
bouncing
flashes
milling
appearing
notoriously
harmful
sway
surging
consistent
Only
morally
mega
Speed
trampled
non-violent
Overall
After
stepping
family-run
tracked
FORMER
preferably
worthless
Likely
disdain
skipper
segregated
shorter
laundered
deliberately
comforting
reconstructed
Revised
totaled
designate
His
obstructed
Pending
How
off-budget
Nearby
busted
glowing
macho
visiting
non-recurring
Developing
threatening
somewhere
stopped
Acting
What
tighter
deprived
blocked
tired
basing
shredded
Its
compacted
deferred
overly
quite
artificially
spares
1964
fixing
wildly
unbelievable
single-B-2
single-B-3
single-B-1
depending
Increasing
Your
herbicide
Even
single-B-minus
tinkering
Key
defaulting
Neither
Reps.
jack
ineffective
prevailing
diversifying
folded
elevated
decreased
decreases
nonexistent
Worst
Living
heated
tumbling
whatever
Hardly
heavy-handed
Increasingly
decreasing
OUSTED
willing
harried
lies
Retired
sexual
More
Either
Both
airs
About
disgusted
Changing
filtering
insufficient
freed
Not
eroding
Quite
neither
noticeably
Said
PAY
Somewhere
Closed
kills
dependent
reformulated
antiquated
Sens.
cliched
Beyond
blames
Pay
single-A-3
single-A-1
single-A-2
royal
always
ex-dividend
Sleep
serene
Put
participating
homosexual
anytime
spiked
both
proved
avoid
Concerned
nerdy
behind
detectable
paralyzed
Further
shooting
drunk
scratch
campaigning
have
anti-union
That
wasting
concurrent
This
measured
Help
Sell
reinvested
Much
Here
returning
evenhanded
whispering
bred
framing
observed
reignited
crushed
repeats
converts
defamatory
syndicating
curPos=WP$
unwarranted
Whatever
Top
programmed
blotting
experimenting
wet
explaining
who
excited
ramp
ordinarily
keeping
Sometime
admits
accomplished
jailed
predicting
slackened
Use
542
riskier
572
problematic
closes
Large
located
rebuilding
sexually
committed
namely
Systemwide
delinquent
unconventional
668
670
whether
peeled
critically
undetermined
brutally
dangling
Almost
recoverable
Absolutely
glued
overpriced
womanizing
sketchy
dramatically
Between
certainly
pointed
Later
weary
verbatim
impatient
slimmer
fundamentally
systemwide
unanimous
harms
firmly
accelerated
Older
well-entrenched
cornered
distributed
sporting
FIRST
shattered
ZBB
unchanging
repeated
either
Yes
Yet
outrageous
doomed
Foxmoor
bounds
refined
temporarily
opportunistic
spiraling
Rick
Earlier
customized
affordable
missed
respectful
Assistant
Never
hire
flapping
bounces
sighs
budgeted
distressed
deflated
rugged
transferable
withdrawn
electronically
sideways
balances
accumulated
applied
nowhere
considering
bringing
crazy
preTag=O
thirty
Alarmed
merely
advancing
whose
disintegrating
Leading
twenty
defending
surveyed
rampant
incredibly
unresolved
Typical
prodding
aplenty
Just
underestimated
torn
patched
retaining
exiled
irradiated
solely
necessarily
cancerous
Outside
345-47
fractured
literally
remotely
Barely
crumbling
settled
lowered
disingenuous
donated
Call
exporting
conscientious
dazzling
tilted
overflowing
snubbing
historically
combines
U.S.A
defaulted
peer
rarely
despite
Ba-3
Really
philosophic
exploding
Stronger
Especially
sometime
trim
Rising
remembering
Still
within
practically
fill
since
intentional
adjusting
fits
Charge
outright
fanciful
Back
spoiled
canned
are
Step
Nationwide
negotiable
carp
\*\*
simply
awake
disenchanted
downright
greatly
practiced
market-moving
capable
someday
Improving
stalling
halves
scared
twisted
Supporting
abrupt
'
,
.
1
2
3
4
5
6
7
9
A
Chancellor
roll
I
turn
`
a
eating
r
good
empty
copying
serious
root
multiple
better
part-time
order
reform
curPos=``
buckled
question
con
medium-term
effective
times
comments
uncertain
hemorrhaging
beautiful
sponsors
Are
sweeping
monitors
Group
cut
worries
reported
worried
marketing
domestic
prePos=PRP$
District
Dennis
lifting
short
finance
trains
convincing
creative
pro-life
bright
planned
trails
holdings
prePos=-RRB-
shows
critical
declining
dated
exotic
heavily
Bar
third
further
demands
contracted
curPos=IN
carefully
impact
shock
average
business
curPos=JJ
desert
curPos=DT
publicly
narrowing
Industrial
back
heavier
states
pound
ferry
curPos=FW
Big
concerns
prePos=WP$
industrialized
thick
balance
weakening
being
filmed
's
trading
scattered
curPos=CD
curPos=CC
mail
Bob
credit
spotty
--
prePos=WRB
dry
deposits
Wall
due
hiding
bank
magnetic
10
11
12
13
14
15
17
labor
Land
allies
male
20
22
25
26
27
28
30
31
35
36
37
star
39
curPos=JJR
drilling
bans
curPos=JJS
many
progress
40
43
47
wholly
uninsured
personal-injury
curPos=VB
50
55
curPos=UH
60
63
curPos=TO
66
needed
mass
speed
auction
common
interest
themselves
curPos=WP
75
Late
step
base
87
curPos=RB
90
controlling
97
secret
Securities
Korean
curPos=RP
reoffered
curPos=MD
thinner
prePos=WDT
Chief
walking
advantage
spent
curPos=NN
communist
temporary
year
branch
low-margin
planning
stop
prePos=VBZ
insolvent
catastrophic
brands
prePos=WP
ridiculous
severe
Co
need
loose
prePos=VB
hardly
lasting
prePos=TO
curPos=''
end
prePos=UH
GM
prePos=RP
turns
prePos=RB
valid
screen
prePos=NN
etc
prePos=MD
below
surviving
elderly
Committee
airing
harder
No
adjacent
borrowing
forms
On
Best
RP
bearish
default
knowledgeable
structured
black
such
wealthy
incomplete
huge
Free
improving
embarrassing
next
supporting
news
play
taxes
posturing
confirming
far
fat
plan
comfortable
suit
study
brokers
prePos=``
tragic
economic
grim
stuff
13.4
fed
section
looks
few
strain
plea
outside
effect
break-even
prePos=VBP
crucial
prePos=VBN
faith
prePos=VBG
prePos=VBD
recommended
matters
honest
addition
sure
ad
an
panic
Webster
as
at
fool
foot
charge
outstanding
votes
de
Port
attacks
piece
for
medium-sized
easing
content
plot
alert
form
placed
four
else
in
2-for-1
customary
clearing
places
wooden
enterprises
second
faster
sufficient
curPos=-LRB-
my
plus
license
no
mixed
of
or
sports
inexperienced
prePos=JJ
extremely
recent
Warsaw
lagging
prePos=IN
hedging
3\/4
attorney
bridge
strengthening
so
decision
cement
to
commercial
endangered
military
up
prePos=FW
purchases
prePos=DT
reading
prePos=CD
prePos=CC
phase
cooling
force
sabotage
continued
dress
Central
healing
criminal
Goldman
challenges
scale
Finnish
disappointing
earning
intent
persistent
G-7
reports
correct
Jewish
internationally
lack
regional
favorable
drug-related
wage
million
larger
wait
upscale
in-house
franchise
almost
earlier
Third
counting
extra
land
conduct
lesser
Amazing
sophisticated
limits
intimate
predominantly
voting
accounting
late
school
differing
last
wary
weight
warm
measure
checks
updated
yesterday
steady
early
disposable
longer-term
Far
her
mailing
alien
reverse
small
his
grossly
square
visits
brewing
curPos=PRP$
jumps
beef
advance
diverse
deals
hot
unsafe
how
intensifying
blast
blame
blank
six-month
lumber
contracting
envy
eight
periods
strike
short-term
international
Less
upward
discounted
present
arrested
West
impressive
compound
master
conventional
undervalued
overdue
free
trips
bursts
rule
curPos=NNP
dramatic
curPos=NNS
filing
isolated
pictures
nice
liquid
perfect
fewer
from
Japan
ill
paper
value
poor
enduring
excellent
fairly
charges
Bill
aggressive
God
controls
post
its
remedy
respect
retreat
Jaguar
income
production
previously
strikes
democratic
slack
property
centers
nothing
testing
partial
powerful
Benefit
points
couples
badly
wealthier
today
construction
acts
shopping
overtime
worth
popular
treacherous
those
worry
significant
worse
longer
watched
signals
everywhere
distance
unlawful
fancy
largely
reset
guard
bleak
stress
bottled
questionable
mature
totally
largest
Warner
Release
discontinued
disbanding
stupid
offer
civic
customers
developed
contact
Business
searches
vigorous
views
historic
false
prompt
elaborate
crowd
warrants
works
world
cyclical
report
married
different
level
raised
cross
worthwhile
foreclosed
exhibit
inadequate
remaining
access
audit
key
launch
vast
unusual
dismal
once
figures
litigation
specially
famed
Politburo
between
lending
overhead
overseas
weak
lean
Avenue
lead
capitalized
adequate
only
accepted
repurchase
week
Ing
studies
balloon
explosive
approved
warrant
solid
left
statistical
quiet
export
expanded
unsupported
well
gains
fierce
hostile
fuel
prePos=PDT
ambitious
defective
pitches
law
fine-tuning
less
generous
Glenn
doctor
press
subordinates
subordinated
collapsed
government-owned
fashion
insurance
smell
dogs
acquired
merit
overall
full
2\/32
bonuses
fund
three
1971
controversial
lonely
taxable
1990
1987
1982
1981
bids
1989
teaching
wholesale
low
1991
funding
initial
door
quick
experience
particular
pause
perceived
launches
York
Will
Second
regulated
record
milk
bill
willful
relative
accelerating
mine
mind
retailer
operational
shifting
signal
month
Early
spelling
relish
impaired
usually
signed
sense
field
man
advocates
1\/4
curPos=RBR
1\/2
curPos=RBS
pressure
colorful
exactly
Paper
about
above
moderate
frozen
animal
open
project
roughly
ranges
proper
bitter
stocks
Bruce
cells
reliable
attempts
benchmark
face-to-face
specified
writing
prePos=NNS
federal
prePos=NNP
cutting
failed
LTV
Street
inept
tendered
permits
returns
happening
detail
stretches
sleep
unlimited
female
volume
responsible
praise
sweat
rolled
moral
similar
drives
manufactured
cumulative
remodeling
honor
net
cable
new
influences
Lee
locally
fully
boring
confrontational
research
houses
revamped
engineering
rallies
designs
hidden
affluent
not
drops
now
what
timely
contested
modest
promising
determined
direct
modern
certain
robots
marked
otherwise
handicap
market
keen
Ltd
forecasts
alone
disproportionate
manufacturing
giant
peace
competitive
insured
search
graphics
commissioned
chairs
curPos=PDT
Fulton
compelling
reporting
significantly
presents
very
practice
delayed
issue
lower
odd
traditional
continuing
wider
May
veto
off
ruling
claim
fight
pretty
strategic
promised
speaking
estimate
Trident
promises
old
caution
Thomas
one
puny
drop
cold
mandated
curPos=PRP
wide
superior
premature
curPos=POS
abandoned
profitable
lift
nationwide
German
precise
sensible
cool
puts
own
Most
drug
massage
like
core
respondents
proposed
note
noncallable
line
cost
Chicago
fishing
African
wild
slower
protected
wins
fashionable
apparent
wine
wind
flight
independent
yellow
plausible
listing
licensed
licenses
blue
unprecedented
acceptable
par
pay
enormous
wire
spending
sinking
Press
medium
fatal
recycled
live
lucrative
Municipal
amended
service
bleeding
per
unwelcome
ever
even
robust
New
Fifth
guarantees
guaranteed
Three
rising
subsidized
burning
prePos=:
interested
prePos=.
formerly
prePos=,
curPos=VBZ
confidential
low-cost
abnormal
pop
routine
escape
funny
No.
curPos=VBD
curPos=VBG
curPos=VBN
curPos=VBP
co-managing
scheduling
pro
institutional
Now
playing
refining
anything
minimal
retired
put
-LCB-
light
prePos=SYM
7.20
suburban
touching
MORE
foster
organized
travel
solidly
pessimistic
major
answering
funds
absolutely
request
clear
clean
governing
listed
account
mostly
innocent
safer
prime
loyal
mainstream
route
7.90
negotiated
bottle
spreads
appeals
Saks
imaginative
absurd
prior
talk
tall
landmark
bellwether
commonly
plunging
apiece
lifts
existing
print
tape
anticipated
protest
unpublished
underground
painted
member
positive
reviews
selected
clutter
position
Congress
experienced
coming
Department
negligible
enthusiastic
POS
processing
collecting
outline
operating
restrictive
curPos=WDT
mainly
leaves
offshore
announced
rough
scheduled
price
defensive
games
swelling
hopes
established
damaged
holding
expensive
building
ketchup
dollar
rolling
French
targeted
unrelated
red
finish
swift
world-wide
commendable
trust
prePos=RBS
prePos=RBR
1,000
moves
feminist
decline
exit
retail
steadily
unsolicited
tender
infected
fledgling
buffer
hiring
row
abroad
unnecessary
state-controlled
caring
dull
matching
grace
vice
bomb
view
bold
Long
crop
benefits
negative
self-employed
prePos=NNPS
lavish
target
restricted
duty
curPos=SYM
experimental
Work
truly
downtown
phone
failing
damage
more
inaccurate
accounts
bidding
percentage
kind
timing
most
patient
sequester
accompanying
move
saw
spread
educated
favor
fluid
delay
strong
proven
petition
jobless
bowling
shipping
little
unfair
over
brilliant
six
packaging
fresh
advanced
thanks
ski
striking
large
compromises
change
corporate
constant
proceeds
1.5
gripes
pricey
highly
chance
100
106
110
111
unrealistic
120
secondary
Sept.
unusually
sum
secretary
preferred
makes
threatened
higher
170
missing
turnover
Quebec
passing
shrinking
review
efficiency
prePos=POS
racing
sympathetic
range
glamorous
feature
prePos=PRP
skiing
tremendous
leasing
growing
tax
skittish
ranks
safe
fragile
projected
eligible
idle
really
half
competent
triple
same
commission
rational
hand
the
straight
exciting
obvious
tie
disguised
harm
hard
suitable
block
preTag=B-NP
scrap
top
too
orderly
casting
Toronto-based
famous
trusts
2.3
regard
Roe
markets
obligation
mounting
210
stable
229
restated
state
probable
opposite
offering
probably
constitutional
battery
two
250
attack
services
team
260
twists
surprising
290
house
mutual-fund
opposing
start
stars
fallen
downward
required
measures
leased
unknown
leases
mildly
randomly
friendly
speeds
drinking
water
formal
San
elsewhere
Republican
three-month
influential
pro-choice
distinctive
rigid
staff
possible
right
stage
complicated
under
fears
later
possibly
test
misleading
University
final
Sit
occasion
loan
training
deteriorating
schedule
blackened
overwhelming
grant
prePos=-LRB-
lock
3.2
3.3
3.4
3.6
3.9
stamp
Pacific
comparable
use
nursing
concentrated
waste
cheating
320
Canadian
negotiating
reckless
smoking
retailing
350
entrenched
benefit
362
unique
long
375
cuts
Classic
controlled
extensive
increasing
rapid
surprise
Prime
Secretary
recording
landing
yields
loss
lost
work
love
mortgage
bullish
lots
Overseas
Americans
unsettled
mining
Oregon
clouds
stolen
far-reaching
hands
handy
restructuring
appropriate
least
The
stagnant
newer
galvanized
notes
flamboyant
official
spring
leave
curPos=WRB
often
tests
useful
private
special
Asia
4.1
4.4
4.5
4.6
jokes
4.9
slightly
newly
vs.
burdensome
narrow
shape
400
singer
US$
transplant
416
share
sharp
Journal
naked
links
financial
dreams
running
Record
rates
transport
long-term
undeveloped
curPos=$
curPos=#
475
expected
monitoring
deposit
guarantee
metric
developing
operator
white
lackluster
wonders
leads
fields
import
central
factor
curPos=:
green
way
curPos=,
disciplined
issues
double
gain
financing
older
great
discounts
rain
automotive
unexpected
integrated
administrative
parent
losing
rank
doubts
4\/32
former
sudden
quicker
familiar
unsecured
maturing
plunge
rare
Chandler
which
5.4
5.9
vocal
perhaps
rate
memorable
disputed
disputes
contrast
progressively
extraordinarily
political
that
Republicans
limit
Real
heat
careful
head
imported
reserve
rescue
families
heck
clever
brand
inevitable
then
closer
single
closed
separate
reasonable
rules
reluctant
usual
this
reasonably
thin
changes
slight
cumbersome
deeper
held
courts
deeply
surrounding
contract
sluggish
rumored
Show
south
north
sell
help
10,000
underwriters
sound
expenses
here
concrete
engaging
costs
smoke
inefficient
much
weekly
sets
Combined
6.5
novel
6.9
sworn
State
young
610
marginal
sexy
mobile
pocket
John
focus
changing
approach
underlying
champion
American
658
costly
particularly
liquefied
sustained
suits
associate
stricken
affected
army
basic
combat
ties
busy
automatic
moderately
advertising
crowds
welcome
separately
abundant
input
Managing
thinly
Federal
budgetary
allegedly
exports
settling
stronger
yen
yes
yet
contentious
time
buzz
authorized
House
terrific
tiny
2,000
efficient
garden
potential
twice
values
affiliated
point
predictable
price-earnings
active
court
subsidiary
defaults
firms
7.5
7.8
subjects
calls
aging
sometimes
questions
promise
reckoning
beginning
waiting
softer
notice
bloody
grants
sleazy
approximately
tracking
suspected
sensitive
altered
fires
acting
unconsolidated
marks
cheaper
difficult
steps
genuine
tougher
quotes
quoted
Corp.
fact
fundamental
bases
face
conditional
elected
Latin
vital
salvage
rewards
damaging
comment
fair
safety
competing
provisional
zip
fruitless
steel
steep
foreign
choppy
fall
fake
first
repair
factories
seemingly
prePos=JJS
prePos=JJR
listening
curPos=-RRB-
stages
growth
Easy
farm
virtually
East
Building
maneuver
close
Chairman
fast
Russian
educational
shell
peaceful
overnight
bills
White
underwriting
Buying
Ambassador
resorts
tough
local
yield
U.K.
pregnant
touch
real
monthly
gear
diminished
government-controlled
radical
reason
ship
exclusive
demand
photographs
U.S.
broken
Great
armed
debate
vulnerable
estimates
Stamford
selling
shop
cautious
recession
shot
cracked
estimated
nervous
rent
billing
soaring
licensing
luck
influence
important
daily
rest
original
900
front
You
projects
complex
previous-year
plans
plant
38,000
national
subsequent
somewhat
North
related
legendary
destabilizing
cycling
sick
ordinary
breeding
thinking
side
counseling
South
traditionally
high
8,000
Europe
adjusted
decent
total
viable
declines
plays
social
interesting
control
publishing
harsher
silent
lighter
fourth
dislike
available
extreme
especially
speeding
records
pending
vivid
prestigious
punching
British
strokes
compromise
reach
following
unsuccessful
place
informed
firmer
dispute
bigger
hits
state-owned
plain
surprisingly
individual
loans
computing
limited
accrued
informal
Freedom
notably
reserves
size
slowing
balanced
heightened
police
violent
check
supposed
Young
poorer
coated
cheap
minor
well-known
franchisee
3.25
similarly
distinguished
opening
industrial
supply
pace
pack
each
labels
perfectly
document
killing
dollars
Union
Court
weakened
doubt
fixed
painful
RISC
waning
center
purchase
equal
paid
parking
pale
seasonally
100,000
means
indexing
improper
inappropriate
jewelry
illegal
ease
part
crack
past
easy
senior
Strange
added
incumbent
legal
human
arrogant
blanket
discount
supplies
fear
broadcasting
coaches
legitimate
upset
inflated
targets
ethical
feet
non-deductible
terrible
feed
lists
thriving
repeat
repeal
35,000
crash
tightening
substantial
quality
shared
shares
benign
supports
stiff
appeal
forced
First
bears
forces
flying
secured
recently
incredible
prepaid
renewed
healthy
richer
whole
Boston
unconstitutional
profits
still
parallels
internal
naturally
middle-class
voice
tours
debt-laden
cleaner
appointed
talks
command
tax-free
revised
desperate
leading
politically
moving
upgrade
June
on-site
optimistic
curPos=NNPS
weird
surrender
attributable
perverse
Little
sailing
technical
ride
capitalist
rich
Hong
release
judge
Sony
stores
-RCB-
tops
True
nasty
intense
positions
around
lightweight
specific
risks
risky
bargain
dance
imminent
slow
three-year
maybe
silly
documents
attractive
Texas
September
graduates
nearly
vested
detailed
risk
rise
nearby
withheld
catch
financially
lives
explicit
implicit
dowdy
wrong
heads
board
Intelligence
used
overhaul
swings
breach
selective
soft-drink
league
industrywide
Better
essential
presumed
warning
heating
management
burns
generally
complete
edge
widespread
toxic
incompetent
considerable
brief
considerably
homeless
2.68
painting
remarks
exercises
consolidated
minus
conservative
buying
amazing
satisfactory
support
damp
Plans
fiercely
filters
discounting
displays
closing
depressed
voluntary
uninvited
Cars
ominous
innovative
offsetting
dark
edible
asset
date
realistic
brisk
ground
dash
preTag=I-NP
snap
chips
investing
alleged
borrowed
leveraged
queries
printing
combined
imperial
liberal
softening
sharply
amounts
weighted
rivals
strange
claims
withholding
producing
peak
there
Egyptian
tainted
members
stock
cause
design
working
chief
accord
Hispanic
emerging
Inland
consulting
prePos=''
standing
offers
guilty
booming
volatile
generic
typical
pricing
circles
program
struggle
reassuring
valuable
minimalist
desire
permanent
imports
flooding
managing
their
general
process
National
soft
jump
venture
flexible
inflammatory
haunts
spare
emotional
junk
hold
rubber
train
beneficial
relatively
Guaranteed
some
purchasing
primarily
just
sole
monitor
solo
tracks
home
material
iron
Good
answers
hope
classified
loading
vacant
heavy
quarterly
file
affirmative
return
seats
fine
host
sort
trash
true
dangerous
sour
troubled
falling
extraordinary
processed
credible
firm
fire
savvy
Victorian
prominent
people
ranking
inside
five
reasons
every
desirable
hints
reduced
itself
broadcast
tight
published
public
track
trades
trade
currently
vague
packaged
packages
lighting
cultural
warming
act
dubious
exchange
recorded
age
smaller
ago
years
1.16
Catholic
spot
aid
other
drastic
air
defeat
signing
commissions
all
already
contracts
simpler
and
any
collapse
thought
taste
anywhere
resort
devoted
spirits
Bank
increased
increases
arm
call
calm
protests
results
200,000
volunteer
name
Judge
monitored
broad
pledges
cash
greater
case
excessive
care
exercise
transfers
cooking
display
simple
package
transfer
profit
amount
convertible
enough
increase
bad
Stop
bar
draft
hazardous
angry
canceled
day-to-day
deal
dead
practices
earnest
unstable
boosts
finances
deep
living
practical
breathing
steering
bid
big
frustrated
improved
upgraded
Board
model
Interstate
duty-free
surface
Working
finishing
convicted
B-2
several
anger
relevant
Wednesday
upstairs
recycling
unauthorized
essentially
paint
trendy
horrible
closely
morning
stops
extended
current
offensive
slipping
store
but
buy
zero
engineered
Trading
written
enhanced
backing
successful
normal
lovely
weaker
functioning
retiring
weather
natural
Next
substantially
pervasive
rock
flat
recall
scarce
potentially
hedge
can
floating
privately
rival
#
$
:
''
CC
CD
DT
EX
FW
IN
JJ
MD
NN
RB
TO
UH
VB
WP
``
PRP$
JJS
JJR
NNPS
-RRB-
NNP
NNS
PDT
PRP
RBS
RBR
SYM
VBD
VBG
VBN
VBP
VBZ
WDT
WP$
WRB
-LRB-
preTag=
prePos=
guards
Sure
pick
gloomy
!
%
&
-
amusing
10.7
double-A
result
flip
resume
s
dogged
faithful
erratic
permissible
taking
pile
flashing
flow
timid
resonance
woman
ping
rosy
picture
rose
Plus
And
Reserved
renowned
cry
moderate-income
pits
picks
cup
air-conditioned
irreverent
shout
think
paying
shoot
starts
widely
kiddies
chilling
shore
nationalistic
revoked
dates
Beginning
frivolous
planner
precarious
hanging
chauffeur
viewing
going
Heard
choosing
override
partly
bickering
dig
dip
chartered
stray
ludicrous
showing
attempt
'd
made
curve
known
pristine
peaked
non-callable
stinging
strip
bearing
handsomely
bald
make
meaning
band
meaningless
released
singing
vastly
highest
But
stay
releases
respected
treat
approximate
redesigned
troubling
knock
uneven
bars
bash
mark
stem
subordinate
trend
spotted
stated
unwise
reward
ebb
juice
gathering
spell
Can
thrust
Bureau
watering
awful
understanding
neat
near
immediately
drilled
Am
neck
logical
faint
staggered
10th
tries
Go
responding
tried
abrasive
reinforced
clocks
seventh
buy-back
In
Rather
autonomous
driving
unexpectedly
trick
spies
credits
single-B
endeavor
rolls
full-time
2-to-1
voices
rents
wanted
gray
fortunate
grab
battered
widening
features
Ty
sharing
trumpet
daunting
attempted
prized
stuck
ambivalent
intellectually
rendering
completely
Always
dial
continuously
staggering
booking
foil
gruesome
produced
hung
sums
remark
fit
fix
digs
proceeding
am
haunted
by
fly
skeptical
11th
scare
ill-advised
scary
needs
favored
fog
go
easily
if
likely
supplement
recovering
delight
distracting
patented
la
laudable
flowing
dream
dish
noble
plug
Due
nettlesome
on
sitting
increasingly
registered
freeze
blending
discovered
defunct
lecture
issuing
v.
loaded
capturing
scans
reeling
14.7
yielding
suspect
harbor
lightest
regret
Guenter
kinder
Ridley
teeming
recognized
recruiting
rancorous
replies
melding
canning
audition
strapped
subtle
last-minute
neglected
End
shocking
rhythmic
considered
decisive
suspended
upbeat
unhappy
Offered
discredited
gut
worrying
pivotal
measuring
wake
swap
performing
foremost
wall
walk
drift
discarded
ward
incompatible
found
beating
secure
brush
wash
impossible
dried
exercising
ends
engineer
lazy
smart
confusing
smash
profligate
before
hit
beat
bear
Wedd
debut
polished
sounds
crowded
mean
juggling
Left
hoc
characteristic
answer
regarded
restored
reply
reshuffle
Well
reaches
bent
trigger
able
concerned
snooping
best
rooted
mesh
rubs
immune
concerning
intensely
puzzle
triggering
actually
oldest
ONCE
spill
revealing
expired
staging
refurbishing
publicized
Dogs
compatible
refund
blaze
meager
finishes
runs
poll
descending
Coach
finished
manufacture
haunting
stomping
rush
Door
tricky
creeping
pool
charged
founding
linked
repeating
constructive
wrapping
overwhelmingly
flopped
Down
Witness
Diego-based
confident
saying
productive
gentle
revamping
shortening
novelistic
Open
tarnished
deteriorated
17.6
watches
barges
sanguine
worst
leaving
hence
stranger
aborted
feuding
collapsing
co-sponsor
tooling
cushion
visually
streamlining
equivalent
narrowly
drive
intractable
sixth
lucky
packing
candid
wearing
chasing
leveling
drink
narrower
unsound
scramble
split
restructured
pursued
drill
backs
stumble
Selling
raises
primitive
tightly
Prebon
austere
shoddy
throughout
intact
wear
pared
leap
deepening
crashes
furious
balloons
fearful
rethink
meanwhile
accessible
Institute
feeding
resigned
address
fifth
flows
realized
concentrate
handling
experiment
spots
matter
acquiring
rails
produce
lag
biggest
function
raise
west
lap
pitched
shining
hastily
levy
wound
quips
lengthy
toiling
lining
prey
ruble
proving
quiz
clad
collapses
lie
homer
appropriately
nationally
log
lot
tumble
clip
crushing
wasteful
amiable
Copy
dons
fitting
omitted
chaotic
grateful
stocking
down
launching
solvent
divisive
72-a-share
worthy
bite
travels
tax-deductible
printed
physically
mention
mad
legally
map
contemplated
ideal
airborne
wicked
structure
received
flood
boost
liquidating
hyping
mix
though
receivable
associated
suffering
funded
greedy
emotionally
slain
catering
claimed
punch
non-invasive
prepared
float
divorced
slaps
commonplace
subcontract
ultimately
slash
guess
refuse
stretched
sweet
triple-A
Worth
80%-owned
cruel
DeConcini
denominated
deliberate
mapping
flawed
swell
preceding
decorated
Secret
reversible
liberated
slopes
permitted
disabled
attribute
forecasting
unexplained
strips
imaging
decrease
blind
blink
nor
pinch
Holding
battles
crush
syndicated
farms
burdens
markka
crust
whip
stumbling
pleasing
cruise
blunder
sloppy
terminal
contained
Fourth
replenished
urging
turning
laundering
franc
softened
oddly
frame
clash
mistaken
gamble
drag
clamp
sadly
draw
calming
unplanned
chosen
Met
code
breaking
starting
pump
paved
strained
connected
pull
materially
aids
smiling
grudging
NOW
yearly
learning
honed
push
out
copy
cook
amazed
unified
insulting
hospitable
blow
ending
link
aims
will
bordering
challenge
ebullient
clutch
ahead
talking
minuscule
recruits
wish
deadly
wise
vicious
list
with
imperative
Quick
attributes
Dirks
pin
pit
snapped
strengthened
evil
forthcoming
attending
satisfying
followed
meddling
indicative
sanctioned
unfocused
...
placing
uncomfortable
unstoppable
intrinsic
tirelessly
assembled
shadow
identified
bruising
indomitable
Sachs
questioning
eighth
encounter
uneasy
executing
hunting
rally
arched
vault
contradictory
take
respects
restraining
peculiar
shedding
hardest
socially
smile
confused
backward
experiences
Save
acrimonious
single-A-minus
outfit
except
monumental
admirable
installed
towers
wonder
again
stockpile
Out
moreover
causes
finger
evolving
downgrading
laughs
galvanizing
charging
round
comic
score
quote
rat
shaking
hurried
institute
300-a-share
nightly
swing
leisurely
calling
scout
unpopular
helpless
smashing
sorry
irresponsible
practicing
northeast
exempt
rim
doubling
meantime
buffet
double-A-plus
equipped
dumb
dump
suggested
accurate
hosts
inspiring
favors
kick
rub
through
run
mold
boom
generating
ally
bono
mouth
assuming
horticulturally
transmitted
anxious
slice
annualized
saving
slide
awarding
matched
autographed
kill
wrangling
diluted
cavalier
bowl
causing
sad
disclosed
also
say
compounding
switches
little-known
easygoing
year-to-year
onerous
overbuilt
set
uncovering
awesome
typically
shy
appalling
smoldering
firsthand
peers
foolish
encounters
priced
spy
84-6
tempting
dancing
managed
condemned
express
anecdotal
unfolding
fooling
flush
figure
shelved
193
guide
screens
spills
Ministry
seething
confessed
tag
filed
files
distinct
targeting
sweetened
terminated
smooth
technically
third-largest
wreck
rattled
stapling
telling
contractual
halt
resolve
Again
laugh
unchecked
gorgeous
reopening
nosedive
permit
hate
pressed
traveling
dizzying
statewide
haul
reorganized
authoritarian
warmed
ventilated
try
patriotic
totals
probe
directing
refrain
247
248
restrained
untrue
251
downbeat
desired
watch
dying
thumbs
bypass
231-191
complementary
climb
crumpled
celebrated
raising
created
stays
lauded
exceedingly
built
finds
See
resell
grasp
spotlight
Pennsylvania-based
parcel
nude
swaying
load
U.K
qualified
helping
pitch
stall
brew
audited
embarrassed
dwarf
stand
touchy
forward
309
subject
likes
motivated
picking
nonetheless
uncommon
rapidly
activated
Driving
cure
curb
352
drawing
Kong
divergent
368
switching
374
frightening
396
loot
admitted
dropping
look
murdered
winning
Zoete
stampede
loud
hotly
provision
attacking
allowed
staying
inspired
notch
agreed
secretly
lease
sleeping
finely
desperately
intentionally
noted
supervised
undertaking
called
succeeding
brave
splitting
unintended
Too
pertinent
charming
asked
vacuum
ravaged
shake
tapers
shaky
fastest-growing
Hamilton
shoots
immoral
490
tastefully
best-known
countenance
remains
might
deposed
wad
manipulative
bothered
curPos=.
unscathed
issued
spurts
cushioning
institutes
receiving
wed
nudge
rage
organizing
arrest
raid
win
lobbying
visit
marginally
Alter
redesign
looking
formed
interview
naive
won
17-store
watching
divide
contrary
rash
501
wrestling
aimed
understated
halting
530
troublesome
undistinguished
conscious
while
Read
picked
than
documented
rosier
feeling
worrisome
seal
570
occupied
allocated
redeemable
prePos=$
prePos=#
impeccable
seen
apart
necessary
remarkably
baseless
thoughtless
enthusiastically
remarkable
machikin
ingenious
Guide
frustrating
uncovered
planting
beyond
revolutionary
exact
ended
addresses
fertilized
proud
short-lived
sheltered
buck
magical
introduced
whatsoever
thus
pollinated
arch
wrap
adopted
clearer
obsolete
reasoned
reputed
Report
retrospective
named
averaging
channel
staunchly
bump
ruptured
strongly
650
equally
scrupulous
void
tick
twist
muse
masse
sacrifices
entrepreneurial
a.m.
forecast
butt
chase
self-conscious
chart
buys
tilt
proclaimed
impoverished
Way
sorting
vote
touring
flourishing
happy
Conn.-based
aggressively
rebound
chain
tripling
bumpy
shouting
careless
banned
valued
drafted
fielding
harvested
unraveling
precipitous
mirror
march
leaner
upstream
count
thereof
carrying
exposed
trickle
gauge
shield
careening
Right
snakes
buoyant
trusted
cough
gyrating
calculated
dubbed
surveys
probing
refocusing
feared
cover
based
understandable
ironic
respectable
melting
Pact
finding
inferior
indeed
counterbid
Palm
clearly
exhausting
attendant
rerouting
colored
fare
unlikely
813
822
acclaim
businesslike
distorted
parachute
849
united
frenetic
advertised
infamous
clanging
modified
read
upgrading
entertaining
blunt
contingent
taping
completed
philosophical
acquire
helpful
fragmented
rein
show
delicate
bounce
hollow
sprawling
harsh
pressing
ducks
grounding
cloud
stabilizing
exceptionally
43%-owned
sponsor
captain
footing
highlight
billion
Rated
compliment
sensational
wedge
astonishing
readiness
discouraging
offered
incorrect
nearest
unsettling
trained
merged
breed
compulsive
corner
harmonious
ruthless
lure
pence
break
refinancing
joke
sign
administered
officially
modernized
undamaged
focused
jolt
tastes
auspicious
lobby
stopping
cloak
sink
hint
sublime
uninformed
rallying
corrupt
backed
tangled
Institutes
supposedly
acknowledged
preaching
ready
match
balancing
scathing
reserved
object
poorly
notable
unstylish
stewed
cosmetic
uneducated
making
pragmatic
54.5
tasteless
Revisited
cheer
razor
crawl
identical
190.58
tower
franchises
suspects
naming
3.19
3.18
wounded
3.33
mindless
3.74
polish
bolstered
converted
away
harvest
pair
titled
palm
complacent
payable
batter
adept
sacrifice
unseemly
grinding
east
park
intangible
conducting
sketches
pass
profile
half-completed
adopting
assigned
profoundly
inch
richest
hydraulic
varied
squeeze
rather
decidedly
deplorable
READY
skid
authorizing
feel
diversified
sweeps
deceased
meaningfully
stick
fell
Washington-based
locks
stalled
beats
fractionally
packs
throwing
tremendously
craft
disarming
capture
unveiling
paranoid
prescribed
deductible
urge
dealing
worded
hungry
certified
estimating
Trim
upside
screening
eager
originally
Swasey
rises
cynical
stretch
slim
taped
wiggle
indicated
uphill
Sons
slip
dawning
capped
mandate
frantically
inherited
ring
shift
shoulder
dining
widened
flash
regrets
tour
boast
Texan
admittedly
breaks
recalls
struggling
occasionally
tentative
pursuing
visible
tangle
effects
unworthy
rearing
parallel
designed
approaches
shine
uses
clogged
Armed
jittery
furnished
tailored
carry
burst
counter
burnt
encouraging
resulting
traumatized
Ready
delegate
slump
bribe
survey
devastating
eerie
shifts
2.87
Close
checking
fights
enclosed
trivial
obscure
shapes
spells
damn
Plays
divested
coveted
populated
riding
arbitrary
wastes
neutral
quadrupling
revived
humble
concluded
economically
sharper
faces
chill
divided
fingering
puritanical
harbors
hopeless
jointly
assisted
assumed
Means
sterilizing
injured
imposed
jammed
surge
intended
contributing
meeting
compounded
neatly
facto
excuse
trillion
implied
prosperous
inherent
given
pronounced
exaggerated
asking
prudent
tongue-in-cheek
premiere
trap
unfounded
grown
anomalous
grandiose
stomach
hurry
York-based
farming
hearing
overshadowing
fabricated
trail
designated
Stick
subpoena
passes
dialing
passed
glutted
sold
hole
owned
refocused
trashing
longest
together
corrected
test-marketing
distancing
ousted
soul
processes
pulling
scream
sticking
disastrous
overvalued
open-ended
glut
fish
crediting
alarming
update
crest
conspiring
substitute
fascinating
anonymous
span
bizarre
halted
covered
invariably
constructed
traded
unchanged
transports
setting
spin
loosely
register
Lives
consent
commercially
disturbing
label
effusive
loosening
spectacularly
defect
1.32
mighty
aim
rebounding
low-key
skilled
wait-and-see
1.65
1.66
twisting
barrels
applicable
subjective
until
expanding
mitigating
allowable
hires
stalls
apt
nail
pockets
reportedly
capitalistic
radically
cart
cast
scraps
pressured
distressing
delaying
depressing
alarms
ban
drowned
pitching
victorious
affect
cleansing
drain
gratuitously
battle
CDBG
resumes
bet
wavering
faded
suspicious
financed
outlawed
elusive
select
bit
instruction-set
1\/2-year
stands
contagious
AMT
bow
boy
switch
unaffiliated
oversubscribed
closest
hoard
counts
fighting
actively
plainly
surreal
advocate
fragments
wishes
mediocre
peddling
scares
Play
inexorable
drape
hopeful
utterly
deciding
privatized
alarmed
covering
cap
cleaning
bites
responsive
LS
Pachinko
Varity
nonrecurring
G
N
Directors
Computerworld
Ada
Gemina
Aer
Hercules
Dime
BIP
discharges
Mervin
Morocco
Crete
Rupert
Investigators
miscarriages
Cervantes
equity-purchase
Alceste
Ala
Reebok
Prosecutors
Fridays
oceanographic
Any
Their
pineapple
BSB
Bataan
Mattel
Ark
10-11
840.8
Helsinki
NESB
first-home
HUGO
Midway
These
Jayark
Purchase
Axa
Axe
NEWS
Willamette
Westamerica
hostage
Athena
BANKERS
Year-earlier
downtime
Omron
Verdi
CAE
numerically
Pretoria
BanPonce
CDC
CDL
Rodeo
Misawa
Employers
Yamaichi
0.01
Isabella
leathers
0.10
value-added
0.02
0.03
fruition
CIM
0.19
0.17
0.15
0.13
Volatility
0.32
anti-cancer
0.24
0.45
0.43
Bio-Technology
Steelmakers
high-pressure
0.53
D.C
CML
CMS
Upjohn
0.59
Petco
0.71
cyclosporine
0.88
CPC
Petronas
0.95
Amdahl
CRA
soloist
CRI
Japanese-Americans
CSC
orbit
Argentina
Seats
CVN
Lloyds
Pravda
off-balance
Charlotte
Wash
10.14
110,000
Every
10.05
shovels
Outplacement
Discounted
Chile
Child
481,000
OCN-PPL
Ratings
TransAtlantic
22.78
Harley-Davidson
Nikon
Cap
one-tenth
higher-priced
Tenneco
Tripoli
Mead
DFC
Repeal
AN
LONDON
Finland
Abby
BDDP
Output
DIG
CS
communism
Amcast
testers
Cindy
Arbitragers
SHORT
Ryder
Ga
Glasnost
He
fleeting
Ho
IT
DPC
Nobuyuki
Automatic
It
Concern
hemorrhoids
federalized
Ky
Md
Me
NL
Mo
Bert
work-rule
DWG
2659.22
Raytheon
S$
Figure
Knowledgeable
Years
Olay
Hambros
Lenny
We
Michelle
Monthly
Shares
Sutro
Losses
CONTINENTAL
Brockville
Dad
ECI
Clients
Hawker
Anglo
198,120,000
ground-based
EDS
Advancing
Olga
Greenery
low-interest
Olin
Rewards
Den
Strasbourg
microbes
Physical
Ellen
exchange-listed
U.S.-China
Pong
Eritrea
Nike
Alcan
renal
psychobiology
AC&R
Buffalo
Winnebago
ENI
employee-benefit
Nine
back-ups
ERC
4,400
Yamatake
ESB
Temple
Dublin
Varian
Charisma
Similar
PRECIOUS
Safeway
Rival
Warnaco
Guangdong
Husker
Aruba
Bechtel
snags
65,200
Disappointing
us
Internet
Magazines
we
Susan
unregistered
Cummins
3:25
Miss.
Ajinomoto
rivers
QUANTUM
1993-2009
Insurers
curious
Receptech
Ameritech
nonpublic
Claude
Chekhov
rescuers
Molokai
Things
millionaires
Amgen
FMC
Biosource
Ideologues
Kawasaki-Rikuso
Institut
noncompetitive
Trinidad
Long-term
Spending
Cathay
standardized
Finnair
Comair
foreigners
Turnover
Everyone
Karstadt
tonight
arrears
Continentals
2008-2009
deterrents
Durable
Redland
nurseries
mankind
Ikegai
Scientology
Namibia
Georgeson
21.44
Nonperforming
Allied-Signal
Confidence
Honduras
updates
Inflation
scrubbers
Fab
Sochaux
237,960,000
Zimbabwe
Hanifen
Ferruzzi
Muzak
Censorship
Intercontinental
Few
fiction
him
Ogden
Officials
Mussolini
Pakistan
TREASURY
Grannies
Glaxo
2662.91
Duesseldorf
Expansion
Brenda
E.R.
Enron
Atsushi
lethargic
GPA
Schroders
peace-keeping
GRE
Real-estate
Centronics
GSX
Gradmann
Proponents
Ferro
shivers
Marsam
superficial
E.W.
Louisiana-Pacific
Governors
Knight-Ridder
Viatech
Progressive
Brookline
Interco
2149.3
CreditWatch
Fuel
Cadbury
Unitel
Unificationist
Aldus
Suppliers
Knopf
Levi
Whitman
486-based
Kellwood
Leona
Kyoto
Seasonal
Erik
527,000
16.9
Responses
COCOA
HEI
Indonesia
Parents
Insiders
Fleet\/Norstar
Bids
Contract
HHS
24,000
spite
Negotiable
Per-share
Suggestion
9-11
Trinova
environmentalism
Longer
chemical-weapons
SMALL
Grupo
PAPERS
Biny
224.1
2003\/2007
Interface
Ramtron
Twelve
Laurie
Leveraged
Mothers
Honolulu
Evidence
Pechiney
Shaw-Walker
19.25
Hasbro
Alpine
Miss
Former
bubble
Kirgizia
Pittsburgh-based
Taxes
Newsprint
Imasco
sinking-fund
Triad
IBJ
Proceeds
small-scale
Josephine
Immune
food-importing
Hal
similarities
Viroqua
IDS
Helionetics
J&L
Masahiro
Scotts
Her
Valhi
12:01
Reggie
Principal
Francoise
Esso
Chicagoans
Hingham
151.20
reruns
9.06
Phyllis
Kosovo
KnowledgeWare
Ibbotson
9.39
9.34
Flexible
Jobson
Avdel
in-state
Comprehensive
MIPs
Thrift
9.78
kickbacks
9.86
9.88
Aussedat
Nearly
93.75
state-appointed
Troubled
Panda
5,200
Trivest
guardian
Sitco
Jane
pensions
Prospect
Dunkin
Nothing
KCRA
Soweto
Skeptics
Brantford
Comments
332.38
4,830
fatalities
32.71
Coogan
home-state
Cullinet
Democracy
ballots
'em
Anti-nuclear
Boise
1868
Tivoli
Ike
Slowing
ESPs
RADIO
Ill
neutrons
Inspectorate
Imo
Bowater
starters
Mochida
Pennzoil
MacMillan
right-to-lifers
1.8685
Crestmont
Nashville
Analog
Ira
Bonwit
plush
D.T.
Bloomington
glitz
Grumman
Sluggish
Mortgage-Backed
Danvers
refillable
Kent
Casablanca
Efforts
subways
Meritor
Montana
459.93
Bishop
Investment-grade
conjunction
sacks
deuterium
Fredric
GR8FLRED
previews
Sekisui
derring-do
1254.27
1908
lotteries
1900
Ethyl
Ratners
1926
1932
Coin
1939
1935
Ultimate
Attention
nurses
Datapoint
Yogi
1948
Thrifts
1953
1951
1958
1230.80
1965
1963
1960
1969
KLM
whoever
1978
Caution
Colo
Transactions
Volkswagen
Measures
None
Commerzbank
Yaohan
Staples
Eight
Lords
Cost
Recent
Lima
1.8667
Mabon
Corn
Loral
1.8578
Integrated
Seita
Stockholders
whichever
Lorimar
Polyconomics
FK-506
fenugreek
Holders
Jason
Bancroft
lathes
transplanted
Payments
DEPOSIT
Interstate\/Johnson
Blue-chip
supercomputers
Liza
literacy
Dudley
170,330,000
Bolar
LDI
Spokane
1:11
sterilized
McCormick
Cotton
less-developed
stabilization
Kia
Mentor
Bourbon
sunshine
Owings
8.04
8.05
8.03
8.08
Ethan
8.06
8.00
8.01
specifics
8.15
8.17
8.10
NORC
8.26
8.27
8.25
LSI
8.28
8.22
8.23
8.21
8.38
8.35
8.30
8.33
8.31
NOTE
Papua
brown-tobacco
8.40
8.45
8.42
Contact
ARTICLE
8.52
8.55
8.56
8.62
8.60
Poughkeepsie
8.61
8.65
Forest-products
Fidel
8.70
SciMed
8.85
8.82
Salvadoran
gratuitous
Marilyn
Kathie
Bacillus
Anheuser-Busch
Liberals
Shareholder
Talk
at-market
Previous
CalMat
Tana
Bangkok
Moscom
Unitrode
Broadcasters
Newmark
Halsey
industry-specific
Billings
clumps
Norberto
pillows
Damascus
Immunex
Lep
Leo
Takashi
Taxi
Wednesdays
supplemental
small-denomination
CRRES
Cipher
Liz
Hardee
MLX
Algeria
Martha
N.C
N.D
N.J
N.M
Rymer
MMS
N.Y
Asarco
Blacks
Starpointe
Anchorage
callers
SECTION
innocence
MPI
Gnu-Emacs
Declining
Lt.
mustard
Dresdner
79.03
C.R.
Confusion
Westwood
Foreigners
Mineworkers
Psyllium
Balcor
whom
Winners
Avondale
Cantor
176,100,000
Christina
Branford
EWDB
Various
Silver
Dual
Nissho
Akzo
oat
Eaton
adjournment
NBI
Exit
innocents
Rockwell
109.85
mid-September
Lincoln-Mercury
disabilities
Christies
O&Y
Aberdeen
Oranjemund
cowards
IATA
Mel
Six-month
Lucas
Hearings
Sixty
Willkie
Granges
JAPANESE
Collectors
dentists
lieu
Pfizer
Zurn
NRM
Eurostat
Those
2638.73
Pushkin
NTT
Aztar
paper-company
Demand
Mort
Operating
Toronto-Dominion
17.01
home-improvement
Commons
2689.14
1.8200
potholes
Libya
Quarter
Aichi
extradition
Gasoline
730,070
Floyd
Asians
Installation
Ned
Recession
Nev
Amax
terror
Kimberly-Clark
Pymm
Champion
Amtech
1,365,226
Pilot
OMB
0.0108
sunrise
ONE
freer
HomeFed
Pauline
Webster\/Eagle
Growing
Lockerbie
Allan
Xerox
Zalubice
Nov
GENERAL
leveraged-buy-out
Underwriting
Passive
Triangle
frugality
Chuck
Leonid
7.12
7.15
7.14
Trout
7.09
10:30
7.35
7.37
7.31
7.30
7.42
then-Vice
7.57
7.53
7.52
7.55
7.60
7.62
7.61
Michele
Kathryn
7.78
7.75
Braintree
Adolph
7.82
Rickey
7.80
7.93
7.95
7.94
7.97
7.96
7.99
7.91
Lawrenceville
smokers
Half
UFOs
poltergeists
Heidelberg
Fanuc
7.227
potted
Delivery
Oct
feedlot
Chesebrough-Pond
Madrid
Sara
Ashton-Tate
Somalia
Chemex
Soviet-style
Authorities
Healthdyne
Hochiminh
B.F.
Oji
non-GM
Ebensburg
Criticism
ASCAP
PNC
82.2
Provigo
Warner-Lambert
professionalism
PPG
Carmine
B.J.
AIDS-infected
bribes
Lakeland
Traditional
parkway
commerce
trade-distorting
PWA
Our
Expenses
gold-mining
teen-agers
Norris
Culver
Whoever
Merck
stricter
Floor
2653.28
Alltel
Offices
Apogee
tolls
hoses
thermal
Kawasaki
Endangered
Soybean
1.8470
Initial
congestion
Medstone
Carnegie
Brae
1,015
1.8485
Pearl
Per
faulty
on-line
double-decking
nonoperating
Westpac
Betsy
mid-afternoon
Betty
Stirling
R.I
mock
videocassettes
Kerr-McGee
Enserch
Waterbury
111.48
Researchers
Seagate
catfish
Detrex
warranties
Aoki
grabs
patience
Barris
ours
Jerell
Boehringer
Barron
Northgate
Conning
rye
Eighteen
Raw-steel
7.282
1.8415
Yesterday
Intelogic
Sumner
mortgage-interest
Spokesmen
Fast-food
Anyone
Figgie
Quincy
1.8355
1.8353
non-performing
1.8340
Managua
Randolph
hedgers
Meson
Beghin-Say
follow-on
41.76
Adverse
41.60
Gabriel
2603.48
nerds
Paragould
S.C
RMI
Kandahar
Colgate
QuesTech
Outflows
Joann
Magnascreen
IFAR
Roughly
138
RTZ
Springfield
GRAINS
6.00
Fujisawa
liquid-crystal
6.15
la-la
Journalists
Thousands
184
6.20
Lancet
197
higher-cost
nobody
6.45
1,828,000
heredity
6.40
Rexall
Rage
Candice
1990-2002
6.70
6.76
cross-connect
racism
1.8300
organ-transplant
Louise
Battelle
Ovonic
greenhouses
SFE
levamisole
Rank
Pepperidge
1,250
SHV
Fatah
Certified
Ladenburg
Swissair
Kohlberg
Ghana
midmorning
A.F.
Rod
A.H.
Interpublic
W.I.
alcoholic
Kalamazoo
231
Woolworth
244
W.J.
Orders
per-capita
They
Jerusalem
privileged
Kasler
294
Ramon
Moliere
Dozens
CHICAGO
anathema
W.R.
Skadden
Kuwait
CORPORATE
Senshukai
Torstar
Indexing
Hongkong
pollsters
Diamond-Star
Esther
comedian
Sept
DeSoto
W.Va
reimbursement
Hertz
Tariffs
stacks
Yoshio
44,877
Sex
THE
grass
Priam
She
Novato
Sin
Six
Kobe
Goodyear
Amcore
GATT
fingerprint
maquiladoras
Consumers
Universities
Harken
wage-earning
waiters
Reuben
Hymowitz
TRW
318
326
X-ray
Paxus
Kirschner
2003-2005
Equitec
Payco
Unicorp
Merger
Conde
Iceland
M-Whatever
125,000
consumer-goods
dents
peanuts
Acadia
FCB\/Leber
UAP
Everybody
Tan
173.1
Oncor
449.3
Bolivia
Source
Freeport-McMoRan
Telos
Armonk
Shelly
UGI
disorderly
Tel
Tet
neurosurgeon
Conrail
Alusuisse
15.75
15.72
Merchant
mailings
Photonics
Nortek
UNC
88.12
Lung-cancer
airplane
Prospective
Johnnie
87.5
Unemployment
Radzymin
Aska
405
Movieline
Nashua
412
Harley
Plaintiffs
Heating
470.80
Greenville
39.55
15.82
Amdura
Omnicom
Aurora
478
Details
Volume
Texaco
Aaron
Negative
newsprints
Uncle
Seven
5.75
gardening
Rodrigo
Himont
Gollust
Fame
Customers
161.5
Caere
182-day
bond-price
gold-leaf
late-payment
predictive
Mitsui
Salespeople
Freon
registrants
VOA
Amway
limbo
Phnom
somebody
Wrath
Enforcers
Conseco
irreparable
Supporters
NYSE
Nonsense
Pressure
7.875
Althea
Noxell
unfilled
Compound
self-incrimination
Archive
Bavaria
them
Catherine
Beacon
Disabilities
Ex-dividend
Critics
Wachtell
Calgary
untold
Wilfred
Ohbayashi
Coniston
Suntory
Nine-month
Rumors
insubordination
new-product
MacroChem
Abbott
Reno
Mount
WHO
HDTVs
LTCB
Audi
Glory
Rachel
8.337
Charlie
mid-August
midafternoon
futures-investment
Dostoevski
8.325
Humulin
Numerous
Reunification
Joan
Walnut
Keefe
Treasure
Philadelphia-based
2,064
anti-discrimination
Scientists
allergies
Joel
Vt.
529.32
mid-1990
mid-1992
Theodore
Rockford
despair
non-interest
7.962
higher-income
advancers
Cetus
673
Denny
Dai-Ichi
SUGAR
UNIX
694
7.986
repossessed
neurologists
Jos.
Kirin
WTXF
Bargain
inter-American
Calabasas
Quality
Schlumberger
active-matrix
Y&R
analgesic
Sibra
broker-dealers
blatant
Rosemary
long-delayed
8.292
Article
2,002
Planar
Who
Convex
Observers
Birtcher
Wis
Thieves
So-called
Alvin
obstruction
2596.72
parental
8.475
99.14
double-digit
2,205,000
723
8:30
99.35
Avon
HelmsleySpear
26.23
Transgenic
Potential
Henley
Freddie
Galveston-Houston
Dillard
Individuals
Wessels
Reader
IBC\/Donoghue
783
784
785
Crowntuft
unadited
Playtex
Wyo
Platinum
Each
Staff
Buyers
Braniff
Shippers
Daffynition
Mediobanca
rangers
Kleinwort
recapitalizations
Novell
Viewers
Someone
Homestake
Continued
Name-dropping
Hassan
emcee
2,120
Nixdorf
Ernst
homework
91-day
paints
incumbents
I.C.H.
Revenues
8-9
Pinpoint
Interprovincial
Additional
Scottsdale
YOU
Beauregard
Past
Ferranti
Calgene
8.575
Estee
1247.87
Argus
J.D.
Fiscal
15.625
Leisure
Bayerische
2643.65
Southland
word-processing
Feb.
Private-sector
Sources
specialization
Zacks
Eavesdropping
Fear
feedlots
epilepsy
newsstands
Decades
Fees
Figures
Inner
Students
1,859
armadillos
Bausch
XL\/Datacomp
castor-oil
grips
Matanky
Norwood
SmithKline
milestones
Hanoi
99.75
non-residential
Newly
Garland
Sovran
99.90
DISCOUNT
99.85
Rates
Princess
Analyst
266.66
EAST
Anchor
McAllen
Syria
Phillip
Winchester
Lyphomed
Enviropact
Hostile
Todd
Pittston
Shipments
Prague
Pretax
stiffer
Flowers
Concerns
envelopes
Import
Which
Baring
Rancho
Myrtle
Margins
40.4
vogue
Sally
Prop.
Terms
Toni
Inmac
Donna
Friends
rank-and-file
Gill
Echo
Shimizu
non-strategic
Analysts
Nausea
Risk
166.9
Centerior
Saint-Saens
Rita
Yutaka
2,360
Parametric
Exabyte
Deborah
HOLIDAY
Limit
141.90
Usha
Marty
Leche
Basel
Nobody
Lyon
Woodbridge
Jerome
goods-producing
motorized
141.52
141.45
hardened
141.65
141.55
DataTimes
2645.08
141.70
Crossland
Nagoya
141.80
herbicides
above-average
Money-fund
successive
Trouble
Post-Newsweek
anti-nuclear
Hoylake
3.26
aflatoxin
Calor
49.96
9-10:30
Dade
Beirut
Shiseido
Newspapers
Sydney
166,900,000
fetuses
Everett
Cattle
Calif
Municipals
Dain
chess
caustic
Twins
programmatic
Kwek
Burroughs
laches
hyperinflation
Dana
MGM\/UA
13.32
Givaudan
Harsco
Yields
MarCor
Contemporary
Commentators
Derek
Uncertainty
asbestos-related
asylum
Leucadia
Philippe
Ferembal
apartheid
Takeover
Scudder
Avalon
SunGard
Businesses
post-1997
Oracle
Cilcorp
Sandy
Petrolane
Vitro
IPOs
Explonaft
Ikegai-Goss
Wilmer
pessimists
Despair
nonsense
History
computer-aided
myself
Morgenzon
Amstrad
Krysalis
Sante
Remaining
Broader
Willie
Barbra
farm-product
Decisions
ourselves
Judy
Lawmakers
Posted
Jujo
Pricing
Basil
Bostic
Justin
riots
2791.41
Desktop
Vesoft
Junk
Glen
SNET
layers
replacements
Voronezh
outsiders
Litton
Sidhpur
Esselte
Retailers
cumin
marketable
Tibet
NMTBA
Some
six-figure
jousting
Completion
Nesbitt
Piedmont
Darwin
elective
Marcia
Feedlots
battery-operated
Prices
155,650,000
276.8
Factory
LIVESTOCK
Arkla
Snoopy
Combustion
Failure
Maury
Mitsukoshi
chickens
Hiroyuki
Tough
6\/2
insurance-company
Allentown
WASHINGTON
schizophrenic
Kyle
skin-care
Leaseway
Electrical
Naomi
Denmark
Jewelry
Fitch
High-grade
42nd
31.9
ex-President
oncogenes
JURY
Shareholders
Traders
EG&G
SONG
Judith
Ducks
Odds
slums
Inventories
Retrovir
TransTechnology
Schwinn
malice
Newell
Accessories
Litigation
276,334
Immediate
Pascal
Exports
weeklies
1,250,000
Siberia
Hawaiian
99.1875
BRIEFS
Affiliated
Carr-Lowrey
Chatset
Yamatake-Honeywell
non-Japanese
cross-ownership
Signs
retirees
Monterrey
Stock-index
Cara
Designing
Dividend-related
SPAN
Blunt
shorter-term
Leningrad
GMAC
drapes
Annualized
Small-business
Textron
Harpener
Witnesses
oath
Median
1466.29
Montreal-based
dawn
Scandinavia
persistency
S.G.
Orlando
Twenty-five
Pinnacle
Gannett
Mahler
Racial
Gorillas
impressionist
normalcy
Furukawa
2,250,000
Weisfield
Diane
Edisto
Bozell
NASAA
Percentage
dispersants
Duriron
Blockbuster
34,000
Medtronic
Takuro
Tenders
USACafes
Norwest
Cigna
Bristol-Myers
Kenji
EARNINGS
SIBV-MS
CALL
Profits
arson
Estimated
Havana
suckers
binoculars
Subsequent
Estimates
Derr
Stevric
Competitors
Addis
334,774
Sumitomo
pharmacies
short-covering
Bouygues
World-wide
Liquidity
Fundamental
SoundView
Princeton\/Newport
Cargill
Closely
co-head
COPPER
ruling-party
FmHA
unforeseen
Rohm
addiction-treatment
Katherine
lift-ticket
takeoff
Readers
PegaSys
samurai
2002
Polly
Polls
2013
Invest\/Net
Kroger
cycads
Impco
Complete
Shoney
closed-circuit
Kennametal
Spendthrift
laughter
Sooraji
Symbol
Connie
Hundreds
Third-quarter
Unilab
COMMERCIAL
Smaller
futures-related
Year-to-date
Bethlehem
Goya
Amerada
Celimene
Montedison
Strong
Opponents
immediacy
Adults
Brown-Forman
Speculation
artificial
Location
big-city
Munich
Keizaikai
Results
Beaverton
Hollister
news-oriented
Crazy
CLAUSE
Thanks
Jeffrey
property-casualty
Nigel
CERTIFICATES
UniFirst
Gillette
Telesystems
metrics
Telelawyer
A&P
Unions
Mexicana
A&W
Babe
fat-tired
Advancers
Millicom
Anaheim
Margin
McKinsey
Stock-market
Stelco
non-subscription
Serial
lump-sum
Arabic
Gen-Probe
A-2
NewsEdge
Banxquote
Sapporo
Wertheim
SoftLetter
prostitution
collectibles
NCNB
Experts
Stan
Short-term
Many
11.04
Mame
Several
Curtin
yourself
Brink
ABBIE
premium-brand
Basf
high-cost
leaded
nary
looser
Matt
Whitehall
electrochemicals
Mass
G.D.
hypoglycemia
11.95
Corroon
Maui
Medco
Queensland
Ekco
R.D.
Baxter
traces
Mayo
Hendrik
Transamerica
142.70
142.75
142.85
Bulgaria
Pegasus
AEG
AEP
AEW
Mercedes-Benz
unruly
Scotland
142.43
Linear
MERRILL
Loews
R.R.
AIW
MADD
Addington
deja
Mitsuru
excerpts
164,830,000
landslides
theirs
intermittent
Adjusters
FirstSouth
Something
incoming
Payment
Caltrans
Weirton
convulsions
Asilone
Chilmark
2683.20
Such
Revlon
Jasper
Isetan
Rubbermaid
AUS
buckets
metal-forming
AVX
Representatives
Greg
527.39
Jessica
machetes
Huge
Hachette
Matilda
129.49
one-stop
Rhode
herself
Egypt
numerical
23.2
Dalbar
Ollie
Reserve
Twenty
Elie
pollution
salary
pico
Chico
energy
Arrow
BCE
carriers
avoidance
Accepted
10.6
10.5
10.4
Employee
10.3
10.2
Diet
10.1
8
10.9
10.8
air-separation
bogus
B
role
turf
D
K
gold
big-ticket
golf
Investments
U
Amtrak
pollution-control
Z
Food
artistic
neighbor
Mobil
Act
readers
information
Kremlin
Maxicare
pigs
myriad
Kofcoh
divergence
scholars
scanners
protectionism
Fort
Limited
representation
BBDO
Guillermo
Prudential-Bache
pioneers
quarters
congressmen
interbank
room
allegations
Ford
cancer
breadth
voters
salespeople
chilly
investigators
Aid
microcomputer
trans-Atlantic
Air
F-16
out-of-state
Taxation
coach
women
Supply
protection
pins
footsteps
cameras
Payroll
honesty
Okla.
Richard
gaming
implications
backlogs
one-quarter
Four
Giovanni
intellectual
Crest
Garrett
Donoghue
stressful
thousand
Ali
BNL
Trinity
findings
Angelo
automation
pipe
Angels
representative
DRAMs
Reserves
catastrophic-illness
actress
circumstances
Amy
BPC
Ana
Bartlesville
racehorse
Clubs
Ann
specialized
chicken
257.8
muscle
California-based
ammunition
printers
aforementioned
rows
reservations
quantitative
140,000
capita
mayonnaise
224,070,000
eventual
styling
worker
BSN
Malaysian
genes
Scenario
restraint
Kerry
Daimler-Benz
effluent
shots
Stock
Art
4,000
Dealers
chemists
Sweden
Valentine
kitchen
Wisconsin
Greens
six-foot
thing
margins
apparel
holidays
fellows
Bristol
stability
budget
actual
glass
trade-offs
Diego
Hambrecht
jacket
Salomon
technologies
post-Watergate
Ivory
shops
low-level
memory
Barnard
Gujarat
farmers
disaster
Mountain
Abbie
Senate-passed
glycols
chlorine
Verit
obstacles
pre-merger
Conference
candies
Greece
Danny
coats
Computer
savings
vomiting
flowers
Athens
coast
37.5
37.6
eyebrows
37.8
Mervyn
expansionary
Ciba-Geigy
congressman
tie-ups
Bobby
4:30
compact
SUNY
Cessna
runaway
24.2
Prince
24.9
trucks
24.8
day
24.5
24.4
claimants
artwork
Albania
Theatre
book-entry
deceptive
shutdowns
Emil
CBS
editors
introduction
Oscar
Rolls-Royce
Navigation
absolutism
Reich
18,000
11.5
11.3
11.2
11.1
Bay
11.9
11.8
11.7
powerhouse
11.6
presidents
computerized
parliament
Simon
contradictions
adjusters
Freight
Albany
dealerships
D&B
Angel
Parker
Mazda
Welles
CFCs
buyer
distinctively
CDs
skeptics
policyholders
Maryland
attitude
treatment
CFC
Tiger
lung-cancer
so-called
Ben
shoes
Planters
Giants
maximum
Chugai
Guber-Peters
Osaka
quarter
Heavy
0.12
massages
Insight
Lack
CIA
Brooks
seasons
Brooke
acceptance
stockpiles
expiration
StatesWest
Edsel
54,000
virtual
Wade
Corporate
Westridge
0.25
company
Collectibles
billions
length
baby
Quickview
knots
Stuart-James
flip-flop
Waldheim
armies
Champs
fools
researchers
Florida
0.60
Octel
sideline
Train
Industries
CNN
chunks
extraneous
0.75
Cablevision
CNW
noncriminal
condemnation
crime
disappointments
cigarette
Spain
Brouwer
Peter
peacetime
adjustments
non-communist
Tucson
inspections
Reagan-era
main
networking
Lake
0.94
arrangement
Trade
revenue
Schenley
Copper
intensive
fraudulent
Bon
Democratic
dollar-denominated
I-880
diabetics
deputies
Samsung
Haskins
ball
threats
polyurethane
Walt
240,000
Chernobyl
Wako
yuppies
Anderson
Luzon
high-powered
psychological
fiber-optic
Wang
constraints
CFTC
trees
porcelains
cholesterol
Bullock
16
18
mall
Lane
19
Circuit
Lang
Argentine
machinists
ministry
21
Abraham
23
24
Estimate
seizure
six-year
personal-computer
29
landfill
Bud
turbo-charged
misrepresentations
10.35
panicky
10.37
Bum
relationship
Trans
32
33
34
Bus
expression
childhood
38
entrepreneur
Uniroyal
Sears
one-megabit
10.48
Lehman
Australia
41
42
gadgets
44
post-crash
45
46
abortion
48
49
refunding
numbers
payouts
Last
51
bare
52
53
54
56
57
tractors
58
59
maps
seeds
disarray
Deputy
hefty
seedy
Ward
61
62
64
65
67
Options
68
69
distillers
apple
China
70
Iranian
71
72
73
74
twin
76
77
78
79
bass
38.5
Wolfgang
38.8
80
81
82
83
10.03
84
85
86
tribute
CAPITAL
88
89
businessmen
incentive
91
92
93
94
95
capitalists
96
98
repayment
99
tritium
exceptional
cattle
Steven
suntan
math
theory
junk-bond
Christie
Socialist
Petty
identity
Scandinavian
25.5
25.3
DAF
opinion
Graphics
devotion
Petrocorp
hospitals
Traub
existence
textiles
whooping
defendant
Beneficial
Ways
12.4
visitors
12.3
12.2
Car
Eugene
12.9
12.8
12.7
12.6
12.5
temblors
DDB
Futures
profit-taking
configuration
new-found
Bear
Gintel
Meat
Chex
Chez
fairness
tenants
DEA
DEC
Fruit
Service
shipments
DES
Future
demographics
A$
rioting
egg
A.
anguish
themes
emergencies
liberals
bakeware
victims
extortion
AB
246.6
AG
economy
community
B.
AM
Julius
version
cocoa
Emerson
Exchange
dishonesty
Worcester
C$
BK
C.
Al
quarterback
Chip
An
BP
Beer
Nomura
BT
submarine
misrepresentation
orphans
D.
Enforcement
perceptions
missions
DD
instructions
Gartner
APPLE
evidence
E.
stub
HEALTH
EC
Cie
spouses
De
Di
Janet
F.
catastrophes
Market
socalled
users
Du
conferees
Ed
vacationers
Sherwin-Williams
Anglo-Dutch
DLJ
G.
El
roles
FM
buyouts
Beaver
GE
preoccupation
motorists
females
H.
contempt
DNA
royalties
sick-building
discretionary
education
occupation
I.
investors
proceedings
IG
Co.
Fleet
J.
Coopers
13,000
Senior
Olympics
Belo
Bell
write-offs
Io
JP
accusations
Hancock
cell
filings
Property
behind-the-scenes
L.
television
Cos
LA
M$
six-day
F.W.
M.
metals
trial
Notice
La
controllers
shoppers
N.
Franco
stadiums
estate
Calgary-based
rigorous
races
Macintosh
Mr
NV
My
Merc
France
P.
Reuter
PC
Drake
Indiana
Armenians
Beth
Economists
Oy
expertise
Beta
Pa
Indians
feckless
Consumer
pounds
R.
congressionally
Mesa
eye
himself
S.
RV
Sharon
SA
17th-century
SF
T.
SS
triumph
horror
Lipper
newcomers
structures
Carroll
classic
Plastics
1\/32
Other
Western-style
TV
charts
TW
foam
furniture
US
Economics
Automated
39.8
Fred
4.875
Workers
Individual
W.
installment
clothing
Markus
Randall
47-year-old
Va
Southeast
Warren
60,000
Campeau
resettable
contamination
urban
shortages
window
athletics
gray-market
secretary-general
Laughlin
26.1
fan
Z.
26.9
fax
26.5
doddering
Gulf
Wendy
hazardous-waste
prizes
Schering-Plough
differences
Cie.
supermarket
physician
categories
stardom
'60s
shareholders
Ciba
Dan
13.2
13.1
Richardson
13.8
13.7
Day
13.6
13.5
pharmaceutical
EDT
Nick
sluggishness
exceptions
viewers
absenteeism
cutbacks
elementary
producer
Mainstream
37th
politics
16-bit
structural
Middletown
diet
Schaumburg
lawyer
Deb
butter
Stalinist
Anthony
colleges
unreported
Del
Lawson
Des
Vanguard
DARPA
motion-picture
cross-border
pension
assumption
deaths
dreaded
Ruth
folk
intermediate
takeover
refiners
high-yielding
refinery
intimacy
notions
experimentation
popularity
panel
Marlin
Poor
hybrids
Publisher
food
forgery
partner
fennel
autographs
voter
Father
observers
pro-democracy
language
sites
Stone
Friday
criticism
creativity
Nuovo
unpredictable
209,000
EMS
40-year-old
Miller
tears
oils
prosperity
covert
digital
debt-equity
EPA
he
EPO
Flight
Johnstown
welfare
paper-goods
contractions
context
USAir
zinc
Don
it
schemes
Dow
petitions
Douglas
lively
Adler
Peoples
Dr.
anti-abortionists
grades
disposal
settlement
sparkling
bosses
dire
River
Division
ability
deficit-reduction
centenarians
James
municipals
suggestion
EST
Veronis
dips
Underwriters
conglomerate
Doubleday
subpoenas
disposition
Findlay
linkages
fun
fur
Tigrean
me
high-school
communication
rejuvenation
Jovian
lenders
Threlkeld
author
greenhouse
City
Tulsa
entry
disk
fiscal
Broad
Powell
Wells
student
ideology
terrorists
electrogalvanized
51-day
Jamie
counterrevolutionary
LBOs
Dun
Sioux
bricks
Reiss
Wilson
infringement
indications
rocket
convenience
discipline
centerfielder
Damage
January
suspension
3\/8
now-standard
London
Eastern
credit-card
Banque
Communication
twin-deficit
Courtaulds
long-distance
scourge
direct-mail
consequent
Hughes
Dollar
wayward
lower-income
pitchers
Rochester
births
cartoons
failure
quake
laboratories
breakthrough
snack
27.9
Gauloises
Provident
Shevardnadze
FOREIGN
gas
27.8
27.6
27.5
gasolines
overweight
gay
27.1
previous
Takashimaya
Minneapolis-based
Foster
Posix
compensation
Internal
Income
type
FBI
troops
scant
instrumentation
militant
threemonth
MARKET
teams
three-quarters
FCC
elections
14.2
provisions
14.1
unemployment
14.8
14.6
14.5
14.3
FDA
Architects
periodic
gem
operators
Monogram
power
Roger
nagging
Metamucil
directives
Electronic
lawmakers
massive
dividends
Venture
Ventura
Kuala
tariffs
earthquake
CALIFORNIA
FFr
Developers
Shattuck
FHA
Resort
purpose
Susie
Tashi
Burger
omnibus
station
two-stroke
third-party
factory
Austrian
Egg
hospitalization
Paramount
factors
Casino
astute
three-part
ounce
England
civilians
Hibbard
virgin
Eurodollar
Omni
tankers
Highway
Kevin
Related
Technical
M.B.A.
cellular
Insider
educators
sights
anybody
Darman
mundane
miscalculation
Picop
Somerset
giveaway
Social
Dumez
consultant
Conservative
Imperial
Ex-Im
prominence
Eli
Adia
reader
Sierra
Global
vendors
Short
murder
Denise
shipment
visibility
Peanuts
fuels
labs
Equities
PACIFIC
Giuliani
Broadway
gasoline
Colorado
bikers
teen-age
menus
Dumbo
homeowners
Shops
People
negotiations
evolution
Vernon
Apple
redemption
Fresenius
freshmen
analyst
Adm.
Vail
Commerce
wiring
tremors
Nelson
passengers
Oasis
Gruntal
gum
guerrilla
guy
Kan.
native
much-larger
opportunities
lingering
prisons
tabloid
Voyager
Proleukin
4,500
charity
Genetics
liability
Public
corporatism
Eve
turbans
environmentalists
catastrophe
Northwest
Eastman
Pilgrim
unidentified
discussion
incidental
Karl
arrangements
WCRS
Humphrey
midtown
populations
Kate
crops
aluminum
colors
decliners
organized-crime
simplification
politicians
religion
narcotics
Donnelley
Claiborne
managements
goods
Vevey
28.7
28.6
Hanson
28.5
Bankruptcy
hitches
facsimile
Pilots
male-sterile
GAF
GAO
Yusen
Brown
video
vegetables
Earthquake
Conservatives
high-octane
pajama
disease
'80s
wages
infrastructure
15.9
15.7
15.6
15.5
15.3
applications
15.2
Scores
governments
BizMart
GDP
universities
circus
Women
aggravating
laws
GEC
Suburban
Institutional
passenger
H&R
Connecticut
Crime
Jamaica
lawn
baskets
Glass
ways
Publishers
HyperCard
editor
Fed
business-to-business
subsidies
Dillon
fabrications
aviation
Ellis
Production
Emerging
Hospital
Order
30,000
sharecroppers
Eritrean
Months
Remic
repairs
Barnett
month-to-month
commute
Ethiopia
one-inch
non-tariff
hospital
Bronx
ceiling
chef
debts
Patrick
Times
meat
Univision
pedestrian
attendance
telemarketing
settlements
monstrous
Charleston
Tandem
dollar-yen
mega-issues
attendants
chic
coupons
strict
Legg
beer
limitations
bees
Olympia
Personal
unspecified
zero-coupon
Anglo-American
preference
Leipzig
Fla
Week
McGill
gardens
GNP
Labor
liquor
custom-tailored
interior
ombudsman
Fremont
chip
Jefferson
NatWest
Mitsubishi
GOP
advantages
timidity
blase
publications
world-class
Resorts
malignancy
Wyoming
recreational
Fox
vision
Kyodo
Weil
confusion
personalities
Malcolm
averages
in-depth
contraction
Kenyon
Korea
money-losing
Mexican
drillers
tuition
Football
superpower
watered-down
Refining
GTE
decades
Petroleos
Minpeco
president
fortunes
page-one
Quebecor
guidelines
casualty
Leon
D'Arcy
fabrication
0.375
Petroleum
Perlman
distributions
Newton
Taiwan
biological
detergents
Advanced
Edwin
products
Vietnam
Harrisburg
meticulous
Whitley
radar
Pensacola
conscience
radio
copyrighted
Coast
Records
cities
Pakistani
friends
corporations
professor
peasants
Shamir
asbestos
refurbishment
mess
Philip
flat-rolled
Northern
beta
regulation
hypocrisy
mere
United
outpatient
competitors
defenders
Marxist
broad-based
bets
Strip
rude
jumbo
fair-market
Fuji
Lionel
pieces
29.6
Kidder
29.4
reaction
Oppenheimer
protections
Baltimore
Barbara
Ga.
household
Artists
bond-trading
aspiring
refugees
Eric
Erie
unregulated
ice
coordination
HBO
7\/32
Conasupo
Greenwich
Alaskan
Gas
Borden
16.6
16.5
16.3
16.2
16.1
Timothy
Fund
Transportation
Bias
resentment
nickel
65,000
refuge
anti-Soviet
Claudio
Pound
Morristown
Mich
sturdy
preparation
charitable
softness
Letter
Society
breakfast
bailouts
church
classical
staffers
Criminal
mysterious
Generale
Stroh
Generali
Fashion
white-collar
Benton
abstract
Housing
culture
Roseanne
HK$
Shannon
Floating
stringent
conspiracy
Spanish
Advertising
insights
Patients
rejection
home-building
death
Societe
Chosen
atmospheric
guts
heftier
ink
tricks
AMERICAN
Jacques
scenarios
Advertisers
Commonwealth
Mill
Milk
appropriators
Laurel
HOT
airport
persons
Mike
Hutchinson
protesters
municipal
dementia
cigarettes
shocks
Hanover
cost-conscious
Japanese-managed
Commodities
billings
successors
pork
ornamental
Irian
Mine
Heidi
Doug
supporters
Century
Zenith
trials
comptroller
grocery
nine
unborn
microelectronics
acid
Winter
negligence
Mips
Ernest
intuition
rages
Isler
ballooning
guys
adjustment
crooked
buyers
fleets
Confidential
jeans
Republic
Urban
Ballard
payola
burgeoning
HUD
pasta
surveillance
perjury
Istituto
improvement
Maurice
number
casual
debris
Tartan
Guy
full-blown
silver
720,000
Justice
fundamentals
Manitoba
Flint
city
Forrester
slowdown
reinsurers
Study
'86
Merieux
pumps
Anacomp
Defense
demographic
Helmsley
Cherry
precision
Maxwell
showrooms
Leverage
Heinz
Violin
admission
Lipton
April
communists
broker-dealer
Pinkerton
substantive
thoroughbreds
dusty
Madison
Bensonhurst
Safety
universal
mincemeat
skepticism
issuers
acre
Mexico
propane
carbon-dioxide
Adobe
Mencken
demonstrations
Presidio
Panama
jurisdictions
goodness
Trial
deeds
Joseph
Traffic
Geneva
U.S.-Japan
IBM
openness
psychologist
Viacom
17.8
McGraw-Hill
ordnance
17.5
17.4
17.3
17.2
Detroit
Congressional
lifetime
occasional
individuals
income-tax
jet
courses
dwellings
telephone
Federated
Continuing
Pennsylvania
Irish
difficulty
strategists
parties
prospects
5,000
Eurobonds
hard-disk
IFI
24-hour
malicious
Stanley
street
annuities
Dictaphone
Vincent
Exploration
Kaufman
receipts
waterworks
hype
Budweiser
Mercury
Masson
tissue
legislators
style
multimillion-dollar
purely
skittishness
growth-stock
vehicle
Daimler
preferential
freedom
criminals
Breeden
injections
Chapter
nomination
oversized
inflation-fighting
Competition
bonds
polling
Givens
responsibilities
tax-writers
IMA
IMF
crisis
Channel
Jamaican
IMS
veteran
corrections
receivables
job
Appleyard
solicitation
Employees
miracle
cable-television
bandages
Jack
9.19
Storer
Stores
Safeco
intercollegiate
less-profitable
tax-deferred
investigation
new-model
department-store
9.25
Cambodia
Dickens
Pepper
IPO
Mikhail
Black
perpetual
Institutions
Neptune
missiles
recipes
9.35
9.33
Mideast
IRA
Norfolk
spaghetti
IRS
9.45
9.43
salmonella
civil
UNITED
Speaker
Players
founder
words
caffeine-free
9.53
medicine
9.50
9.51
Economic
dissatisfaction
difficulties
Ronald
Israel
shrinkage
Power
rooms
ITT
Berbera
Lester
Norwegian
prospective
tires
Parenthood
bargain-hunting
9.75
Puerto
garbage
9.76
defenses
anxiety
Democrats
fill-or-kill
macroeconomic
parts
western
MIPS
party
theatrical
sources
Jake
9.81
9.80
Hun
assurances
Alger
9.90
farmer
developer
anti-abortion
mechanical
warranty
crown
sentence
optimists
vain
Delaware
Boston-based
Jan.
interiors
Senators
forfeitures
Galileo
Catholics
Empire
pursuit
drawbacks
cycle
astronomer
large-capitalization
bacon
pessimism
Disneyland
vans
outrage
Davis
hand-held
nine-month
publication
champagne
housewares
BankAmerica
Executive
Deposits
Marlboro
roots
David
consents
top-flight
drugstore
setbacks
Trelleborg
debt-reduction
consumers
economist
Polish
bolts
Whitney
JAL
earth
pulse
Ginnie
specialty
Needs
episode
scene
high-technology
objective
Frequent
takeover-stock
accomplishments
one-month
OPEC
Metropolitan
Spartan
McCaw
hurricane
D.C.
two-year
JCP
Ian
18.5
18.4
recapitalization
18.1
gyrations
one-fifth
English-language
12,000
audio
Golden
situations
Drilling
asphalt
surprises
Master
Ida
52-week
Cocom
foreign-currency
dynamic
common-stock
studios
Markets
Kansas
Bumiputra
inquiries
carpet
Caesars
fanfare
Richmond
Singapore
Ortega
inventory
conflicts
coverage
technology
FEDERAL
Jazz
Kingdom
Trucking
ones
Fletcher
Vandenberg
Superfund
realists
Kean
ESPN
Orange
teeth
timber
expenditures
drivers
450,000
confidentiality
Amira
16th
Massachusetts
JMB
high-quality
balloonists
Railroad
Portfolio
Reinsurance
Nobel
disaster-recovery
Policy
IBM-compatible
passage
bombs
high-volume
parks
Lockheed
plaintiffs
testimony
third-period
maitre
Ind
Inc
mini-component
AGIP
bankruptcies
McDonnell
greatest
manufacturers
immunities
black-and-white
Police
Stuart
minerals
owners
cross-blending
earthworms
fund-raisers
Michael
legs
customs
palladium
Small
JSP
minicomputer
Mellon
diplomacy
Massage
cardiac
recombinant
example
COMPANIES
Jordan
mainframes
benches
paneling
4,900
Czech
repayments
illegitimate
Chevrolet
cost-cutting
speakers
Maidenform
others
fashions
get-rich-quick
relatives
filers
Video
methane
32,000
Computers
concentrations
Teresa
Manila
TransCanada
lens
Ivy
memberships
Lynch
pilot
ticket
approval
Minnesota
Feng-hsiung
Allianz
belongings
Postipankki
sweepstakes
Microsoft
distant
custody
mutation
privatization
orders
Transport
Unilever
high-end
one-time
walls
product
automobiles
premier
male-fertile
Ore.
employee
burger
Coal
employer
grisly
Aetna
comparison
coins
Honecker
14,000
contraceptives
Paramount-MCA
Lubar
adventure
conflicting
condition
Ogilvy
catalogs
Death
conventional-arms
Menlo
floor
economists
19.7
19.6
Cobb
Lazard
investor
CNBC
booze
Jan
Fairfield
19.2
Jay
diplomats
leg
Sanford
dock
FileNet
Coda
courtesy
cartridge
brand-name
1906
ardent
forward-rate
networks
Pulp
situation
legislation
Foreign
Norman
shells
KGB
authenticity
Renaissance
birth-control
1929
southwest
medical
two-thirds
Companies
Scientific
Alcohol
pediatric
1930
lip
homes
Birinyi
juror
Chemicals
1942
consultants
district
1949
1947
Coke
aspects
mice
dramatizations
1950
nondeductible
1959
1957
1956
1955
convention
Waertsilae
Stevens
Marvin
Col.
Jim
KKR
1962
1961
Kerlone
cooler
Fortune
1968
1967
1966
Courter
punitive
1976
1975
1974
1973
1972
1970
Holdings
Network
season
1979
lousy
1977
deputy
Cold
Carolyn
players
Montgomery
Euro
1986
1985
1984
1983
Privatization
1980
Life
1988
translator
Cook
solar
undefined
1998
1997
computer
1996
pros
Reduction
premium
Airlines
1995
1994
1993
1992
1999
furs
aides
performers
labor-management
Conn
calves
promotions
Blair
interests
