GIS
1
0.0
8
O
I-ORG
I-MISC
I-PER
I-LOC
B-LOC
B-MISC
B-ORG
52
3924 0
118 0 1
26 0 1 2
1 0 1 2 3
76 0 1 2 3 4
8 0 1 2 3 4 5
3 0 1 2 3 4 5 6
6 0 1 2 3 4 5 6 7
20 0 1 2 3 4 6
4 0 1 2 3 4 7
1 0 1 2 3 5
20 0 1 2 4
1 0 1 2 4 6
1 0 1 2 6
5 0 1 3
16 0 1 3 4
1 0 1 3 6
17 0 1 4
1 0 1 4 5
73 0 2
4 0 2 3
3 0 2 3 4
4 0 2 4
3 0 2 6
19 0 3
7 0 3 4
18 0 4
2 0 6
495 1
70 1 2
4 1 2 3
3 1 2 3 4
36 1 2 4
3 1 2 4 6
2 1 2 6
59 1 3
22 1 3 4
198 1 4
1 1 4 5
1 1 6
2 1 7
141 2
11 2 3
3 2 3 4
2 2 3 6
15 2 4
5 2 6
684 3
28 3 4
216 4
1 5
4 7
6388
half
shooting
guards
pick
"
$
%
spreading
investment
*
require
-
47th
0
10.6
10.5
4
triple
5
6
7
8
9
;
=
?
SEP
newspaper
SER
B
role
C
D
G
roll
I
turn
gold
result
opposition
golf
same
W
X
commission
after
[
]
hand
resume
a
ordered
b
c
eating
blood
m
straight
entering
halt
sale
v
information
reopened
good
tie
suffered
serious
gone
walked
10-day
Secretary-General
provided
state-run
provides
hard
tonne
quarters
multiple
interbank
room
better
allegations
suitable
taking
semifinalist
voters
investigators
gained
compatriot
struck
hospitalised
block
flow
order
reform
coach
women
woman
save
protection
scrap
top
2-0
too
2-1
2-2
have
2-6
question
drugs
picture
2.1
FRIENDLY
2.5
rose
2.6
findings
cow
owns
representative
circumstances
including
200
markets
202
And
violation
try
bombing
became
effective
times
212
muscle
says
direction
That
ammunition
8520
comments
Their
probe
220
stable
activities
abducted
incident
caught
STANDINGS
concern
worked
state
accuses
offering
shots
cup
sweeping
monitors
cut
probably
batters
4,000
two
moment
worries
attack
reported
10-15
ankle
think
occurred
accused
replaced
team
services
They
marketing
266
speech
83rd
cabinet
thing
margins
cwt
registering
domestic
Aug
278
There
paying
This
starts
stability
budget
eastern
glass
widely
280
These
riyal
scientist
farmers
house
Scoreboard
lifting
hours
start
fallen
short
finance
required
climb
measures
70th
enter
savings
dates
hostage
bright
planned
unknown
blown
hanging
friendly
tell
shows
shown
infusion
trucks
day
1980s
raising
island
water
formal
elsewhere
Sept
dated
11-8
11-6
built
therapy
heavily
third
build
11.0
2410
further
demands
quarter-finals
areas
parliament
finds
reimbursement
railway
announcement
7,000
fined
going
banks
impact
MOTOR
average
treatment
bodies
investments
35th
journal
hotel
term
acquisition
THU
accords
business
staff
possible
right
partly
yuan
stage
returning
maximum
unseeded
under
did
quarter
die
curPos=EX
fears
div
She
later
passport
livestock
airliner
highway
Shr
businessman
possibly
15-12
15-11
seasons
15-10
test
journey
finally
remained
0.20
publicly
pro-soccer
final
Sir
loan
Six
back
training
states
pound
load
ferry
company
Squad
billions
relay
unc
grand
concerns
prosecutors
schedule
baby
unq
grant
showing
spokeswoman
qualified
lunch
helping
attempt
0.50
December
balance
3-0
Despite
3-1
3-2
pitch
3-6
weakening
go-ahead
researchers
made
'm
being
contents
qualifier
3.2
warned
3.5
3.8
dog
3.9
status
**
trading
FRIDAY
scattered
government
known
nurse
3/4
coalition
crime
stand
knows
forward
+1
+3
+4
+5
300
309
use
subject
main
opposes
revenue
grain
credit
intensive
--
waste
baht
includes
establishment
streak
323
325
326
..
ball
threats
make
included
opposed
TUE
questioned
stake
due
threat
350
observed
353
presidency
curChunk=B-SBAR
cholesterol
band
1.
released
10
boxes
12
13
14
15
17
18
19
hijacking
allied
benefit
highest
regained
2.
20
21
22
23
24
25
26
postponement
27
28
29
industry
long
3.
30
workers
cuts
32
But
33
34
35
36
37
star
38
39
84th
bans
many
382
stay
controlled
389
increasing
progress
4.
40
41
42
43
44
45
46
47
abortion
militia
48
49
10.10
numbers
rapid
seven
Last
398
5.
50
51
52
53
54
55
admitted
56
surprise
57
58
59
Deputy
sealed
seeds
TUESDAY
invited
complaints
look
grounds
achieving
murdered
6-
6.
60
61
62
63
64
65
66
67
68
Prime
69
Secretary
needed
mass
speed
auction
common
interest
7.
themselves
curPos=WP
70
71
72
73
74
75
77
78
79
winning
politician
LATEST
landing
8.
80
Every
81
formula
step
82
83
revolt
85
mark
86
tribute
base
87
88
ceasefire
trend
loss
nextChunk=I-LST
9.
lost
90
91
MANAGER
93
preliminary
work
lose
cattle
mate
delays
registration
missionary
word
stated
love
secret
across
qualifying
mortgage
set-top
bullish
gathering
opinion
soldier
ONE-DAY
CRICKET
portfolio
SCHEDULE
spell
+91-22-265
boxcar
curPos=LS
mining
lows
visitors
preparing
12.0
provision
seems
Chief
profit-taking
scientific
winter
platform
CONTENTS
walking
spend
Since
February
advantage
spent
instead
shipments
communist
exception
hands
year
allowed
via
understanding
near
victims
economy
restructuring
community
version
planning
AT
stop
least
immediately
resignation
Played
swimming
As
At
BY
agreed
computers
representing
DIV
By
severe
rounds
instructions
Chg
notes
evidence
sprint
official
spring
autonomy
assessment
leave
minister
need
often
newspapers
hijackers
tests
loose
sanctions
private
Soyoil
curPos=WP$
10th
complained
During
engine
4-0
4-1
4-2
end
4-3
GB
packed
lines
4-6
fails
chief-of-staff
H1
special
noted
vouch
environment
undertaking
4.4
tries
slightly
education
called
DNS
investors
vs.
newly
tried
INDICATORS
outbreak
narrow
He
IN
programmes
KEEPS
400
Top
seventh
Senior
If
weapons
singer
It
asked
rights
416
share
climbed
television
Amount
2nd
chairman
KV
sharp
THIRD
cent
trial
controllers
links
trafficking
below
driving
61-2
Balance
NO
unexpectedly
financial
elderly
forma
running
prePos=LS
eve
ON
declared
rates
transport
rated
Of
strategy
PM
forms
On
long-term
Q2
maintain
curPos="
companies
pounds
remain
expected
countries
85th
monitoring
eye
himself
wanted
deposit
another
journalists
centred
envoy
black
consensus
such
showers
recovered
TO
So
Other
metres
penalties
administration
sterling
remains
arriving
operator
white
counterpart
huge
To
UP
superb
might
FINAL
servants
deposed
LAST
leads
Up
fields
next
import
conclusion
organisations
supporting
factor
postponed
news
60,000
green
race
effectively
was
warehouses
war
futures
5.50
grew
We
way
arable
attempted
window
secretary-general
play
fought
quickly
taxes
decide
issues
far
prostitute
YR
issued
plan
Shares
double
suicide
seeded
Yr
suit
study
brokers
demonstrators
fever
burned
gain
reliever
receiving
financing
shareholders
wet
great
happened
pleased
sides
economic
statistics
arrest
looks
EDT
few
Diplomats
crackdown
rain
hunt
rail
BEAT
opened
produced
outside
effect
producer
Fall
sugar
who
option
37th
politics
game
crucial
contribute
why
died
candidate
win
lawyer
soccer
Dec
barter
From
kerosene
various
administrative
Summary
attention
visit
denied
reduction
24-year-old
parent
voted
losing
rand
fix
addition
doubts
24th
sure
grow
an
former
as
looking
formed
hurt
be
virus
day-night
accusing
systems
by
panel
Did
foot
ca
scoring
charge
outstanding
keeping
food
fly
withdrew
partner
votes
voter
interview
observers
11th
language
dn
sites
Friday
attacks
won
rare
5-1
5-2
5-7
which
pesetas
never
piece
5.0
fob
END
5.5
5.6
watching
jailed
pinch-hitter
perhaps
rate
5/8
digital
recalled
go
form
500
504
he
placed
tabulate
EPS
welfare
appeared
four
else
if
zinc
likely
dismissed
it
aimed
announce
gave
become
Dr.
inflation
settlement
sending
kg
km
immigration
knew
knee
places
542
lb
fun
political
while
photos
second
that
faster
picked
555
than
me
limit
locked
mm
contest
feeling
my
plus
expansion
collided
entry
fiscal
postpone
heat
student
terrorists
mixed
storage
head
imported
reserve
hear
allocated
or
sports
86th
families
sitting
nation
prePos=$
AFTER
registered
extremely
599
BREAKS
73rd
hundreds
recent
January
they
suspension
them
then
seat
attorney
33-26
oppose
1,500
commentary
seed
executed
seek
seen
organisers
poisoning
so
exported
issuing
unions
decision
necessary
starter
STAGE
started
neighbours
closes
closer
single
paedophile
cement
closed
to
commercial
joint
reasonable
rules
loaded
first-half
ruled
military
up
reluctant
us
waters
usual
this
thin
remarkable
sees
failure
60th
quake
know
kilometres
vs
suggesting
prePos=EX
changed
changes
MATURITY
we
destitute
gap
wo
gas
slight
previous
reading
planting
compensation
kilometre
kidnapping
held
Income
type
troops
beyond
terms
yr
militant
phase
teams
atrocities
contract
tonnes
elections
churches
exact
force
surrounded
south
refunds
get
continues
course
power
sell
premiums
continued
suspect
help
forcing
massive
10,000
ended
located
38th
sound
FROM
sales
hanged
SUMMARY
CORRECTED
create
criminal
PREMIER
stranded
sent
addressed
WIN
send
here
concrete
security
station
disappointing
costs
factory
medals
implementation
smoke
follow
intent
revenues
factors
treaty
edged
skies
ounce
without
youth
civilians
introduced
audience
sexually
much
800,000
defence
weekly
grenades
6-0
6-1
6-2
6-3
boosted
6-4
6-5
6-7
committed
committee
sets
defends
union
6.0
6.1
returned
6.5
adopted
standard
reports
BASKETBALL
got
area
murder
shipment
FOR
moisture
lack
success
authority
cleared
batting
young
negotiations
complaint
lady
analyst
named
foreigners
considered
focus
delivered
favorable
entire
changing
wrist
approach
decisive
Turnover
wage
passengers
understand
suspended
intelligence
winner
million
strongly
bulk
champion
larger
gun
wait
riders
guerrilla
walkover
Gluten
particularly
heading
discussed
names
framework
+301
bacteria
almost
suits
associate
earlier
whether
shelling
4th
However
basis
affected
army
arms
governor
basic
5000
unite
replied
bush
policies
units
pursue
ties
busy
extra
land
tied
consecutive
conduct
walk
refusing
laps
unidentified
advertising
crowds
coaching
arrangements
events
discussing
a.m.
chaos
want
forecast
rifles
difference
must
resign
hitting
accident
5040
incompatible
found
seeding
currency
limits
disarmament
beating
politicians
month-end
1,600
reverts
attend
consortium
nationals
goods
voting
had
ALERT
accounting
secure
late
school
things
has
last
weight
allegedly
citing
disrupted
exports
15-9
impossible
effort
wave
yesterday
NOTES
weapon
stronger
ends
15-8
15-7
15-6
15-5
steady
vote
early
15-2
disease
yen
yet
insurgents
wages
infrastructure
initially
time
Fax
applications
electoral
happy
Scores
governments
GDP
her
having
laws
armoured
1500
doubles
passenger
tiny
pornographic
doubled
4-95
confirmed
vowed
tourist
ways
consistent
reverse
tennis
earnings
garden
small
before
aviation
him
hit
his
beat
potential
auctions
Order
30,000
repeatedly
Officials
history
26th
square
repairs
twice
camps
colony
values
point
debut
diverted
banned
Only
meal
mean
approve
CYCLING
nominated
settlements
13th
been
beef
advance
PRO-BASEBALL
7-1
killer
7-2
7-3
7-4
you
7-5
7-6
opportunity
active
court
subsidiary
deals
7.0
firms
7.5
hog
cited
abuses
hot
Gen'l
how
innings
assembly
dragged
march
blast
cargoes
meet
answer
calls
700
restored
Monday
putting
sometimes
questions
promise
reply
coordinator
For
blame
carrying
beginning
waiting
softer
grandson
killed
although
diplomat
president
ransom
dropped
action
fired
suspected
accompanied
fires
reached
asks
acting
first-round
deliver
headed
eight
products
Final
illness
could
strike
5th
marks
able
THURSDAY
concerned
short-term
solution
opponent
international
citizen
difficult
friends
peasants
header
present
problems
arrested
borders
best
75th
certainly
spokesman
concerning
lions
regulation
Fuel
suburb
hectares
feared
quoted
cover
defenders
based
something
equalised
religious
fact
bases
Under
schoolgirl
actually
face
showed
After
ratio
refugees
independence
guilders
4.50
finding
elected
1996/97
rule
equaliser
521-8
propaganda
meningitis
comment
humanitarian
guns
14.12
erupted
discussions
Summaries
fair
safety
Captain
fail
diesel
seize
church
isolated
foreign
fall
appearance
fake
runs
first
fewer
clearly
poll
spite
from
SUNDAY
Goalkeepers
finished
manufacture
speaker
replacement
14th
death
advice
according
denounced
operations
paper
winds
1673
value
8-6
verified
staged
right-field
fans
stages
fishermen
fleeing
growth
8.0
resolution
poor
farm
unlikely
virtually
excellent
fairly
pool
airport
charges
protesters
15,000
800
municipal
charged
shortly
providing
weeks
fate
insistence
overs
pork
aggressive
close
supporters
Gov
Chairman
fast
nine
10,650,407
organised
controls
rural
HRW
post
its
respect
article
port
income
buyers
production
united
directors
choose
miles
overnight
previously
852
striker
strikes
democratic
perpetrators
bills
859
Attendance
reigning
improvement
pushed
college
Ambassador
nervousness
number
property
nothing
testing
distributed
tough
silver
city
confident
local
SCORES
yield
1995/96
decisions
filled
FIRST
removed
powerful
shed
YEAR-AGO
points
copies
859-1610
maintained
border
landless
read
derailed
touch
real
prompted
April
communists
unit
finals
63rd
monthly
badly
confiscated
five-run
today
construction
parliamentary
saying
organising
radical
looked
minute
application
rebels
formally
reason
Obligation
ship
acts
annual
exclusive
using
containing
investigating
completed
demand
photographs
letter
handed
acquire
worth
taken
dividend
takes
popular
broken
missionaries
broker
armed
liquidity
debate
either
jet
those
estimates
barges
lifted
telephone
significant
longer
parties
worst
selling
leaving
distance
5,000
prospects
show
shot
killings
street
estimated
nextChunk=B-ADVP
Her
rebel
bounce
largely
frost
gene
LEADING
28th
speculated
refined
style
settle
vehicle
freedom
bilateral
nomination
His
Sheikh
shut
bonds
fielder
15th
influence
....
9-7
crisis
Tries
important
disciplinary
detective
veteran
daily
curChunk=B-ADVP
job
daughter
largest
Princess
investigations
captain
administrator
billion
sheet
sheep
rest
original
prosecutor
kingdom
gets
afternoon
900
investigation
front
flights
You
customer
plane
equivalent
projects
offer
diplomatic
complex
plans
plant
drive
Archbishop
sixth
servant
Sales
offered
civil
national
customers
Speaker
jobs
founded
medicine
entered
difficulties
941
refuelled
Aggregate
developed
contact
champions
searched
parts
western
duties
however
visiting
sources
trained
signs
related
captured
views
Rice
outperform
directed
historic
SCOREBOARD
farmer
prompt
merger
tunnel
elaborate
Nearly
crowd
cycling
output
totalled
Penalties
warrants
majority
join
crown
sentence
realised
director
shareholder
ordinary
Earlier
lung
reporters
brought
alive
pursuit
payments
tournament
emerged
thinking
world
curChunk=B-VP
Standings
everything
programme
side
bread
pence
creditors
break
missed
restaurant
dictatorship
century
hide
report
powers
married
sign
cotton
sclerosis
high
split
falls
8,000
curChunk=B-PP
expressed
different
directly
officially
level
adjusted
64th
establish
arrests
focused
parents
birthday
Before
scorer
scores
Issuer
total
Scorers
consumers
fours
consumer
plays
economist
social
51st
sells
raised
cross
control
demanding
declined
lobby
scored
overthrow
threatening
commanding
behalf
scene
WEDNESDAY
20-month
raises
injury
publishing
placings
assemblies
accept
northwestern
two-year
stopping
access
nationalists
26-year-old
key
stopped
launch
confirm
cricket
fourth
vast
available
Analysts
sector
dismal
banning
especially
once
figures
records
pending
What
throughout
conflicts
strokes
criticised
technology
consulate
litigation
compromise
backed
reach
between
lending
following
450,000
drivers
16th
overseas
weak
kms
seeing
blocked
place
regular
informed
dispute
offenders
lead
hits
expect
Asked
site
When
highlights
leaders
TENNIS
assets
sixes
should
only
crashed
justice
officers
9/16
kph
individual
loans
accepted
interim
person
testimony
week
ready
studies
player
greatest
manufacturers
limited
'll
match
While
played
pills
explosive
spoke
surgeon
owners
approved
would
legs
customs
solid
reserves
relegated
strategist
size
left
elect
example
balances
quiet
raids
policy
resigned
address
destroyed
police
fifth
surgery
violent
Its
're
export
others
making
sectors
check
8th
relatives
onto
hijacked
mines
survivors
supposed
226-5
flown
flows
November
pilot
approval
41.0
versus
ATHLETICS
well
personnel
handling
outlook
Organisers
gains
inventories
've
cooperation
went
considering
custody
rains
bringing
privatization
schools
spots
orders
southeast
respectively
matter
noise
product
5452
premier
produce
walks
pitting
capital
minor
fuel
marijuana
prePos=PDT
employee
explosives
helicopters
biggest
function
west
quite
employer
lap
tower
traffic
pitched
less
suspects
successive
condition
were
ceremony
improve
Death
lbw
university
floor
possibility
wounded
opening
doctor
industrial
sport
led
diplomats
supply
leg
lei
mountain
pact
let
separatist
adviser
press
cargo
two-run
night
pace
dystrophy
each
items
document
killing
dollars
dystrophin
networks
does
situation
clause
3.75
timetable
producers
homered
prayer
detained
quit
demanded
insurance
southwest
medical
prix
source
unable
homes
weakened
homer
acquired
tension
chest
involves
doubt
athletes
develop
nurses
involved
dominated
district
overall
1949
fixed
1948
1947
full
referendum
away
painful
n.a
harvest
pain
suspicion
purchase
titles
pair
manage
equal
MONDAY
fund
paid
1968
1967
three
17th
1974
season
DOCUMENT
controversial
deputy
threw
batter
players
roads
1987
judicial
1986
1984
provide
1980
bids
1989
1988
100,000
9000
1998
lot
1997
computer
1995
premium
1994
1993
low
1991
merely
1999
meant
means
aides
initial
centre
fellow
unbeaten
interests
quick
husband
experience
launched
strikers
Eight
commander
renegade
checked
affair
jewelry
minutes
illegal
done
August
curChunk=I-LST
residents
8-15
part
east
relief
boycott
washed
seeking
someone
earn
four-day
asylum
preChunk=B-SBAR
surged
record
provinces
pass
past
bill
whose
easy
senior
Note
BASEBALL
October
Jul
mine
mind
retailer
apartheid
leftist
inch
added
emergency
down
launching
incumbent
adding
club
legal
signal
regarding
month
acres
rather
importance
title
papers
With
miss
plantation
nuclear
human
Leading
permission
RACING
faction
beach
Halftime
CONFIRMED
supplies
1996-08-24
1996-08-23
1996-08-22
1996-08-21
letters
fear
1996-08-29
1996-08-28
1996-08-27
4221
1996-08-26
1996-08-25
signed
printed
field
post-war
served
wilderness
opens
1996-08-30
coached
upset
targets
mad
man
may
DRAW
reforms
curPos=RBR
feet
bonus
defending
feel
Result
convene
year-on-year
residence
abduction
equipment
pressure
bases-loaded
feed
men
repeat
met
no-confidence
barley
tankan
exactly
surveyed
wicket
MATCH
about
danger
Extras
crash
granted
above
stick
goals
injunction
beaten
received
substantial
quality
avoided
animal
boost
shared
March
association
believe
shares
fell
into
resuming
holes
stiff
though
appeal
appear
definitely
associated
9373-1800
holds
experts
open
forced
suffering
project
tobacco
felt
mln
50,000
forces
flying
proposals
secured
allow
polls
18th
stocks
activists
performances
recently
hostages
Neither
renewed
money
healthy
claimed
whole
attempts
profits
still
sprinter
mph
linking
toward
books
among
internal
specified
believes
federal
believed
include
aged
genocide
SOCCER
cutting
wickets
defender
injuries
prepared
divorced
midday
offset
capture
failed
appointed
DATE
tabulated
+31
8.30
+33
NOTE
talks
riots
TOTAL
assistant
+44
command
+49
three-game
revised
leading
urge
July
because
moving
RESEARCH
agreement
dealing
mayor
bronze
aboard
returns
WINS
June
forest
optimistic
sweep
slam
anniversary
republic
two-time
whales
artillery
surrender
attributable
wrote
originally
jail
PRESS
kuna
volume
materials
rises
technical
ride
responsible
medal
rice
WITH
visited
attacked
family
atmosphere
career
told
release
judge
similar
partnership
parrots
thousands
crossing
Just
Some
driver
MAY
54th
holiday
crude
manufacturer
holders
deficit
stores
veterinary
bushel
firing
capped
tops
jars
volatility
losses
net
new
took
positions
mandate
20,000
seedings
reaching
media
around
pesos
stepped
cannabis
DIGEST
specific
SECOND
nextChunk=B-PP
territory
developments
shift
professional
securities
nil
decided
shoulder
0800
hurdles
toss
slow
three-year
militants
nextPos=NN|SYM
mosque
maybe
rallied
students
helicopter
expectations
riot
tour
persuade
stayed
supported
resulted
documents
breakaway
19th
research
MLN
houses
wounds
town
engineering
boats
girl
airports
yards
rallies
Parliament
involving
blind
January-June
September
nearly
nor
not
now
statement
Tuesday
lived
delivery
election
MON
bourse
what
risk
rise
container
when
nearby
exiled
catch
promising
give
lives
Local
stations
MPs
determined
farms
sentences
direct
sentenced
markka
heads
certain
levels
board
nun
10-year
used
earned
whale
right-wing
12-15
otherwise
marked
market
effects
keep
forecasts
imprisonment
90th
alone
3,000
along
rocks
designed
RESULTS
handful
critics
Today
contained
uses
bring
promoted
equity
+7095
giant
league
BALANCE
peace
competitive
ordering
preChunk=I-CONJP
rescued
search
communications
insurer
whom
franc
44.2
JUNE
pullout
mounted
Thursday
girls
fighters
strikeouts
warning
exclude
42nd
mainland
curPos=PDT
6,000
burst
carry
venue
clash
mistakes
trouble
class
reporting
attended
Although
kept
management
very
congress
delayed
Traders
javelin
issue
lower
metal
index
separatists
decree
continuing
turned
eventually
camera
seemed
draw
2.20
off
generally
complete
edge
ruling
widespread
chronic
Dividend
months
follows
headquarters
five-year
AUGUST
survey
Playing
Match
oil
fight
brief
pretty
recover
determine
17-14
voluntarily
drew
remarks
strategic
promised
speaking
province
estimate
promises
breaking
proposal
registrations
old
settled
opponents
ancient
Close
starting
checking
conservative
conference
activity
blew
three-test
tanks
one
cents
pull
buying
dealer
pulp
country
aide
willing
---
briefing
details
Another
treated
praised
ensure
exploded
epidemic
clocked
buses
towns
region
support
drop
cold
life
expects
roubles
cases
regime
Commissioner
TITLE
software
chains
competition
none
rupees
problem
closing
connection
presence
seized
abandoned
wife
makers
profitable
come
push
lift
handgun
sexual
A-rated
distribution
ACTUAL
our
out
capacity
More
noon
dark
sixth-inning
According
7-15
cool
unnamed
minimum
date
reveal
data
corn
own
murdering
RECORD
drug
blow
activist
re-election
development
like
Operating
ending
efforts
proposed
council
fraud
embassy
ground
Both
note
penalty
line
exile
link
riding
recovery
intends
stories
cost
aims
will
confidence
fishing
dictator
groups
allowing
Witnesses
compliance
Also
challenge
semifinals
snap
your
remote
rider
these
begins
prison
wins
coup
analysis
apparent
wing
arrives
flight
independent
ahead
achieve
yellow
alleged
talking
arrived
lira
editorial
faced
blue
32.0
days
faces
discuss
liberal
sharply
wish
belonging
1-106
par
invitation
homers
pay
list
rivals
About
candidates
spending
claims
child
legislature
56th
remove
fatal
Over
live
pct
victory
extradition
with
service
there
unpaid
per
period
birth
slowly
120,000
ever
even
meetings
indication
engaged
soybeans
injured
Among
violence
bought
spinal
requiring
policemen
imposed
30th
members
stock
Mafia
heroin
surge
everyone
snapped
guaranteed
Three
rising
initiated
unclear
cause
intended
attending
working
victim
skull
department
garlic
chief
aircraft
accord
followed
despite
prePos=.
policeman
teenagers
meeting
landed
displayed
began
violations
inning
actions
CALL
Announcement
giving
curChunk=I-CONJP
routine
reorganization
lunches
escape
trillion
gives
latest
receive
surplus
theft
...
standing
representatives
friendship
disappointed
continue
one-day
offers
given
crimes
freed
secrets
casualties
.01
.02
second-quarter
Not
guilty
Nov
Now
playing
employees
coastal
goalkeeper
asking
anything
retired
pipes
pts
endorse
.450
embargo
.457
CAPS
assassination
.470
put
identified
.466
.461
options
.469
struggle
meets
peso
OUT
junior
light
apparently
Current
barred
semifinal
barrel
.496
permanent
travel
choice
defeated
replace
FORECAST
major
worldwide
funds
consider
group
imports
gross
rugby
tree
shutdown
LISTING
request
-X-
their
percent
general
process
requirements
clear
eighth
clean
listed
neither
RESULT
account
mostly
hogs
trio
trip
hunting
rally
jump
prime
happen
festival
sparked
venture
population
route
33.0
trying
millions
negotiated
comes
soil
bottle
involvement
hearing
transition
Premier
series
represent
goodwill
PAY
robbers
robbery
57th
hold
trail
ISSUE
prior
rubber
talk
train
2001
planes
take
immediate
taka
relatively
PCT
some
session
newsdesk
additional
apiece
standings
passed
just
four-year
owner
sold
midnight
solo
44th
tracks
home
hole
existing
championships
material
owned
iron
explain
Oct
9,000
hope
soon
executive
stadium
demolition
3311812-4
underwent
protest
heavy
cancelled
painted
quarterly
summer
Still
member
incidents
+0.05
together
within
health
gathered
positive
agents
prospect
refugee
evening
return
serve
intercepted
bowled
fine
find
host
selected
drove
seriously
film
fill
heart
rankings
task
scientists
ousted
true
position
since
sentiment
------------------------
dangerous
appears
hour
leadership
ranked
magazines
troubled
heard
experienced
falling
sought
extraordinary
guerrillas
measles
fence
coming
firm
.500
fire
.504
brokerage
taxi
except
.519
.512
kidnapped
prominent
comics
global
unless
plants
.527
operating
.523
irregularities
bribes
denotes
people
.531
hat-trick
.538
ranking
operation
.534
reputation
inside
mainly
.542
runner-up
.543
leaves
provincial
CBOT
five
announced
squad
unlisted
campaign
conflict
kills
analysts
installed
reasons
traders
lawsuit
scheduled
father
swept
wants
three-run
every
again
stockpile
PUT
SUMMARIES
prefix
negotiator
during
price
games
SATURDAY
Bowling
briefly
reduced
agree
resistance
welcomed
itself
.598
anyone
regions
hoped
birds
substitute
hopes
collective
event
witnesses
established
agency
caused
Following
agenda
Results
80th
damaged
cannot
span
patrols
minority
tight
space
reference
bottom
commitment
published
factions
collision
covered
intervention
frequent
membership
aggregate
network
terrorist
holding
public
terrorism
nominee
track
monetary
traded
unchanged
trader
trades
trade
performance
round
currently
ambassador
insisted
aiming
normally
unrest
accuracy
building
setting
nationalist
score
stabbed
ran
Maybe
authorities
southern
32nd
posted
blamed
dollar
58th
federation
SALE
awarded
pulled
indices
40,000
calling
couple
moved
Pay
Jan-April
Fastest
red
act
helped
finish
add
escaped
mutual
exchange
prePos=RBS
soldiers
prevent
northeast
message
recorded
truth
moves
age
smaller
motorist
ago
years
gestures
decline
Minister
newsroom
conceded
exit
system
spot
aid
other
retain
air
skilled
retail
crew
defeat
speak
dissidents
outcome
tender
boat
future
movement
signing
royal
-DOCSTART-
kidnappers
rating
body
all
always
already
tying
conducted
barrels
prayers
singled
contracts
favour
weakness
0-0
0-1
0-2
scoreless
row
batsman
abroad
any
suggested
singles
0.1
0.5
ninth
until
collapse
thought
spying
Midfielders
resort
margin
broke
grade
increased
northwest
11.00
are
came
where
Many
arm
vice
holder
delegates
call
Several
kick
partners
ask
canteen
relations
gunman
through
becoming
officer
offices
run
justified
bomb
Pro
mother
view
protests
results
travelling
palace
Expected
200,000
camp
name
crop
Judge
truce
Parent
absence
book
truck
edition
caps
negative
major-league
bone
bond
target
gunmen
leader
Commander
pledged
amnesty
cast
officials
princess
cash
greater
case
generation
matches
Doctors
cars
failing
care
participation
assault
damage
boss
exercise
labour
protect
BADMINTON
more
born
kill
percentage
described
speculation
package
king
kind
both
most
malaria
causing
sad
profit
move
amount
saw
also
say
enough
increase
59th
bad
AA-
ban
bar
bat
draft
midfielder
personal
delay
submitted
clashes
deal
strong
abuse
affect
facing
dead
ministers
sea
see
wheat
compared
set
fastest
joined
sex
column
procedure
battle
river
bed
33rd
bowling
12-year-old
shutout
Latest
faded
francs
SQUAD
she
TEST
shr
debt
little
killers
explained
getting
over
ballot
brilliant
six
living
bound
football
avoid
bid
fresh
prePos=NN|SYM
big
advanced
600,000
nations
bit
two-day
slaughter
improved
thanks
striking
modem
model
animals
reduce
large
20th
satisfied
operate
begin
weekend
neighbour
finishing
halftime
inquiry
convicted
table
bln
change
corporate
several
northern
posts
rupiah
nextPos=RBS
son
1-0
1-1
1-2
Qualifier
1-6
PRICE
AMT
thrown
1.2
1.5
1.7
tense
behind
dozens
ROUND
box
mental
boy
1/2
bpd
prices
highly
unfortunate
chance
illegally
10.
101
102
105
106
107
108
109
stance
county
stood
paint
fighting
11.
Saturday
110
111
112
scandal
115
116
117
friend
drawn
trends
deny
closely
stg
14,775,000
12.
morning
120
ARA
mission
125
doctors
128
129
autumn
conditions
cooperate
overcome
13.
extended
serving
current
secretary
majors
managed
138
copper
civilian
preferred
participants
storm
manager
makes
maker
threatened
amid
RUN
14.
store
140
142
143
145
slipped
contacts
story
but
bus
Defenders
medallist
buy
15.
express
AUG
written
films
GAMES
dealers
16.
wild-card
160
stole
higher
doing
idea
170
prisoners
171
176
178
backing
missing
turnover
Thousands
successful
normal
figure
18.
weaker
180
181
drought
migration
passing
streets
tested
Opposition
195
199
inches
seconds
212-859-1650
retiring
children
road
review
25,000
weather
ethnic
goal
Revenue
neighbouring
nextChunk=B-SBAR
racing
freight
range
topsoil
flat
elements
argument
begun
dozen
growing
confessed
tag
RALLYING
filed
goes
pro-baseball
tax
towards
ranks
chances
safe
presidential
balls
flee
fled
aware
can
award
car
marriage
flew
wells
said
village
carried
rainfall
motion
really
response
rival
Reserve
/
3
L
N
O
P
V
Add
self-rule
Rugby
Group
Dealers
District
Export
curPos=NN|SYM
THE
'S
Trade
Army
Information
bank
16
ministry
Socialist
Airways
Service
AS
BP
Gallen
Market
FC
In
OJ
Best
TV
Workers
central
Affairs
XI
Research
OFFICIAL
TIMES
am
at
do
Rating
in
Wheat
Company
nextPos=LS
magazine
Investors
wall
Federal
Development
Relations
interior
radio
Gas
Marble
Finance
Club
Cricket
Defence
ISS
Business
Airport
party
Capital
Markets
Police
Education
Foreign
Against
Services
Maccabi
alliance
Data
Weather
Government
Security
Investment
Radio
MOODY
Medical
bureau
Intelligence
Armed
Daily
Agriculture
Industry
Supreme
vehicles
Health
affairs
Total
Press
Sale
2000
Human
Team
Hurricane
democracy
Legal
Cabinet
curPos=SYM
Media
Commercial
Interior
office
Wednesday
AND
motor
Soccer
curChunk=I-SBAR
Deutsche
Ministry
'
1
Air
Four
All
Stock
Two
for
is
Division
Social
War
division
First
Civil
Financial
Net
prePos=''
Council
International
One
RUGBY
League
General
News
prePos=PRP
II
the
prePos=PRP$
curPos=DT
curPos=FW
prePos=WRB
nextPos=PRP
curPos=JJR
curPos=VB
curPos=RB
nextPos=POS
prePos=WDT
prePos=VBZ
preChunk=O
prePos=VB
prePos=TO
prePos=RP
prePos=RB
prePos=NN
prePos=VBP
prePos=VBN
prePos=VBG
prePos=VBD
nextNameTag=I-PER
de
of
prePos=(
prePos=)
prePos="
nextPos=TO
nextPos=RB
nextPos=WP
prePos=FW
nextPos=VB
prePos=CC
nextPos=MD
nextChunk=O
West
prePos=JJR
curChunk=I-ADJP
prePos=
preChunk=B-NP
preChunk=B-PP
curChunk=B-NP
nextPos=.
nextPos=,
nextPos=:
nextPos="
nextPos=)
nextPos=(
preChunk=I-ADVP
nextPos=WRB
preChunk=I-ADJP
curPos=NNPS
nextChunk=I-ADJP
nextPos=VBP
nextPos=VBN
nextPos=VBZ
nextPos=VBG
preChunk=I-PP
nextChunk=I-ADVP
preChunk=I-VP
preChunk=I-PRT
nextPos=CC
nextPos=FW
nextPos=DT
prePos=:
prePos=,
curPos=VBZ
curPos=VBD
curPos=VBG
prePos=SYM
preChunk=
preNameTag=
nextChunk=I-SBAR
nextPos=RBR
prePos=POS
curPos=IN
curChunk=I-PP
nextNameTag=I-LOC
curChunk=O
preNameTag=I-LOC
prePos=NNS
nextPos=VBD
nextChunk=I-VP
nextPos=JJ
nextPos=CD
nextNameTag=O
curChunk=I-NP
nextPos=NNP
curPos=NNP
prePos=NNP
preChunk=I-NP
nextChunk=I-NP
nextPos=NNPS
curPos=JJ
curPos=CD
curPos=NN
curChunk=I-VP
prePos=JJ
prePos=IN
nextPos=NNS
prePos=DT
prePos=CD
nextPos=IN
nextPos=NN
curPos=NNS
nextChunk=B-NP
nextPos=WDT
preNameTag=I-MISC
nextNameTag=I-MISC
nextChunk=I-PP
preNameTag=O
preChunk=I-SBAR
nextNameTag=
preNameTag=I-ORG
nextPos=
nextChunk=
prePos=NNPS
,
.
's
curPos=CC
nextNameTag=I-ORG
The
No
curPos=,
curPos=.
Central
People
Community
SOUTH
prePos=JJS
curPos=POS
New
National
nextPos=''
Old
and
East
World
nextPos=PDT
preChunk=B-VP
Justice
nextPos=EX
Gold
(
)
curChunk=I-INTJ
curPos=UH
curPos=TO
nextPos=PRP$
prePos=UH
curPos=(
curPos=)
Van
White
nextChunk=I-CONJP
preChunk=I-INTJ
curChunk=I-ADVP
nextPos=SYM
curPos=VBN
curPos=JJS
Centre
University
ST
Port
State
Public
nextChunk=I-INTJ
School
Union
Court
Queen
Street
Home
NEW
curPos=PRP
curPos=VBP
Bank
High
2
:
A
telling
F
1000
21st
Major
bypass
Hamlet
LEAGUE
Industrial
prePos=WP$
CPI
310
11
76
95
96
DAY
Ten
nextNameTag=B-MISC
curPos=''
4.0
preNameTag=B-MISC
My
curPos=$
curPos=:
Seven
Yellow
no
on
nextPos=RP
Championship
12th
Third
championship
Women
nextChunk=I-PRT
winners
Open
nextPos=JJS
law
n't
convention
1990
1996
1992
SERIES
Second
DIVISION
WORLD
against
Five
Winners
Men
CHAMPIONSHIP
INTERNATIONAL
program
serie
Test
1,000
Series
Year
Index
President
NATIONAL
Baseball
100
150
Trading
162
RALLY
Price
curPos=RP
Golf
curChunk=I-PRT
Black
preNameTag=I-PER
curPos=WDT
OF
Tennis
GOLF
Peace
GRAND
Grand
SUPER
van
curPos=MD
An
curPos=WRB
Mr
nextPos=WP$
Jan
Date
BONDS
Key
Sunday
Spot
May
Max
Cash
King
SPOT
preChunk=I-LST
prePos=RBR
Prince
prePos=WP
prePos=MD
nextPos=JJR
nextChunk=B-VP
Mother
Spring
preChunk=B-ADVP
coast
Sea
Sen
31
Prairie
nextPos=UH
north
hospital
curPos=PRP$
free
Former
Church
nextPos=$
curPos=RBS
Our
Long
preNameTag=B-LOC
2,000
Most
Chester
SEC
Neuchatel
T&N
Minerals
Amtrak
Universitatea
Res
Collstrop
Crewe
BNP
BOJ
Bradford
Wigan
Gazprom
Collingwood
Salomon
Darlington
Norwich
Kosice
Rennes
Stoke
Administration
Porto
Ferencvaros
Millwall
Bournemouth
Allensbach
Cleveland
Twente
Bielefeld
CDU
Swebus
Rouge
Cardinals
Gazeta
Arch
Giants
Arequipa
Philippine
CME
Glamorgan
Yorkshire
Sox
Hearts
Sparta
Samsung
Mariners
Brighton
CSU
Bury
Penrith
Reading
TVM
Gillingham
TWA
CVG
Liverpool
F.C.
Enschede
Tigers
Pusan
Braves
Montpellier
Americast
Duisburg
Securities
Oldham
Bureau
Walsall
AB
AC
AG
SOLIDERE
Bromwich
AZ
Co
Carlisle
EC
Auxerre
EL
EU
FK
Chor
JC
Padres
LG
Journal
Belchatow
Gloucestershire
ND
OB
OM
Nyva
Rabobank
Mentmore
Mets
Metz
EgyptAir
SK
SV
UN
Barnet
Nottinghamshire
DKBA
Nice
Khmer
Sittard
Gruppen
Puchon
Strasbourg
RTRS
ORIOLES
Slough
Arrows
Kerkrade
Watford
EPR
ETA
Chonnam
Globo
PULPEX
Rockies
Reds
WSRL
Hutnik
Tankan
Kispest
Brewers
Revolutionary
Tottenham
Haitai
VfB
VfL
Assembly
Tranmere
Emnid
Sakigake
Poznan
Leyton
Manly
Middlesex
Somerset
Worcestershire
Expos
Treasury
Burnley
Organisation
Kekkila
Graafschap
Daewoo
Interpol
LTTE
Cincinnati
Fitzroy
Grasshoppers
Tilburg
Lenzing
Dinamo
Helens
Rovers
Corporation
Lech
GKS
Times
Duesseldorf
Dacom
Arsenal
Rapid
GPG
Banespa
Lens
Advanced
Peterborough
Telekom
Bolton
Corp.
Shrewsbury
Tyrrell
WorldCom
Hereford
Transportation
Reuters
Fiorentina
Systems
Schalke
Widzew
Southend
Inc.
Warrington
Promodes
Commodities
Zenith
Brann
IMED
Niugini
Orient
Newsroom
Movement
Amica
Torpedo
Rangers
U.N.
Fulham
Dynamo
Charity
UNION
Newsdesk
Marlins
Ligier
Hansa
INA
ING
Dortmund
IOC
Itar-Tass
Royals
Sauber
Lille
Castleford
Liberation
Aaxis
Essendon
Brentford
Northamptonshire
Genoa
Molenbeek
Juventude
Hamas
Bamerindus
Arminia
Suwon
Spartak
Repsol
Heerenveen
Mapei
Jays
Democracy
Benfica
Richmond
1860
Inc
Institute
Lyon
Werder
Orioles
Leicestershire
Kent
Benetton
Microsoft
Hanwha
Footscray
Anyang
Companion
Yamaha
KDP
Barnsley
Orii
Athletics
College
TEXAS
Gencor
Twins
Fortuna
Chonbuk
Holdings
Eelam
Oriente
Life
Volkswagen
Sunderland
Airlines
Moenchengladbach
Carlton
Halifax
USDA
Unita
Nantes
Corp
Krakow
Milwaukee
Notts
Chonan
Housecall
Blue
Dodgers
SunGard
Brush
CINCINNATI
Berlex
Adelaide
Middlesbrough
Bulldogs
Waalwijk
Postal
Swindon
Ajax
Grimsby
Willem
Escravos
Warburg
Sporting
PUNR
Penn
Mladost
Katowice
LME
Newcrest
Praha
Mostostal
Phillies
Buducnost
Patriotic
Celtic
Authority
Newcastle
Torquay
Startup
Wolverhampton
Sussex
Zastava
Karlsruhe
Interfax
Bochum
OSCE
Lockhart
Tass
MDS
MFS
Front
Queens
Huddersfield
Alkmaar
Blacks
Basketball
Shell
Utrecht
Viktoria
Hapoel
MQM
Rostock
MSV
Leverkusen
Cofinec
Ltd
Softbank
Ekeren
Juventus
Exeter
Xinhua
Cooperation
IRNA
Groningen
NAC
Partizan
Mining
NBH
JOURNAL
NCB
Parma
Aberdeen
Caen
Pohang
Wronki
Suburbs
Atletico
Party
Odra
Hartlepool
Lancashire
Luton
Humenne
Senate
Credit
Geelong
Vitesse
OAKLAND
Faulding
Moody
Boys
Inter
SPLA
Fremantle
Municipal
Astros
OFK
Slovan
Pauli
Nijmegen
Ssangbangwool
Amoco
Desk
ICAC
Guingamp
Tychy
Sachs
NATO
Raith
Motorola
Ipswich
Cargill
Roda
Mansfield
Hawthorn
Barrick
Cannes
Cargo
Petrosani
Marseille
JavaSoft
Oak
Paribas
Wodzislaw
CNIEC
Slask
PKK
Stagecoach
PLO
CSKA
Rochdale
Department
Parramatta
Elect
Blackpool
Merrill
PSG
PSV
PTT
PUK
Chemlon
Sokol
Stockport
Legia
Biogen
Scarborough
Kawasaki
Cubs
Brugge
Metro
Bahia
Plymouth
Ducati
Lodz
Stirling
Wycombe
Plc
Bayer
Hyundai
IVAC
Star
Everton
Crystal
Palmans
Election
Ballybunion
Warwickshire
Swansea
Borussia
Kilda
Aston
RBA
Rights
Jiul
Communications
Germain
ABC
ACC
Liberal
Wrexham
Statistics
Oakland
Agency
Bayern
Board
Yankees
RKC
Missionaries
Insurance
Feyenoord
AOL
Workington
ARC
Bastia
Graz
Yedioth
Representatives
Honda
Arnhem
Lokomotiv
Scunthorpe
Hull
Coventry
Rotherham
SBC
Illawarra
Indonesian
Ford
Thai
Conference
Republican
Democratic
Rican
Rally
Ferrari
Democrat
Convention
Exchange
Committee
Indians
TM
VW
Battle
Swiss
Doncaster
Eastern
Internet
American
Subaru
Labor
Mitsubishi
Mexican
Petroleum
Asian
Southern
Miss
Association
Irish
Democrats
Universe
Polish
Toyota
Names
Nepali
Reform
Office
Brent
Commission
Kurdish
NEC
Palestinian
Jordanian
Dutch
Leeds
German
UEFA
European
SIMEX
Aviation
Monde
NATIONS
McLaren
Japanese
Labour
Congress
Australian
Catholic
COMEX
Treaty
Nations
Porsche
RBI
S&P
Romanian
ATP
Bosnian
Games
Law
Christian
Karen
Costa
North
Hong
Western
Red
CHICAGO
San
Arab
Kong
Australia
AL
Basque
La
France
KONG
Middle
London
Sierra
Wimbledon
Football
Russian
U.S.
South
British
Czech
Bombay
Trax
Indian
Los
HONG
States
African
Tamil
California
Oklahoma
Independent
French
India
Saudi
County
Atlanta
Islamic
Iraqi
Super
Castilla
Aki
Keane
Brooks
Sun
Baker
Lehman
Lloyd
Villa
Petra
Le
Ruch
Dan
Post
Goldman
Sheffield
Vale
Hanson
Vicente
Sion
Gloria
Chelsea
Fox
Leon
Philip
Dole
Durham
Chong
JOHNSON
Stanley
Power
Lynch
Young
Edwards
Miguel
Liu
Mills
Pirates
Charlton
Blackburn
Wellman
Morris
Bonds
Nancy
Stadler
Polonia
Williams
Gingrich
Taylor
Lotte
Ross
Santos
Dundee
George
Wood
Robert
Love
McCarthy
Thomson
Diego
Wall
El
Hamilton
Royal
W.
Angeles
Washington
Lincoln
Johnson
Park
Preston
Jordan
Boston
Toronto
Milan
Paris
Paulo
Francisco
Arthur
Louis
Houston
&
CLEVELAND
Barcelona
Balkan
Rio
Angels
PHILADELPHIA
BARCELONA
Bristol
Jerusalem
Mountain
Miami
Greece
Athens
Amsterdam
Abbey
Sao
Rwanda
JERUSALEM
Columbia
Florida
Cologne
Spain
Pacific
St.
China
Nepal
Amazon
Chesterfield
Seattle
Finland
Zabrze
DE
Cyprus
Tokyo
Brazil
DETROIT
Frankfurt
NZ
St
UK
US
Alaska
Trust
MONTREAL
Bordeaux
Saskatchewan
TORONTO
River
Dublin
City
Chorzow
Warsaw
Melbourne
Zealand
CALIFORNIA
England
Valletta
Surrey
Colorado
Bucharest
VALLETTA
ANGOLA
CITY
Northampton
Colombia
Eindhoven
Zimbabwe
House
COLORADO
FRANCISCO
Pakistan
Southampton
Sudan
Taiwan
Canberra
Coast
Northern
United
Baltimore
Philadelphia
Akron
Federation
Indonesia
Antwerp
Istanbul
ATLANTA
Japan
Commonwealth
FLORIDA
Mexico
Colchester
Detroit
Pennsylvania
Doetinchem
Kurdistan
Monaco
America
Buenos
Atlantic
Arkansas
UNITED
Prague
Essex
Cardiff
Europe
Hamburg
MINNESOTA
Kansas
Singapore
Massachusetts
Stuttgart
Auckland
Taibe
KANSAS
Minnesota
MILAN
Beirut
Sydney
Bratislava
Volendam
York
ANGELES
Manchester
Linz
Palace
SEATTLE
Sofia
Nottingham
Ulsan
Canada
Vienna
MILWAUKEE
Georgia
Shanghai
Iran
LOS
Oxford
YORK
Aires
Vermont
Bremen
Moscow
Nigeria
Leicester
Ireland
Algeria
Charleroi
Texas
Breda
Karachi
Jakarta
Rotterdam
BOSTON
Wroclaw
Kiev
Zurich
Venezuela
LOUIS
Chicago
Belgrade
Birmingham
Brisbane
Seoul
Road
Austria
Bangladesh
Montreal
BALTIMORE
Madrid
Forest
Cambridge
Lebanon
Luxembourg
Munich
PITTSBURGH
Ottawa
Bridge
Liege
Havre
Portsmouth
MANCHESTER
DIEGO
Bistrita
Queensland
Larnaca
Freiburg
Bulgaria
Taipei
Kabul
Germany
HOUSTON
Pittsburgh
Dhaka
Hampshire
Liberia
Hungary
SAN
Israel
Formula
Greens
nextNameTag=B-ORG
Avonex
Arabs
Airbus
BSE
Malaysian
Moslems
Lankans
Italian
Serb
Serbs
Belgian
Canadian
Brazilian
CUP
Argentine
Classic
Croatian
Korean
Prize
Americans
DEM
A$
Moslem
C$
Celsius
Dm
Iraqis
Olympics
US$
Day
Turkish
Swedish
al
et
Dow
KOREAN
Republicans
Kurds
Austrian
Impreza
Cuban
Albanian
Lankan
Taleban
Medicare
Chechen
Olympic
GMT
Syrian
GTR
Toshiba
Maoist
ADRs
Portuguese
Prix
Helibor
Championships
HK$
Spanish
AMERICAN
U.S.-led
BELGIAN
TOSHIBA
CLASSIC
post-Soviet
Israel-PLO
PRIX
Greek
Angolan
Slam
Algerian
Norwegian
Kurd
Escort
Celica
Tour
Java
OPEN
Nigerian
Nobel
Serbian
Frenchman
EASTERN
Bulgarian
Bosnians
TOUR
CANADIAN
Euro
GERMAN
Spaniard
Burmese
DUTCH
Tibetan
Africans
Palestinians
CENTRAL
Betaseron
NETHERLANDS
Kadian
LAKES
Nikkei
Israeli
ENGLISH
Yugoslav
Moroccan
Nazi
Islamists
Egyptian
Slovak
FRENCH
EUROPEAN
English
Chechens
Danish
Regulation
Tamils
Lakes
HAMLET
Hungarian
Afghan
British-based
Nasdaq
SCOTTISH
Russians
MAJOR
Islamist
Sudanese
Scottish
Swede
Bundesliga
Eco-Challenge
Israeli-PLO
Mission
CAC-40
Briton
Nicaraguan
Ivorian
Lancer
ITALIAN
Chinese
Colombian
Edouard
Ai
Windows
Millns
Rene
Hill
Bill
Brady
Lewis
Jones
Singer
S.
Hall
Poland
Davis
Roman
Morinville
Sri
Iranian
USA
Gulf
BRUSSELS
Newbury
WESTERN
Pakistani
Republic
Netherlands
Africa
Soviet
Brussels
Switzerland
Hutu
Cup
Jewish
Rwandan
COUNTY
Freeman
Gerhard
Anwar
Ekeus
Gary
Johansson
Brandes
Wiesner
Richard
Giovanni
Bourlet
Ali
Ezinwa
Amr
Roe
Bossi
Ann
Iliescu
Boutros
Fischler
Sven
Nicolas
Whittall
Rui
Nilis
Stefan
Dennis
Maskhadov
Ruutel
Habsudova
Danny
Steffi
Luehrs
Bobby
Knup
Francesco
Javier
Villeneuve
Sam
Voinea
Oscar
Gustafsson
Pedro
der
Simon
Angel
Federico
Lennart
Nestor
Kenneth
Darren
Johnny
Brooke
Conte
Stewart
Rosset
Mutola
Ferrigato
Fairbrother
Peter
Bob
Magnus
Kohl
Lamm
Sergi
Anderson
Wang
Oncins
Gujral
Dalglish
Woodforde
Dimitris
Kennedy
Bruguera
Evert
Rosati
Smith
Christie
Younis
Cal
Frederic
Rifkind
Gephardt
Chen
A.
Moura
Cea
B.
Malik
Andreas
C.
Svetlana
Soren
D.
Rabbani
Tim
Tauziat
Eefje
De
G.
Montgomerie
Larry
Asif
I.
Ijaz
J.
Tom
Natalia
K.
Markov
M.
Graham
Stefano
Corser
N.
Meri
Abdul
P.
Goosen
Fleurian
R.
Sharpe
Alami
Flemming
Grobbelaar
Sainz
Scott
Sharif
V.
Makinen
Fred
Alain
Oliver
Michelle
Boardman
Kaluwitharana
Raphael
Richey
Jonathan
Schumacher
Fredericks
Nick
Netanyahu
Chiate
Anthony
Masood
Daschle
Eales
Ruth
Magdalena
Huber
Mayfair
Kafelnikov
Eddie
Miller
Azharuddin
Frankie
Karina
Koerts
Woosnam
James
Inzamam-ul-Haq
Shah
Waqar
Wilson
Bonilla
Salisbury
Gajdos
Medvedev
Ronaldo
Demel
Dubnicoff
Faure
Julian
Natalya
Stephanie
Saddam
Roger
Chamorro
Abdul-Karim
Lawrie
Blakey
Pires
MaliVai
Kuchma
Kevin
Akram
Maleeva
Costas
Els
Luis
Lomas
John
Lupu
Sorensen
Charles
Lauck
Fogarty
Lanusse
Hidemichi
Brown
Broadhurst
Stephen
Moxon
Olsza
Guzman
Takemura
Arnold
Heinz-Harald
Patrick
Witschge
Tomas
Akbel
Korda
Foe
Veldman
Mubarak
Weld
Grant
Barrichello
Pantic
Davies
Antonio
Wasim
Levy
Ponting
Eduardo
Reneberg
Stenning
Sandrine
Eric
Hoddle
Tommy
Erik
Tommi
Michel
Kontogiannis
Vicario
Hussain
Lindsay
Hassan
Joyce
Johan
Thiel
Corey
Atherton
Vladimir
Ryutaro
Yevgeny
Jacques
Mike
Mika
Paul
Nicole
Mind
Henman
God
Simpson
Jackson
Jarmo
Wouden
O'Brien
Conchita
Guy
Clayton
Palmer
Julie
Weaver
Irina
Ranatunga
Neumann
Joseph
Edgar
Haj
Hal
Patricia
Alesi
Volkova
Tortelli
Reiffel
Ferreira
Thorpe
Sidhu
Greer
Fowler
Kubo
Shane
Warner
Arantxa
Jack
Flower
Raichev
Olivier
Carter
Waugh
Ronald
Todd
Knight
Alexander
Klinsmann
Leonard
Kotlarska
Jana
Jane
Jans
Tony
Moyer
Edberg
Ballanger
Clinton
David
Cedric
Salim
Ulihrach
Coetzer
Reagan
Ian
Rios
Terry
Panis
Jayasuriya
Juergen
Mushtaq
Ripken
Zhirinovsky
Michael
Waldorf
Bhutto
Woodbridge
Laurence
al-Kabariti
Teresa
Riley
O'Neal
Gavin
Teutenberg
Mikael
Tatyana
Frentzen
Botham
Hingis
Drew
Cocu
Museeuw
Miltiadis
Ata-ur-Rehman
Norman
Liam
Barry
Damm
Colonna
Jim
Bohdan
Jonzon
Gooch
Talabani
Hicham
Armstrong
Slight
Antoine
Jon
Derek
Rodriguez
Adrian
Aslan
Cork
Fernandez
Lebed
Yeltsin
Dave
Laurent
Martina
Jason
Rubens
Marchal
Lopez
Novotna
Chang
Mohamed
Crohn
Bruno
Adams
Croft
Owens
Gianluca
Chris
Walker
Coulthard
Masterkova
Giles
Majoli
Sanchez
Newcombe
Hussein
Russell
Ken
Bernard
Chernomyrdin
Marco
Mitchell
Davenport
Carlsen
Mario
Muster
Kim
Tendulkar
Willie
Linhart
Yasser
Pete
Steve
Petr
Martinez
Juha
Yassin
Justin
Ahmed
Banisadr
Hogg
Machado
Benjamin
Batistuta
Tang
Troy
Juppe
Jimmy
Hope
O'Neill
Specter
Akam
Lee
Sosa
Fine
Prescott
Andersson
Lambrecks
Sarah
Martin
Brunswijk
Mokhoff
Jean
Glyn
Smicer
Francis
Naoko
Retief
Hatoyama
Pollock
Kelly
Jeff
Hakkinen
Hekmatyar
Ludmila
Tillstrom
Bailey
Dekker
Eriksson
Wayne
Jens
Marcus
Kytolehto
Talbott
Fulton
Simitis
Kwasniewski
Rangarajan
Capiot
Rohrabacher
Ivanisevic
Enqvist
Judith
Gilbert
Stevanin
Anders
Jean-Paul
Alan
Brundle
Boer
Alex
Mia
Alec
Moin
Gronholm
Thomas
Erbakan
Seles
Billy
Donovan
Carl
Penrose
McEwen
Mohammed
Streak
Vaughan
Berasategui
Arafat
Mohammad
Helmer
Daniel
Skandalidis
Phan
Ischinger
Cozma
Sergei
Kocinski
Ferguson
Campbell
Dean
Kornblum
Necmettin
Karol
Diana
Nixon
Howard
Phil
Clarence
Stricker
Ducruet
Moore
Bernd
Craig
Philippoussis
Ames
Kankkunen
Prasad
Tsang
Allen
Weinstein
Andrei
Andrea
Garrity
Christophe
Headley
Marcelo
Dharmasena
Andrew
Allan
Kenny
Haas
Nathalie
Hasina
Takeda
Haga
Michele
Samper
Brian
Toure
Goydos
Stich
Rolf
Weizman
Tutu
Henry
Mujtaba
Sary
Gore
Rose
Elena
Rashid
Albert
Andy
Aamir
Frowick
Goran
Mullally
Chapman
Ibrahim
Kevorkian
Anke
Aleksandra
Jesse
Garang
Thompson
Palkhivala
Amanda
Anne
Berger
Melissa
Rubin
Karim
Ieng
Testud
Odnosum
Ciller
Kucera
Rocca
Zvereva
Fernando
Pat
Brad
Perry
Pinas
Silva
Yihye
Tarango
Vacek
Monica
Rafter
Dostum
Carling
Costantino
Pyman
Gough
Strang
Anton
Saeed
Pol
Aoki
Basuki
Pot
Krajicek
Banharn
Loko
Shimon
Stoltenberg
Duffy
Crawley
Marc
Mark
Mary
Sandra
Tapie
Mats
Stallone
Popov
Healy
Linford
Kimiko
Muralitharan
Cyprien
Raymond
Irani
Moreau
Ozers
Moada
Jiri
Hendrix
Yoshikawa
Terence
Stephane
Gastel
Buffett
Gilbertson
Vyacheslav
Blind
Robinson
Jorge
Neil
Gabriel
Zinzan
Colin
Dutroux
Courtois
Hashimoto
Frank
Alberto
Franz
Heeswijk
Herbert
Andre
Reeve
Bertram
Graf
Boris
Kabariti
McCurry
Damon
Greg
Bedie
Gatera
Peres
Pioline
Perot
Milosevic
Collinelli
Agassi
Sampras
Roberto
Mickelson
Sohail
Lance
Gibbs
Dick
McGrath
Abu
Ben
Florence
Allenby
Mo
Wells
Matthew
Nelson
Virginia
Jose
Hospital
Barbara
Turner
Kingdom
Christopher
Island
Kan
William
Maria
Juan
Little
Khan
N.J.
Colombo
Field
Roosevelt
Carlos
Wolf
SEA
Kremlin
TOKYO
Afghanistan
Morocco
Estonia
Gaza
SRI
BEIJING
DELHI
AMSTERDAM
Sweden
Wisconsin
MADRID
Kuwait
Albania
Serbia
WARSAW
AUSTRALIA
U.S
Orvieto
Norway
Argentina
Congo
BUENOS
Azerbaijan
Mahala
Chile
Belgium
UAE
Kashmir
KUALA
Vaduz
DUBLIN
Slovakia
WELLINGTON
Stansted
Worcester
LONDON
Guinea
Delhi
Malta
COMMACK
Algiers
Abuja
FRANKFURT
COLOMBO
Eritrea
Bosnia
MELBOURNE
Ocean
Nairobi
ENGLAND
BANGKOK
CAIRO
ANKARA
ATHENS
Mauritius
Dayton
Tehran
Reef
AKRON
CARLSBAD
Chechnya
Gatwick
SARAJEVO
Sakai
ZIMBABWE
Trinidad
Wellington
PAKISTAN
Tirana
Riyadh
GENEVA
LUMPUR
Namibia
Ukraine
Jamaica
VIENNA
Ethiopia
JYVASKYLA
Baghdad
Korea
Cairo
Trent
Trafford
JOSE
Sarajevo
Bogra
Neths
Turkey
Islamabad
BAGHDAD
Midwest
Geneva
STANSTED
Headingley
Kosovo
Cambodia
Syria
Mideast
SOFIA
Rica
Togo
TALLINN
HELSINKI
PRETORIA
Gabon
Yugoslavia
Town
LAGOS
Romania
TIRANA
Corsica
MEXICO
Seychelles
Ramallah
AIRES
Benin
AMMAN
DUBAI
Slovenia
Moldova
Croatia
Calcutta
Surabaya
Mozambique
Berlin
Lithuania
PARIS
BOGOTA
Salang
Burundi
Iraq
Grozny
Peru
Senegal
Ecuador
Tibet
Bangkok
Damascus
Bahamas
Amman
Malawi
ZEALAND
SEOUL
Thailand
WASHINGTON
Lahore
Denmark
Vatican
Johannesburg
SYDNEY
Italy
Caribbean
BRASILIA
Leduc
NORTHAMPTON
Bonn
Angola
BERLIN
BELGRADE
MOSCOW
BOMBAY
Belarus
Libya
Oval
H.K.
LANKA
BUCHAREST
Nicaragua
Wales
Doboj
BONN
JAKARTA
Zvornik
nextNameTag=B-LOC
GLASGOW
Rome
INDIA
Khartoum
DHAKA
Uganda
Zaire
Jersey
Karak
Russia
MANILA
Cuba
ROME
Heathrow
Lanka
JOHANNESBURG
Prairies
Arabia
KATHMANDU
Budapest
LISBON
MIAMI
BUDAPEST
Kenya
Malaysia
Scotland
Ohio
Portugal
Latvia
Beijing
Kandahar
Britain
Yemen
STUTTGART
SHANGHAI
SINGAPORE
Calif.
Egypt
Guerrero
MT
SPD
preNameTag=B-ORG
FDP
PDS
0.4545672558704531
0.5493474376885216
0.5608537106791514
0.47953307555565866
0.5702457448162588
1.5968932418375288
0.8765457193854623
0.432112292981486
0.4822319625055752
1.2108705796340185
0.34411298025209364
0.7736594373894807
1.7124079215028183
0.3446882887701841
0.29845772200078674
0.28817896847613494
0.3304073659554349
0.7554944080768702
0.3500846617001857
0.3227428274383503
0.33109904827450715
0.3294987479606829
0.3264172677643823
0.3751578881010208
1.1029665054306417
0.425323907796179
2.6243861013367966
0.64620114034383
2.82557212811856
2.9767810437059254
0.41337260144919996
3.9890426671707693
3.8311492271820033
3.478777142979364
0.6592507508588626
0.7456916877010685
0.6213834360447525
0.6465899200669908
0.471135124607189
0.6046825155483216
0.5895411521331881
0.9617864409550644
4.374636513918854
3.0547790261544696
0.5919688226036794
0.35740163482946735
0.6081515114164256
0.8994560052751626
0.5461877073948396
0.5685664230523118
0.3510721951134967
0.3193730949571414
0.5118514694840821
0.5751736823123142
0.6438956038175149
0.4652672014214468
0.9651237220737168
0.8513126679334712
0.4358001098326555
0.41602421105500953
0.48365742270081197
3.107656452045491
0.46913494756145685
0.49060644112965174
0.8835806039110722
0.4430638153878616
0.3499876837782786
0.8387253909917053
0.7605145584481836
0.3637644270939709
1.7809713419190134
2.4858278850697864
0.29534593545336585
1.2184599890208878
0.3360280300009472
0.7928373322284508
0.6725030243082519
0.4591485123954487
0.8267245138496137
0.5214262998107331
0.4994932825981204
0.7262183277790345
0.4251428658946016
0.7302593533213559
0.4803453161220018
0.571009652485935
0.49751895501070015
0.5790236691048581
0.390661418502517
0.6362372532385464
0.5691462317569331
0.5901005701759756
0.3965626796739733
0.5789620553386071
0.5526611246131432
0.4416380273368655
0.5335518367091864
0.6055847217232999
0.5178291311466022
0.3546267947550103
0.4513946838512602
0.5450835240029178
0.8344936049596755
0.331523394838544
0.6572003100098667
0.3274031905697607
0.6422727551375649
0.5108441325821096
0.31072852860225686
0.4930956432045818
0.5105766703187669
0.48342854137768904
0.30597877954666364
2.770135209740329
0.30524021509144394
0.3445645412203144
0.3170691374916983
0.4817832780792522
0.43980159132658764
0.5422847034090668
0.4558801701366373
0.462528634601888
0.5098985865758864
0.3319645205891837
0.45766555255915214
0.3238689281758993
0.5362122242611655
0.4501810685143898
0.6731101387957151
0.531050051771071
0.34154285978167853
0.9658421556109322
0.5078353003988482
0.7110479039877525
0.4670759546202936
0.44687582036975404
0.4519871049097844
0.5841393983669364
0.5075255722090369
0.29733520711235634
0.4660602637865622
1.1568913981618283
0.43664497751400694
0.32631133879720475
0.7995335280058002
0.4398688287437562
0.4017920037018806
0.4834776272415394
0.5468072766719921
1.9488333414846477
0.5858035503639669
0.5367823985174721
0.5056338292481568
0.3962192049124543
0.5534481772850071
0.479222154591158
0.5545867662150018
0.8728995108828791
0.4541238483437606
0.4782239004540466
0.6543264846412769
0.40835602465859466
0.3223927487806105
0.3146993354462465
0.48610800437428003
0.46095474109523465
0.47721467169158643
0.40385160734323283
0.3234830032032031
0.553210538955442
0.3257888788745249
0.37678517653489974
0.4052361739072364
0.7158148443401667
0.5061077803525453
0.4631306884434793
1.05640003822245
0.5226876946771387
0.33841395668260543
0.4859386755518084
0.608408287105404
0.4922239819039696
0.43547739052577167
0.4566910744861684
0.5744936071162352
0.6687482719039073
0.9676336124146202
4.037068581949068
0.31367268940789605
1.3813483515009901
0.4772634791181364
0.5091138501869901
0.6996285996296547
0.4925184875874665
0.4952627366850245
1.1749853226403244
0.4121036048817648
0.6428872247757195
0.2994532659256959
0.4996438703413941
1.3135610287267683
0.47797943944948273
0.5719087590418295
0.4938395213849738
1.029775679693787
0.4033745784122594
0.5479499820260603
0.538223821451999
0.7099984959121554
0.7321539926194798
0.5542516468840689
0.7276777554892891
0.6881668792134794
0.4165992771537283
0.8277671875365616
0.46259778947189956
0.47651424641797857
0.5760583676117328
0.45416887662886796
0.8442378408524602
0.6575110762842836
0.9097057291710013
0.6589072388400804
0.39212514530225145
0.8895841744537802
0.5550845641584892
0.39797602160969253
0.5419625899485612
0.4721138009363802
0.489194414441825
0.4775895627486848
0.4026007771533479
0.386583265502289
0.5692280019381144
0.5419833874404159
0.9131398280308808
0.8541867745994137
3.4425044929677764
0.42556220086815233
0.3451091079035417
0.3088828462704775
0.6226856210580411
0.5007504243565029
0.4405937483339019
0.8950874464756384
0.49007713951437065
0.30637184855712896
0.29733520711235656
0.8368563261880508
0.381914424773811
0.5154695784036106
0.48348641690596506
0.5473175028289661
0.3545940041549036
0.43328227415087284
0.5143626986311924
0.48355350365629585
0.37123510406029436
0.4294341171736574
0.7448593109743444
0.5648303676645382
0.48313978399473684
4.374636513918854
0.8424530419871106
0.4601970059302804
0.46567861301729513
0.4798110635901323
0.8898010137645322
0.6672333709299564
0.4903217515965036
0.4586779521187365
0.42689857614589594
5.972517513882346
0.4467171243181726
0.5229379335424233
0.5485257542786031
0.8909711661575753
0.638973829489359
0.7202863737077561
0.6539811109897112
0.4854871183242851
0.7742766443002705
0.6856523682717165
1.136479310158355
0.29830109911677366
0.44976387938261625
0.46210939781825966
0.6445504340767138
1.2048350015374716
0.4675228620264164
0.7435065303188425
1.1610661442537393
0.551696368034084
0.564987687825358
0.5447390984681997
0.5412719215545436
0.5618122027907083
2.4127320586950707
0.5538936729683382
0.6231545994029357
0.34700252043878616
0.30849776458848727
0.4960460117252975
0.9739331352234065
0.4504213647925755
0.40562695307488383
0.48543369974533945
0.4712454783643939
0.29798391464916885
0.667586642019386
1.421200136318984
0.9278415566504974
3.810853377507833
0.4744597089857422
0.37975047299321496
0.6153712716254139
0.4821651056314819
0.4746225033180432
0.8226741207606635
0.39872820087920624
0.5041929473700208
0.6013093756098216
1.1014534386458428
0.6689965846064005
0.47608915732421403
0.5257583320343466
0.832927618663482
0.44462625339224915
0.5567065217673276
0.4352331709746044
0.45570463563876995
0.8700498019235705
0.41611483562237445
0.379417540284588
0.7790428812771983
0.7335347625897588
0.49701268933378673
0.3239200102350191
0.4183926335593182
0.32130424159296816
3.5260824060795533
0.5079382537284871
0.2975392131560607
0.4313245912559228
0.5047253822629026
1.6515300020859343
0.5370424841809442
0.3146193237750391
0.5604628473053322
0.4840100974909265
0.588192950260393
0.4448262853314866
0.45444080137099374
0.7623120365118831
0.6355968943062198
0.6594817679937255
0.33161307652156535
0.46206964248220744
0.30947399654924296
0.2901761536265822
0.4113572666869233
0.30897711180119997
0.43710080677120533
0.8486980473442881
0.5646866017762381
4.187761467291899
0.48506272571553777
0.5240146261369744
0.6712981775553519
0.5029140485505494
0.3156629465154727
0.48482936706974816
0.5504051688777237
0.5910161950076925
0.3189999641726173
0.7511112301793798
3.2444881286782357
0.35063078859471647
3.05497636523299
3.6150891078969147
0.3273734512193032
0.3148280726427352
0.4381817757556511
0.7077031248896374
1.05563804975629
0.3648106563421054
0.5255153020442691
0.503018083417804
0.4620980365187217
0.894555952888037
1.7806600721480317
0.4533717405597839
0.7178350127251748
0.3721622426200147
0.44265082421240587
0.453998025533669
0.3114880306932882
0.34048522576201873
0.29922003823014803
0.5521305543171947
0.46591885060869864
0.5000111354785769
0.41944740548928605
0.37188316372132674
0.3998537277351444
4.92024090456973
0.6374892563726475
0.4608645176414446
0.7049067109340141
0.46277111045621916
0.3132428125403762
0.7814791187517311
0.3164610634121671
0.5493229909186643
0.40319136308386383
0.5347763255547696
0.5122137175296438
0.3522322255556549
0.53163395009364
0.3272791167475222
0.4409042124170909
0.3301550104645093
0.3244226989792435
0.31484348109154353
0.3164284132539623
0.3348402353345213
0.3150657379289687
0.31582980579066233
0.7786219159090958
0.9332883440196532
0.5315152998109898
0.8774289707155073
0.29377109235578075
3.252022353799176
0.32156933925427006
0.3287046389367429
0.32307858435602366
0.3223672880771137
0.32265572428997535
0.3219464722879069
0.3197437434425427
0.4421179538080933
0.31369313149859773
0.3184952528226962
0.31767091684980625
0.5372433585980644
0.86749732911311
4.064939727124842
0.3319138271256802
0.5296174033401501
0.4904645675439337
0.306797285787594
0.545603889477762
0.3093917518185508
0.30622407673406815
0.3107245712984283
0.33331554724458234
0.3136177277446832
0.5146661693099714
0.34119310559961036
0.31243592932703124
0.8932200441169817
0.37373320026628665
0.8845332018891101
0.38113127105186484
0.7523362005516468
0.537347136311447
0.31210682458032774
0.4467930253126871
0.49983550042596275
0.3549347669856558
0.3138919009285867
0.31363094525372914
0.3357764764162462
0.3289749229038037
0.3092469209235552
0.32711321445676
0.34627633744700054
0.31383943976067114
0.5256608480800614
0.5090055738785029
0.3143627958477951
0.305068757324972
0.32806617640655095
0.4711721118211747
0.8667563746961184
0.312610540616575
1.4737603592729585
0.30637184855712835
2.826964945094527
0.31796081631400624
0.30797998100209845
0.407985973051588
0.31529200735105645
0.3165818625105421
0.31781775482341834
0.5461122881238537
0.3280490405406998
0.5387538731269126
0.31389466652197767
0.3210969263461632
0.33106262908473166
3.819732646999735
0.6460498659513284
0.48454774940777157
3.9046713661861783
0.4750621770333183
0.45542409467059813
0.6386639265763393
0.42480642019644566
0.40506432435527634
0.5781195240267932
0.9325577991068672
2.654346386131951
0.3119402874950287
0.3137671569331854
0.31880420472739923
0.33803795852358776
0.3553237011113221
0.3212464481259772
0.34298690370672785
0.3277633786824535
0.3228053692310905
3.6686978776422245
0.32401974822777596
3.812998641114937
0.43272700607604336
0.8667003313180982
0.49923086151780455
0.45903922673699626
0.9678374032142096
0.4691009504447569
2.532564319161085
0.5943160224126387
1.0639622795957517
0.3257726031425761
0.3249980292413811
0.3226229780122502
0.32027007819396125
0.33663003101878225
0.31483595932339764
0.3253077953317929
0.34305398820864597
0.35340181336297366
0.569067052582825
0.467170675126711
1.0972991721712357
0.6610707111615672
3.115119798512436
0.3313794283584283
0.4441285291821577
0.319309117691332
0.520343232243721
0.5276721914766759
0.32794718236616166
0.3240483544501169
0.4241602132725789
0.3165036697459895
0.5009193869058761
0.3280723580655205
0.38980823516812874
0.45946163900222525
0.3143936811790832
0.326582513774612
0.48965557426066963
0.5931731912908119
0.4939717276446279
0.5910843606783939
0.3558248709691841
0.7488353949291382
0.3075181438904328
0.33564449578224126
0.71620247704729
0.316906928945867
1.2804641001018695
0.5901838085130853
0.5598714022668684
0.4838747332849234
0.744885101824177
0.5888955483919004
0.4368139430102045
1.0844636520190283
0.45469120516604583
1.0835446779879048
0.5612154899332811
0.8254609436672206
0.28671194691312113
0.5212621062481537
0.4826822492158805
0.8824549187662319
0.9107235474200829
0.5170981966764763
0.45570635340487403
0.5609818067722745
0.8923043639412895
2.971098701069415
0.44177802012656997
2.9349815710384153
0.4802801981088535
0.303101926115267
0.47123542267266244
1.6025561022188672
0.5053351963920233
0.5958683865887535
0.4926099325350662
0.5998890683901801
0.3406461827443922
0.74608925753892
0.334791835376267
3.4792751876774313
0.5012749885285687
0.8861652412706026
0.49728567473723884
0.47594772484462783
0.5270707817665558
0.6767662934534435
0.49030221537254665
0.714436032849372
3.1761167618490176
0.4732648073747521
0.3973895549545185
0.5739142755963039
0.502293601216329
0.7763026211789957
0.4085119845792503
0.4519245177463922
0.5124262233391026
0.43858755813526595
0.39966630680117343
0.49713601301464966
0.4315361540218596
0.5453405029716353
0.5268264367980364
0.5197815383644925
0.48252513760005106
0.4010670362816307
0.5757747191036338
1.79359728385035
0.4617103187693309
1.0621646676422178
0.6859309832460572
0.481350843438123
3.796543011550848
0.7339928993151777
0.6458524353060925
0.5547239254364806
3.9477564389502993
0.5162028034160923
0.37746630612480886
0.5143394299515041
3.706681986980789
0.7414155578234748
0.7736330608541678
0.51127161632491
0.5490136748289162
3.535892921652647
0.518369565775719
0.4752231329658956
0.95438816380889
0.7928259704046885
0.4992711089101828
0.5268054659689523
0.4907193124210189
0.6727261011674582
0.5083925472727479
0.5152261827957922
0.6693382541270203
0.5061394708354637
0.5507527293925001
0.46239766273912386
0.8397838041396094
0.4068860563000056
0.9207877373068588
0.7734273025564304
0.9383823585330195
1.115639196965334
0.600339423663035
0.36038257746483016
0.47642474106228544
0.8276271973412659
0.2885222460401808
0.6297737584561452
0.44607342360367613
0.6118399923684762
3.645538889970493
0.745710244368312
0.45022672885459714
1.037232706696012
0.48609598614786004
0.8657728485346177
3.025052657250163
0.9215735507658559
0.48884858226242306
0.33694368552428894
0.4905921146346232
0.44694129730267357
0.3013087122304206
0.6157414760997582
0.7143039844647769
0.5927953073909067
0.5125299518706226
3.790478622966834
0.4866434354972863
0.4057327701234239
0.565636524279963
0.6127710977158963
0.6299697832082419
0.47031846169598945
0.8950680127200885
1.176171618444135
0.3949343012047717
0.5032553083781703
2.5074045398562186
0.3109445277679304
1.4079019428444082
0.8064135336498988
4.603568531838309
0.48808282258400115
0.5411982734749707
0.5924749514181608
1.1479696216427977
0.5652757082328587
0.4504799434160339
0.33398927642660453
0.5294898165995853
0.47930296689701435
0.5562951368713771
2.109258231542015
0.5492801339643956
0.6148952201434505
2.4303091988312024
0.8860615226048276
3.05387599361252
0.48829774354135924
0.46256132651299064
0.5279904504106435
0.3833591861760816
0.5300092553239074
0.39701387712738556
0.6899078922066505
1.5015977085254741
3.904936116605294
0.42463086805955014
0.6085774529151756
0.951890466585903
1.2023258387227918
2.19950166078093
0.5194790072546391
0.3830151721937742
0.418395242763679
1.2075047875296432
0.5533399278627562
0.46760078380243164
0.5269746887230707
0.43603169163322325
0.42054724968428686
0.49278402746058003
2.650443696227311
0.5383563820776243
0.5712469643486481
0.9528147432503563
2.7624479056262463
0.46436679825803395
0.5702457448162588
0.5789584175174224
0.665587844701174
0.5850975489470873
0.6405337243666402
0.5126499050154795
0.47351967003907963
0.6181002908772071
0.4116484757480288
0.7494115205554761
0.4142122591133073
0.47147008930376016
0.3552854423748104
0.5260989202026255
0.4636208366204534
0.44297978502390345
1.0855153918355622
0.6004423072372888
0.658069658338744
0.45785293827933954
0.5013374060710861
0.54819332670011
0.8797844100786304
1.3037781947857374
0.5615728065427695
0.522174713571309
0.724919493435698
0.5878488303277168
0.3126222638880364
0.5748975695384512
1.1066994611081982
1.0572093378214296
0.5038444076659345
0.8829507747598502
0.9168090896676186
0.8958063354466973
0.9257112252518254
0.4749355576167205
3.2271058864927533
0.4442473391015824
0.6831413360613061
3.8386489443569674
0.4180220676664227
0.9247246565053099
0.8101569413520413
0.8386381915817733
0.4343447326062013
0.4239223418902069
0.4704679726122468
0.3354949327864406
0.47981399479947034
0.6307954716120587
0.578420701406676
0.30556556298714793
0.9452488494613694
0.47390637793768214
0.8103772943072995
0.3941026697394315
0.484242303206067
0.4743180159822419
0.624642733336027
0.3007708960165891
0.435028804423807
0.7763803915779912
0.4229374254988016
0.939389580156464
0.7114722709801503
0.4601491527910584
0.5766955732274136
0.6228207422217098
0.5140138026876154
0.7105107670038054
0.46095646198132906
0.62382455352258
0.4723552676799882
0.6712855457667525
0.4523192519183513
4.468221401619148
0.4527446039673496
0.47614777159935173
2.8200228105679326
1.0072720585075157
0.4674929586533103
0.6289174794315588
1.1828017594702507
0.4991576382979945
0.5903443861372631
0.813380442820168
0.5630012488786934
0.4843293838197838
0.6879940129262757
0.39712648063992895
0.5331031354206509
0.3922228366564126
0.5763582444924868
0.601736988019114
0.8155743007502697
0.986457126679086
0.3694928123531424
0.7726793451250595
0.5405465847663317
0.8576316274424344
0.4373492470300016
0.5636656906886699
0.3286567002913228
2.680950818032111
0.9985944055554338
0.823948438441331
0.4594646973365674
0.5728957677648004
0.4118467499058515
0.4909108881334983
2.4044011593708077
0.35767613565202705
0.2847128684792353
0.4050610589953493
0.44899411721263066
0.5942428359098223
0.7636944964453739
0.5316822752037971
1.1100988836070549
0.44374730230508286
1.5395694403306082
0.5453492964734212
0.4890965507690127
0.9286627072497048
0.6873650290813301
0.5013412517350705
0.5983947299406687
0.4644473091502806
0.5335226810155204
0.5363149797452195
0.593927628342587
3.8416824865229873
0.5068726464240859
0.8147261864771869
0.5388312908190611
0.8824393442595304
0.8735361991777076
1.214700706481882
0.38576160783753194
0.4472306292801779
0.36767156925499056
0.400742149821482
1.247820276475367
0.46232280774614865
0.6364358280096059
0.5501696070082601
0.4450078161713936
0.5087125359768256
0.5049711811602849
0.3990127537866521
1.3292113645282682
0.7730373176275066
0.6839137131268175
0.3462988570046192
1.2898162693598731
0.3846789587375468
0.7549878800859867
0.47351249419665187
0.6028316278741742
0.6862029741595296
0.5008193452636659
0.769734851540661
0.702527592023071
0.4938503729414234
0.3404877520264971
0.456507652166381
1.0597942097402335
0.4610187781459708
0.641409515556196
0.5933107510570892
0.5113076882519471
1.1026746694108291
0.4626806982134297
0.5053064932237319
0.6904648048049813
0.47071281542771437
0.5091597528966226
0.5010632046233564
0.49667240972832005
0.43924740800673473
0.4633277117268508
1.1681736703307188
0.5284900480695433
0.7593883250448062
0.4465973694292294
2.860816102078857
0.42713810965077625
0.5776599980401738
0.929253837347818
0.32452202270989944
0.40268683849511355
0.4236354602811584
0.7322953459208668
0.42758345329256764
0.6928096289206747
0.41413438553809895
0.33895740685202974
0.46162994589155026
2.0459761714092406
0.32361598857475876
0.5421774141455705
0.47143340506387976
0.592654103235365
0.45758614446166124
0.8721481907541014
0.4824305437357471
0.3078329992955229
0.8650793488380023
0.6517039665839749
0.7242191252053771
0.432059982171279
0.3219532329630453
0.30637184855712707
0.8939178805121324
0.7064262529274513
0.8083198221755608
3.668993254527268
0.5329618473655147
0.4936297861840165
0.3150995054573344
0.5034219138559678
0.39705243325073364
0.45564568490199125
0.7768509043227391
0.5621158618381349
0.800908452626778
0.5027199716827244
0.4703335169476123
0.3318943797602544
0.41748328765107884
3.9009066679722197
0.4996220013989937
0.513055038034025
0.5056387257370337
0.9748313802577264
0.77084452954547
0.47578512944474555
0.2727458917321539
0.5305007798113496
0.415806056597177
0.3063718485571277
0.699403735863919
0.4171334199335674
0.9614906876824262
0.48809785856701077
0.5133862915567284
0.9325040819306732
0.4283518508955604
0.7173381134173561
0.507980172545521
0.30637184855712835
0.4347502423545307
0.6334048510403655
0.4521033777043329
0.6490083262316949
0.6764815175186806
0.374219882782996
0.6076275901251847
0.7188533470575086
0.4156314861914752
0.5122052959546863
0.5056001410542424
0.4445992710085325
0.8984564721000843
0.3588789764077081
0.5177664068633063
0.47017200240236096
0.5426731371847394
0.6799189682534296
0.5314763230409223
0.49419411161034205
0.45141090072927326
0.47078620162420637
0.6313926628106036
0.5218199751933258
0.5577807283683635
0.5478695654659659
0.5375271923731293
0.4591091596826624
0.6718079313740912
0.6137945033197578
0.44011039149455305
3.6549775396917337
0.6896823897884145
0.6749801726890289
0.30637184855712835
4.643759384232831
0.5645996063855975
0.4107253854632862
1.040932280486953
3.1443111805904835
0.7436069948930873
0.4248875701284947
0.5821119929501064
0.7752073861000838
0.4468615472470031
0.48742585792871235
1.796937420791754
0.32879895222831057
0.4794516762826559
0.586320329722875
0.6090898221306993
0.5865492505193691
0.5436446905614901
0.5526992684312951
0.5262637697746503
0.41557650980688354
0.5805181372434423
0.7159796691733067
0.4029945487895341
0.49674355998140085
0.45744010422448617
0.8446611811665736
0.5948512239883014
1.5066698808250973
0.4307038262168189
0.5232378084580219
0.935088465411907
0.6310508696411268
0.8972616177215367
0.9077954538590126
0.48152715729938983
0.5463371197510909
0.5138713883458937
0.8781420307688279
1.043398341850822
0.8425581614516763
0.4800407801585065
0.5251697787195378
0.7426828524963937
0.4434860028748542
0.9757496237047105
0.6465539796092579
0.8708349114265307
0.5709004656976009
0.434037558322085
0.9200674557905086
0.3414259755467939
0.9429861116428657
0.8905283336373202
1.0113691752187144
0.5269245324701256
0.7214546007147443
0.5409275608988707
0.5737293193251737
0.6132831141393061
1.2496082032998805
0.3910684188179004
0.3321460547096722
0.6751208873704578
0.44048373175525535
3.340025455246433
0.595232569232759
0.8223856978519039
0.4562292362510344
0.4407674396096522
0.5098162047082947
0.9427911192796203
0.9433232939855201
0.4327054126793496
0.4215841136574793
0.4732902827572823
0.7312586476789
0.5364975925503342
0.6205123077219745
3.1255625869446737
0.39340896864558794
0.5569526579107066
0.2887478871409426
0.44907560521331386
0.9745664618872794
1.1814232675794907
0.5049581500954329
0.5135413506316829
0.4655561141227088
0.5446502942389789
0.4771315862094426
0.4963796029564968
0.5379478620480711
0.8994473803349957
0.552926119020879
0.7046345923458296
0.6724785715477823
0.4777495967795868
0.6072861354677599
0.5058410796207249
0.5645365211368751
0.46697241217010393
0.5297909303535235
0.41146004162977534
0.4713032578685581
0.5262386405745971
0.5370099904238644
0.3969924770716659
0.7617990784347529
0.38383646049396974
0.4125257226396669
0.6647888555511344
0.657276267081981
0.7800821325199879
3.338199273161095
0.5242241930236143
0.5864747562482273
3.2427415326524573
4.655294284977379
0.4440687393864792
0.8626117434259983
5.320652846559875
0.37456041491559733
0.4814258431202766
0.5922031039417908
3.0714065783421787
0.3808313887380671
0.66175613753974
0.9056552350411925
0.5138729505160666
0.4318242416385806
0.931355885733308
0.5022847038253253
0.5690066577356242
0.502631207328171
0.4458487283043491
0.7297186639429414
0.5960555168284082
0.47273117021013294
0.5096726677209281
0.4717258444848777
0.48785034392171517
0.28498262984167544
0.46040323730742755
0.7537075680956054
0.3706986129128659
0.4991300772401221
0.4947991999939005
0.5823995520016074
0.5053963554506247
0.8071047913340196
0.6788309568582477
0.29579682976862204
0.5332353488565977
0.9303233646674814
0.5281857068738542
0.31178244724912135
0.7542000730257183
0.40223535137742567
0.41320251157758303
0.5763078557111325
0.31377750784370767
1.4148852308626754
1.2271308932121439
0.5033553900286263
0.49962912605022675
0.531597524100825
0.39440408607493344
0.5668452765500468
0.30874407739638604
0.5720208290768495
0.5289541985085209
0.30483544610093305
0.3651279750460133
1.074892893862484
0.4552383798756217
2.971098701069415
0.4086873876605444
0.4713871699780415
0.5076012325314588
0.48702609273676406
0.6206393113402686
0.4359240179314319
0.44535047323340304
0.48053063810468843
0.5114514688936834
0.7165601498767188
0.4797451680915662
1.0905842092833453
0.45021866700857716
0.5723418742849576
0.5332388183576421
0.5074847895574105
0.6075416093768751
0.5214804746535944
0.5755761697969715
0.5049598330824177
0.5511996790006817
0.7892425519979082
0.8932239235179666
0.3525010883561456
0.4597933291274864
0.45009816328235314
0.8885732538812088
1.1675036889820742
0.48608620120874374
0.5417894472741739
0.30227950500224426
0.7606324313497766
0.5885816645123075
0.6359200169335736
0.3266932606540311
0.694238776801897
0.43694982834266294
0.6053990770765468
0.6487957160247031
0.5323949629310194
0.6663793967980304
0.5371054809912311
0.726844148465578
0.8132080758455003
1.3397775860474785
0.7437360364853153
0.6266279553105025
0.5795642842104727
0.4047103722797144
0.4167500452085237
4.768214310867147
0.5200591323776508
0.7397287149297469
0.5495041295019831
0.7271880609808947
0.5436889506557064
0.40707092254224125
0.7473131034485913
0.8339158792632603
1.285814357368566
0.4573818462029142
0.46473478120668726
0.539874651870835
0.6094142467425645
0.6560536999785118
0.8566175891916282
0.31045607434802425
0.5624516190298535
0.2929840655710499
0.5044356801711524
0.4858419462281612
0.5951398814708958
0.5399731725593758
0.4226392746831713
0.7859149513114204
0.9197038885243014
0.5610104788426661
0.576432924312477
0.9142108171684779
0.4184557664038937
0.44721108204979926
0.6744390923625931
0.4825815986834859
1.0135863777744971
0.4794119341971678
0.5205914673777206
0.5642620740265166
0.44544883734223434
0.48371829439658975
0.32008788346652045
0.8299013064998403
0.5700953793437435
0.5647248817569894
0.4752443591713122
0.417194426129764
0.4682730583148204
0.4628953478338895
0.7650759302300371
0.4259708891568368
0.4743617977553009
0.30567760677970474
0.5009489088167726
0.5152586788064819
0.7271489481322143
0.4740823339253454
0.43193247990820266
0.4803102369130419
0.6270478185146505
0.5413233558464235
0.5831649140958578
0.3029893873980381
0.48262845734275195
0.6548953312048685
0.49568003376997816
0.5880571805490814
0.49809062120766723
0.6016238326794279
0.40018989972861335
2.3362094172476935
0.5656020519984822
0.5090622700457753
0.8613479104828717
0.4456291206616424
0.46429053360232636
0.47468476739403087
0.8721440749537088
0.4443398777920921
0.8605238662582643
0.4216726118414469
0.6435912793258658
0.5016553287252622
0.6733387272946731
0.7505682399060217
0.4599893651691299
0.4448854692896326
0.5110757216576257
1.0100291620664195
0.4667961015634447
0.8213635390538033
0.38222867566144897
0.3276289727561083
0.36639856480215216
0.34144871135200433
0.6959435586812002
0.740871847443315
0.6549346013936965
0.8344704939985884
0.3501581095186647
0.5077041351514421
0.5754413197777236
0.6071835312545709
0.5909675662986226
0.5620756444391584
0.49610927830997353
0.764084345209125
0.4647742717044594
3.2114933239890573
0.43256122656970936
0.9743191991041058
0.8263863601857325
0.6732206538191078
0.5034230885633951
3.392855978108565
0.6761863466962075
0.6027645533130208
0.48867521007451103
1.1870919852909818
0.4849591533309543
0.5166662871320847
0.5061344311289085
1.0104022233873684
0.8702170241698761
0.5783960881995567
0.30923417658575636
0.35122782994727525
0.47708703593720464
0.5367822059260462
0.4392314910327393
0.8607397337942126
0.4775769208687907
0.6811387412141131
0.46091996306259275
0.4154010481165507
1.0058726404306078
0.3642227975814615
0.5084084347596242
0.5680256579876632
0.41038187465345405
0.7598914193489652
0.5446677338671658
0.6875679241117469
0.49057564372064605
1.9101072765161986
0.47005651023394407
0.7687569094297269
1.4431926683311138
0.5174589905916495
1.2961756974101806
0.6685004688826353
0.5424815433060841
0.7212623774238659
0.4242719762928476
0.4898859083786732
0.4507498866893393
0.44598198708011944
0.42329634832260205
0.6859269246727484
0.7553266343116027
1.5980266549096507
0.5392844863664289
0.40108416185343926
0.357375452571306
1.0650543523400682
0.3990172721067914
0.7040538663880216
1.4706171944352864
0.6855080086987075
0.5237603974669158
0.5526367021354304
0.532368422609567
1.4396576700498345
0.5068431925475317
0.4361962047116722
0.429310826395588
0.46165011706973275
0.603202524943849
0.33587280883118414
0.8109003103913552
0.4812592511906127
0.8492999441943092
0.4884254031013944
0.5534738904817875
0.4754805794012954
0.3261539183144084
0.48811963789970025
0.3037363268263084
0.47879631833741776
0.28484265369829054
0.514249052068442
0.9443481301130733
3.722733294707829
0.6081218354827308
0.5145851852727099
0.4774616763816902
0.3532054291258689
0.5018697358427278
0.4637184449459257
0.5525219055897904
0.5490916444258699
0.426438928281708
0.4329363074158022
0.3006032612963445
0.3141876871495743
2.9285984463274506
0.4115238500492035
0.7273065752446308
0.43773874568002574
0.36303636646637755
0.46210837751088124
0.5371783154221518
0.5771266001263324
0.6526440601468311
0.5524527637516855
0.5162808979567711
0.7173220041365332
0.5739811845907941
0.5163340296414785
0.5898050095434825
0.37250136539748574
0.483342826253781
0.5624944593781677
0.5462952251766202
0.5354307625085439
0.47922796910854365
0.4787450881095735
0.6740238861921507
0.7078964925265119
0.4378300211610295
0.3715304030656885
0.4864209820632938
0.5431960764529578
0.9393679814412076
0.34755335269624216
0.6036384897252975
0.30640755069964987
0.4874799587234563
2.1554923801448567
0.45112793200903173
0.4758375264798425
0.49914086995145884
1.4872726114301082
0.5134260683968365
0.8424382976671763
4.086626401824931
0.6744454046137929
0.8634693345079137
0.4094801256264952
0.4653651114664553
0.9755880971707729
0.46549133348770494
0.8158291738370053
0.5014606152312914
0.425147576474078
0.43137071154723045
0.9848289777553015
0.4774387440656536
0.5990221533470755
0.474680036345218
0.8301033180514986
1.2479850582063243
0.6146316162512719
0.6093360385035884
0.3539064972147718
0.43654981009596655
0.5093315321551061
0.8522275415576809
0.4544427273073473
0.5395176954446836
0.6112027973822414
0.4111840363898487
0.43071267779126177
0.5513923014877924
0.625358927271757
0.5820749536161394
0.3397901471537868
1.1268284925241434
0.40902510418975657
0.4664193168747455
0.4433179833278124
0.5236989814766786
0.5302225174421633
0.6241904836580464
0.35743761398164536
0.642635088930252
0.5450374963694657
0.6045422572127747
0.5420562264770877
0.5302306709841543
0.30933285356923473
0.5262377284636097
0.7084815548349761
0.33915733331472764
0.466211283571889
0.48559398446601715
1.8212542498416988
0.4720612639402233
0.4999416875029937
0.6369081909587171
1.012716199206485
0.4704987017404994
0.32129969588351803
0.5075789783450297
0.4933700251499282
0.7397187176410958
0.7523369970674447
0.46083276738499
3.822682527872412
0.604530515522484
0.510724079569047
0.5955545814679583
0.49365886789559343
0.6383658703527741
1.0149701462675014
0.5504225093891718
0.39785811019231304
0.9651941631678425
0.47352204229208394
1.0283534047245224
0.5795478916875619
0.6306837623394279
0.5454989272592683
0.4720755038707589
0.33060488264373394
4.187761467291898
0.6299697832082419
0.37094333227756177
0.5009347301665291
0.5564622222503575
0.6018837065568929
0.8409363222235181
0.5359873619698077
0.4558697360114616
0.8055886948255179
0.269148817338052
0.5944368148329314
0.5461155852842204
0.47708297198687666
0.30637184855712896
0.46254653220365066
0.46868445998675623
0.31417164015452115
0.5259009319097704
0.8951640830896594
0.5533774991513699
0.4171056955017153
0.5346639032367946
0.4346005320557577
0.47831402069744516
0.313130223685227
0.5195736514196313
0.8854566808759367
0.5137589713058665
0.8352314081404129
0.5437505326216354
1.0214334671584233
0.5934077856223375
0.4090984298132891
0.5249065674718425
0.45836324893547253
0.569592182928615
0.4620397671637613
0.3409044840752885
0.9455992825590882
0.5998847213313513
0.7044975539610534
0.3790513703695758
0.49169049147868
0.43215132135532003
0.4401135012798903
0.5651036858520729
0.5191574404970124
0.8373327616313048
0.6862376223443164
0.5230845999329495
3.035859725554629
3.0927009055258416
0.9901971396138446
0.31418651499894806
0.3294018026387376
0.29563395723842134
0.5098994577600409
0.8259282860300909
2.47222510432448
0.4951405410282129
0.763296050941628
0.4833031944550187
0.462325384613426
0.45798601041972475
0.6682621743104203
0.4522050613370305
0.48948147491327604
0.7196572963541006
0.5728444306737867
0.46878100047806215
0.6863729070567833
0.823121487311716
0.5428265375384798
0.42903187457834235
0.4551315315600536
0.42410149186824225
0.9113947945291117
0.5065602524162454
0.44438596535650565
0.30637184855712835
3.6422537613533588
0.588876535679273
0.4322346551135054
0.3849214244989786
0.4278016997564097
3.588718629628843
0.48356410432955793
0.5749089330184903
0.5240515839719
0.4672574987369206
0.5604374979142205
0.8483575489610031
0.862385869245841
0.6177905666984801
0.45832118248298565
0.7742888308381491
0.9813138016758474
3.156073665704805
0.5766921062415371
0.3301716696000916
0.4884993321000762
0.6183063735883517
3.4246795010336353
0.5382276329096173
0.9267007098871778
0.37235973608456463
3.645538889970494
0.7314886634733494
0.42447366219953603
0.3284129802124896
0.5275938575726042
0.5072638260071455
0.9120183394972574
0.5111081605296859
0.694261418324136
0.4211770516982421
0.9995783096345208
0.34854349666392914
3.438865169513522
0.5641706904410712
0.7204808490857811
0.47436021199638667
0.4617469725112383
1.4054353962229849
0.6437267611795269
0.4210531626797391
0.9549243368444978
0.49259434719969797
0.5325901044491705
0.9192583371951375
0.6522438427846895
0.34617678314708183
1.341460554361574
0.45228068583356307
0.5603038129112418
0.38236587872147093
0.6033270098891428
0.7054994583826865
0.40963411786056514
3.774508195733312
0.5822705371001746
0.42690327145132
1.061696191052401
1.0860580875726316
0.4074844052657099
0.4594398603958207
0.4375140103182703
0.5225062435629547
0.507699719771132
0.5285620012082212
0.45370294927089827
0.5396050743594691
0.5900482878607921
0.49896905460457985
0.6064300818702966
0.5638477416613171
0.4520448662357449
1.1968804166229006
0.7228410541612647
0.5718520117404869
0.5272077496698092
1.0008673852692778
0.4958531952670015
0.4503998551676792
0.48957359686905044
0.5756325787621513
0.34491590854319615
0.46596112819920527
0.6115281540080415
0.39003872445228127
0.49981014746522423
0.9017838287265486
0.6180729288392863
0.46852683572497555
0.8479223587385069
0.5192128190761814
0.8647580833854334
0.43649431456155086
0.4027876134261231
0.45102277690558773
0.5218280183563899
0.49753592104470074
0.4911483982028509
0.4924155784970592
0.736538470982862
0.7231495927537248
1.6834660963707504
0.6488420438029734
0.6650291318712185
0.5551694542757776
0.577612935657572
0.4785114211400866
4.280718559223752
0.38796194255142513
0.3942597756579406
0.6569217652964214
0.4483323860402886
0.6413854984409045
0.47649640083214473
0.4662386151514841
0.8583825037165389
0.4676477610452003
1.3162836255999493
3.7951560210049866
0.6087719669685443
0.49573231873411194
0.6086800102951769
1.7629678840019547
0.43013157171931116
0.4242383220605745
0.5512815690659562
0.5472979808390285
1.8781629217631468
0.9887569759252065
0.9347803782296497
0.46271786261823245
0.7936125690379424
1.0393525697251214
0.705683173259712
0.47487814540577494
0.5076250790895555
0.7281034477417285
3.3722600096475968
0.5472723826606014
0.7775963231401983
0.6141678104568834
0.303442369867062
0.45505066440283165
0.4266806006857438
0.4883817489029457
0.8742218978423613
0.7580440914429484
0.47925402465754235
0.437999009958691
0.5227249729582776
0.3119492011169433
0.4851574845647609
0.7656757614380935
0.4447305563435733
0.6826104021229994
0.48125427350297206
0.5342062597802648
0.6902253649219323
0.38281072308109193
0.49626971929171715
0.8756734906242678
0.8365674224796029
0.434623653840601
0.518847477877148
0.4274959364988742
3.050115488508897
0.8409722895753676
0.45565425094169204
1.1376955899270258
0.44545762486594426
0.9444874530732549
1.0444419104612674
0.5937570686312472
3.6241426995149237
0.4719107080634254
0.6030565915071027
0.6530160802671591
0.3071337481751357
0.42356205415598125
0.30637184855712835
0.5669097871042993
1.536873296567742
0.46373380613860954
0.5429353912200254
0.7426026173794624
0.4127706630114207
0.427227814727704
1.093092794675909
0.36904203137104186
1.04919700698377
0.6513824577847817
0.528743288953514
0.598329251830255
0.4131167134543918
0.6178375068138345
0.6206950932800444
0.5160857761430173
3.7480643209378957
0.711465994954994
0.551133001103874
0.9217235228007175
3.0382625381595902
0.4654934031714166
0.766166400278633
0.46769965657331325
0.5023641812540713
0.817679422385931
1.421985046024412
0.44090647839404407
0.48776450301682384
0.5447384115620494
0.5514799276524226
0.6299697832082419
0.5327033771761498
0.5123847802036489
0.4735735498664292
0.5076432874208775
0.46140781855845486
0.7921515771930447
0.5178573365252499
0.5210849833987828
1.038558570837058
1.4051407583961018
0.47235879251592894
0.4589178404141728
0.42456669855707385
0.4717239467104854
0.4303054320818692
0.4618329549581794
0.4819213276677968
0.5687123958903126
0.35263042260435906
0.5527004233302105
0.8161618432853945
1.0409168496415147
0.5588371733861651
0.4236800570112692
0.534852158354771
0.4951836278605095
0.5085153927670453
0.4850990665877611
0.5109983474640359
0.36065665530052193
0.5040310692733782
0.48521359817685994
0.45055815804704025
0.6275075509828538
0.5755018302122148
0.42852159740097323
0.6074255918720625
0.4833557241134327
0.5048690175649281
0.466988710907442
0.9844948923225694
0.4134455878916262
0.3554324484555077
0.44318560139441215
0.6455227095437162
0.2961304285694198
0.8201432874448509
0.5946778305369607
0.6906402587955803
0.46047120590272167
0.9234610941890423
0.6767018804040943
0.38478676486653646
0.5819217137685375
0.5332899436982591
0.47632868265061445
0.474528840932221
0.745361192266988
0.5800559071036884
0.47554635590773997
0.6497712140510715
0.7822234168059318
0.629969783208242
0.6382343328672441
0.5295261987825591
0.548014416090642
0.5114368530306744
0.4991176049355904
0.856877328399248
0.7664630144871056
0.4213639460640797
0.45993386507100925
0.5569478462628169
0.48413786094094513
0.564065539977061
0.4616785944910359
0.627770559608065
0.3563002103649405
0.5480703509026482
0.5901454334542243
0.9310758006791463
0.4720755038707587
0.5017398700999791
4.193853927654203
0.8997723562799852
0.8911571879307396
0.5290563183194479
0.7675243183741948
0.38224999742540183
0.512251211286305
0.6076996112308569
0.827142532524179
0.9278491722027475
0.6218576297450245
0.42256531045334816
0.6095459039789379
1.6380038525377143
0.8893673146238273
0.469018966091285
0.6901209460448409
0.6390263584626507
0.5893525324846995
0.8388861361049307
1.4646763207303866
0.7795248404931344
0.9311502706973261
0.5417035328940234
0.9602451297343104
0.42050205279163
0.6937967157504764
0.6635323509438534
0.48420706074142095
0.4682327042623254
0.4959188360408546
1.087055494159488
0.37756641843280253
0.4060641509500566
0.46017862447177577
0.4181995305299779
0.47682504895307315
0.5428189210735117
0.5431590425542016
0.48316513821266716
0.5752673857364814
0.4865116657858722
0.33090205541551715
0.4543971511018667
0.5746571120961608
0.5252366929159485
0.5898463584205591
0.9024192099751135
0.810677319119025
0.9039974701290133
0.6052409634275197
0.3686044921316181
0.4352147819857263
0.47339809192733556
1.0558420476703085
0.4352835259473228
0.45594346589544116
0.5120037805096307
0.4974686162146048
0.5017917055886685
0.36781973001118495
0.8989877123287017
0.5068263080771778
0.8870154524917458
0.5247735224938965
0.5623751689339627
0.6299697832082425
0.5014422941649734
0.6020892017795392
0.42588464541919757
0.729957631861066
0.43339546680764934
0.7400188158185329
0.5477556229437939
0.3277574075431167
0.8504465614147906
1.120878211896678
0.5073390115539068
0.29009429503191053
1.02473117345308
0.47882338498436383
0.4287038570903473
0.47225523900850536
0.8087264928422496
0.5762007970559706
0.5227722385992227
0.8657396584814541
0.5324090002413124
0.8095021377275563
0.35809972480043495
0.48616575789746913
0.6537073849945203
0.6111889192210134
0.4704049644428425
0.8488138650462062
0.4624944372981501
0.4922858527029797
0.45472419117508966
0.4962529119604652
0.48891006160595907
0.5680055445747413
0.5144787906158195
0.9138060244707013
0.5035256511696479
0.7721682235753442
0.5067544784610943
0.4398193124627302
0.42052716499021964
0.43012635745186595
0.48047791379672977
0.6720409928057124
0.8044410085393771
0.4909413720557736
0.4883622721809386
0.48578314246370413
0.46354631516557054
0.44205674963530545
0.5570205863165397
0.777400736180291
0.48485017758406695
0.9080099312131394
1.1329001114377537
0.38967792979740024
0.530908125940337
0.5609812289435104
0.41622662629306
0.5640395328943599
0.5743597164496342
0.9955677010360675
0.5354155496828094
0.2884467536335696
0.8812225940373009
0.45286818723473987
0.47098661070713504
0.8646031763168037
0.2730898064688887
0.8185543706759836
0.46402009176272835
3.0834212164378396
0.4740593754488751
0.4960532539679088
0.3455950426566873
0.3274414064536416
2.971098701069415
0.715695424229905
0.49774517456084866
0.3697166096353699
0.4594802681692666
0.8656953247594763
0.4448472205763579
0.5288252705537467
0.4300570628363103
0.4470451152270084
0.4268892367269928
0.4566737427753117
0.5414681969023838
0.4960800371504598
0.6509839412804825
0.5466518666045874
0.5130358396282189
0.46115257584204883
0.5718391021871428
0.6186151622821275
0.9837135301183645
0.4685481047693514
0.5591478605671879
0.4782122043056161
0.2973352071123565
1.1426458080090012
0.3965412345973522
0.5609932459514865
0.2891450918492773
0.4655319302539278
0.935505494659228
0.60458395310363
0.46051669568752995
0.3519795893306016
0.6633262376515948
0.5143092368868013
0.5525075384255494
0.9083192841082689
0.595557076604554
0.5459919903979936
0.6886933759520973
0.3972815453477087
0.45088336063829715
0.45346013915210287
0.5442204391497986
0.30416789243668046
0.7462154916386069
0.3863814313446856
1.1573616106151325
0.46908543810309017
0.37521215601996355
0.5320174884486251
0.6543214445021006
1.7713563363774911
1.5542051962929015
0.4739890063063208
0.4656267990674901
0.4472969787161119
0.780894376895003
0.5408602932652896
0.5122673549446
1.341805624088395
0.44523437405946575
0.44700360947177437
0.5732972414459482
0.5637488825518224
0.5018940167666232
0.4911965573836532
0.4761854619311368
0.4658549919876408
0.38539793502788466
1.3498630456137826
1.5970799311568376
0.4663484026888088
0.7009224245650324
0.8740183517675632
0.6764295699530821
0.4676369099132656
0.4686791145541804
0.36993268258450207
0.4676026107029091
0.4832129972190488
0.6286392998302845
0.6069202066338987
0.4667588262381714
0.45428968772135314
0.6561828948601663
0.5029461029769275
0.4958646102878611
0.3565927789011772
0.470227944659095
0.5561225317266567
0.49044742127029967
0.4919945212817056
0.604398527339185
0.5560748734396868
0.338585341672383
0.6035239590723427
0.4147652508399205
0.8929680124200656
0.6418714473715772
0.4759005893038829
0.8199492258633049
0.4330483614112055
0.6560850901168829
0.44323408651465074
0.5924641299409501
0.47792439052461955
0.4139371340337075
0.3396923381075522
0.45715282614072894
0.5194452320669718
0.6808282961473486
0.5539264496600547
0.5175751829816496
0.2769525403015087
0.654614618276223
0.983658451033356
0.3295787457680811
0.5135526731716826
0.34575358341489826
0.32309939794400927
0.9500708096077944
0.403065093842583
0.6306604217005951
0.8141446721236817
0.43806956589095686
0.5483468550270867
0.469005769079663
0.49432358550184213
0.606958132525867
0.632365907160938
0.46675407866948787
0.41409329675261436
0.7838554488814617
4.320076867759542
0.5465386294310487
0.5663653969774792
0.3672319116892462
0.29066122709720044
0.3177291857314782
0.9247210359879898
0.33899684944296793
0.5254205308845578
0.544688620171894
0.7987946230221705
0.7274123988195145
0.2814701132060406
0.4832289432448708
0.5293698075258413
0.4620208175130594
0.34121675795519846
0.9460263686754593
0.3256169299946758
0.39193934872163433
0.486028842511112
0.35642602308379684
0.4863471222445767
0.33855400522409296
0.3412901340698899
0.358492651848737
0.2973352071123565
0.41032420787441204
0.44308096743376907
0.3238503631875554
0.5056751517380909
0.3360592289854164
0.47114335861597545
0.33274195815123425
0.3575621548542503
0.8297984350785962
0.3771006025179954
0.7021965099422972
0.48307060730329526
0.4028406934577382
0.40800407322832116
0.5856389144130504
0.8287522202597521
0.6710616681585438
1.111713182042275
0.8228764291058182
0.48283209018175766
0.8815644587066771
0.5267520873319665
0.521914011055446
0.5385131748878897
0.6283592855629311
0.3811271950846719
0.44971965039606837
0.48731092736632214
0.4192024686909894
0.572707941460247
0.5674325885094293
0.5814895041146184
0.988303854801115
0.6580041536187733
3.4556114502977437
1.2276030545441698
0.46380147373534886
0.32594879642155694
0.45766954188701736
0.7904110668040526
0.5340918672837625
0.3812257174330617
0.6184818146940214
0.4538427911580801
0.48170249218485556
0.5217590830651816
1.2736433898529387
0.45836540749147914
0.5128120546425583
0.31261730599036397
0.4884732995190604
0.484266091414461
0.6729318377353848
0.7579020865019389
0.6058675273565173
0.9383823585330195
0.7675135430975983
1.0130071602579398
1.0799165319665656
2.9371707065414006
3.0081452480110964
3.7280768460524114
0.5472736724254954
0.4506380738090984
0.775624668815623
0.5469090040517904
1.4347248420061494
0.7771742473777269
0.3783187913621643
0.5106112502088856
0.6226459403398896
0.3499351607166259
1.2182234210824672
0.8296773729191609
0.681561148764512
0.9114639079133208
0.3693050158799724
0.40206563993641675
0.4786795659770622
0.5926367809413434
0.6538641687686525
0.4181606610413243
0.4325535261394977
0.6237670219201613
0.5198811522931118
0.45811054642385945
0.4380338615547111
0.852284857996399
0.8472188116508699
1.2392840145506034
0.5292198820857201
2.336209417247693
0.49645939628851216
0.42988496701274526
1.6682844913189507
3.7309774761000045
0.44273913273678883
0.30201208714741096
0.30723527146981594
0.3105018656387649
3.7113497303632514
0.5154373572296195
0.4836455442053222
0.3051760135264519
0.30048666848005084
0.3087948908843199
0.3033394458414802
0.3070689808878342
0.3006938098097192
0.43076307292936417
1.0247871046137322
0.5015096058054361
0.9399152764176134
0.47992607732931375
0.48640379437307063
0.49791824323271866
0.2959990039874674
0.8445938747289902
1.0308063158209853
0.4817944887135999
0.9682109328970339
0.4708035393374235
0.4265327544257705
1.3647548634585476
0.5510800850585217
0.7167004613547397
0.5285877023765742
0.43143603069733194
0.6071187863852122
0.4567668440144373
0.751935058273037
0.3499915909940542
0.6085514484973643
0.48029488087468425
0.5395056294795593
0.5118891709366903
0.48340775662926866
0.8858361648457714
0.5276578713132702
0.5646249637900769
0.418395242763679
0.4804962462959392
0.47133044709998617
0.5007271069956254
0.8684909648529602
0.5713153440832812
0.303639330667868
0.47209872894681776
2.7011374034540943
0.5516217157846776
0.4879723816973742
1.2224888578289366
0.4728555993832074
0.4902373621560158
0.29385059755657794
0.6168398277470041
0.5697593297137776
0.45046457533601386
0.8522570185552522
0.44246704603674747
0.882731424140099
0.4602575987322581
0.28927371589050394
0.48911198140542883
0.39122302952359206
0.4525852046305073
3.313248941162172
0.6303866315588397
0.4766782943554392
0.5738611884014787
0.3348296287960041
0.30387222971382893
0.5381632343283379
0.4670771637039383
0.7019801623670875
0.39245633749233144
0.6101672127311621
0.7854430204252141
0.7568207178847526
0.42849914746216244
0.6691561048503246
0.46795857083903775
0.49374687750193413
0.6837600654126778
0.55086775907886
0.6310080553160425
0.4648345475048996
0.48964163158155677
0.4351215420838182
0.649801040296706
0.35687062214967313
0.4511429507918708
0.6506868978966659
0.40053653872935624
0.5097657439713883
0.5259674920336156
0.48644362605158153
0.8311982688087588
0.5228125044027635
0.39930124161636543
0.3834991720938861
0.6499200557796574
0.5764992175711697
0.4701806731242279
0.6843082686509975
0.47025307095506785
0.9003255150756284
0.28301518564384526
0.940801525565726
0.4639034938406431
0.4636830694698152
0.6567141021801449
0.5873649414005634
0.7130414483295411
0.31441184372994807
0.2816222961302562
0.47585126755848356
0.28101180818445776
0.8489472357099435
1.1189004095574673
0.56123176502981
0.8898688205179278
0.5174747897611747
0.39394560434866743
0.5620128295649002
0.4422452726201376
0.6900683012604865
0.41106199179250946
0.5101262522228202
0.5918016597226465
0.5262396795565559
0.6677325330808301
0.7445098456363146
0.69516115066723
0.6234946195410318
0.41213527187565
0.5336516583125169
0.5556244499279399
3.062613809832343
1.0849712223873305
0.3069769122577334
0.29450045058610613
0.3342629239235906
0.6497712140510691
0.4585161368167884
0.4789067545925688
3.484673670661099
0.4970174242472429
0.3426114270954321
0.478907336151204
0.31763417370122826
0.9416456409369655
0.6882763112362148
0.6247155787703381
0.3434088989913382
3.2462684492238147
0.45530297779560164
0.7992824398436262
4.374636513918854
0.4929993726824345
0.6881500264794079
0.47401001148216765
0.6872817088090593
0.29768406348168774
0.34415603916244863
0.6717900126699361
3.3938130993072853
0.4793002652637346
0.7206408427717457
0.4049545719708483
0.3706259754825463
0.4451701789939984
0.5663262182080328
1.3952687039778429
0.4632386734606997
0.6032079025742803
0.6189548534652508
0.5977658927329085
0.3433672581771208
0.6019744568394033
0.47744646439613114
1.1102715858963885
0.5505930608737013
0.4885322068274341
0.45736626923299406
0.39914210116370574
0.9750827055238543
0.4759127160600938
0.6790662890647987
0.4608871112462827
0.6432065920077803
0.4502406738445396
0.33758859760201926
0.38101959596691104
0.6353347764385144
0.4825378428561079
0.4805692227474336
0.38209484957629014
0.434492330410097
0.6188027745661001
0.7781263375596537
0.4683197142523755
0.5155235856201652
0.47823014413156223
0.42817106104939223
1.0177575574301716
0.5513899588579851
0.5349050598173688
4.169607325090774
0.849548765744584
0.4942506787270204
0.6555034434144541
0.8543076217774971
0.6274704389751875
0.5283425700655293
0.4663760375248891
0.83344166488679
0.47611185385927246
0.6310779482336745
0.3670175832430059
0.39407874739123944
0.533214530092668
0.46465717439487386
0.4359936728393545
0.781387925624351
0.9794858240750675
0.30594603883820065
0.5434995152820229
0.4386867714635369
0.33587693413145137
0.7601977936412948
0.3470289542135064
0.529861489177207
0.48268439643197436
0.4919977993680071
0.5792268227810666
0.5037792586630544
1.084702191455312
0.8762108704623723
3.11580064976432
0.6855742176977333
0.5643680882704651
0.4641299645362511
0.5653287289910016
0.8394491132411475
0.7096059937182384
0.7540038825117276
0.5646265910477314
0.4680110883788945
0.48389245962564564
0.39489078715619813
0.5320722427625169
0.7540544709014693
0.9689608641654182
0.5711314306986337
0.47517216510452154
0.5900904811372985
0.7115000368127824
0.3464231531527223
0.514415012345934
0.5340293937257998
0.5112050730984194
0.5208430268252497
0.5493345536866985
0.5361087951838038
0.6046791784140749
0.41657774794782343
0.5833629203972558
0.46458435443038143
0.9245138844371106
1.3799050284413663
0.4882245963826807
2.9708572872927625
0.45430783844332745
0.5033129070183039
0.48225060618025023
0.55584951717201
0.4211304961971733
0.5290450915509123
0.5491081424943076
0.8280450494809241
0.4037970423595433
4.29499151947764
0.34797717688825747
0.859512118290471
0.9157100481139367
3.3122207833386894
0.8540005696012749
0.554415247397074
0.647536342496421
0.706579621915299
0.5213937877658578
2.9538982509042184
0.64582708465001
0.4904255775121651
0.47131839436639794
2.73484877983428
0.5352400952435699
0.7294629111311548
0.47811489381278977
0.5009874601748143
0.5165485042144818
0.4363768830362288
1.1468102086565157
0.3097534913777965
0.38288418582770195
0.7979557806185621
0.5124293032919601
0.46298375780421736
1.2119214989950668
0.4141442190996249
3.1904430813334255
0.6347010500693135
0.4865703909822096
0.43304146141894106
0.9091138239489236
0.5911006852620634
0.5170748195029001
0.3679907089573358
0.9130205535167337
0.4733057231639495
0.4970386571932598
0.5568843370024837
1.2479553349603363
0.5686792531439181
0.430435909312323
0.5362088114803902
1.2918432650176843
0.30916437344211695
0.8081102279885916
0.267191645411756
0.485298496099144
0.41685521617146704
0.4976161928565179
0.4564023552958883
0.40945140958607534
0.6203331649559789
0.5810119727992357
0.33541596188173717
0.47911381393206653
0.5041582556807344
0.5449328725229644
2.209809342862214
0.41408327307966597
0.48940331365563194
0.7460533210004219
0.409299475781045
0.33371485842231213
0.41408632985212007
0.7418210906415131
0.47479993392004677
0.33150387887756994
0.6804403848240431
0.566391184834742
1.6619616980468201
